static  int weights_array0[2913] = {
-4096,-4096,-4096,-4096,-4096,-4096,-4096,-4096,-4096,-4096,-4096,-4096,-4096,-4096,-4096,-4096,-4096,-4096,-4096,-4096,-4096,-4096,-4096,-4096,-4096,-4096,-4096,-4096,-4096,-4096,-4096,-4096,-4096,-4096,-4096,-4096,-4096,-4096,-4096,-4096,-4096,-4096,-4096,-4096,-4096,-4096,-4096,-4096,-4096,-4096,-4096,-4096,-4096,-4096,-4096,-4096,-4096,-4096,-4096,-4096,-4096,-4096,-4096,-4096,-4096,-4096,-4096,-4096,-4096,-4096,-4096,-4096,-4096,-4096,-4096,-4096,-4096,-4096,-4096,-4096,-4096,-4096,-4096,-4096,-4096,-4096,-4096,-4096,-4096,-4096,-4096,-4096,-4096,-4096,-4096,-4096,-4096,-4096,-4096,-4096,-4096,-4096,-4096,-4096,-4096,-4096,-4096,-4096,-4096,-4096,-4096,-4096,-4096,-4096,-4096,-4096,-4096,-4096,-4096,-4096,-4096,-4096,-4096,-4096,-4096,-4096,-4096,-4096,-4096,-4096,-4096,-4096,-4096,-4096,-4096,-4096,-4096,-4096,-4096,-4096,-4096,-4096,-4096,-4096,-4096,-4096,-4096,-4096,-4096,-4096,-4096,-4096,-4096,-4096,-4096,-4096,-4096,-4096,-4096,-4096,-4096,-4096,-4096,-4096,-4096,-4096,-4096,-4096,-4096,-4096,-4096,-4096,-4096,-4096,-4096,-4096,-4096,-4096,-4096,-4096,-4096,-4096,-4096,-4096,-4096,-4096,-4096,-4096,-4096,-4096,-4096,-4096,-4096,-4096,-4096,-4096,-4096,-4096,-4096,-4096,-4096,-4096,-4096,-4096,-4096,-4096,-4096,-4096,-4096,-4096,-4096,-4096,-4096,-4096,-4096,-4096,-4096,-4096,-4096,-4096,-4096,-4096,-4096,-4096,-4096,-4096,-4096,-4096,-4096,-4096,-4096,-4096,-4096,-4096,-4096,-4096,-4096,-4096,-4096,-4096,-4096,-4096,-4096,-4096,-4096,-4096,-4096,-4096,-4096,-4096,-4096,-4096,-4096,-4096,-4096,-4096,-4096,-4096,-4096,-4096,-4096,-4096,-4096,-4096,-4096,-4096,-4096,-4096,-4096,-4096,-4096,-4096,-4096,-4096,-4096,-4096,-4096,-4096,-4096,-4096,-4096,-4096,-4096,-4096,-4096,-4096,-4096,-4096,-4096,-4096,-4096,-4096,-4096,-4096,-4096,-4096,-4096,-4096,-4096,-4096,-4096,-4096,-4096,-4096,-4096,-4096,-4096,-4096,-4096,-4096,-4096,-4096,-4096,-4096,-4096,-4096,-4096,-4096,-4096,-4096,-4096,-4096,-4096,-4096,-4096,-4096,-4096,-4096,-4096,-4096,-4096,-4096,-4096,-4096,-4096,-4096,-4096,-4096,-4096,-4096,-4096,-4096,-4096,-4096,-4096,-4096,-4096,-4096,-4096,-4096,-4096,-4096,-4096,-4096,-4096,-4096,-4096,-4096,-4096,-4096,-4096,-4096,-4096,-4096,-4096,-4096,-4096,-4096,-4096,-4096,-4096,-4096,-4096,-4096,-4096,-4096,-4096,-4096,-4096,-4096,-4096,-4096,-4096,-4096,-4096,-4096,-4096,-4096,-4096,-4096,-4096,-4096,-4096,-4096,-4096,-4096,-4096,-4096,-4096,-4096,-4096,-4096,-4096,-4096,-4096,-4096,-4096,-4096,-4096,-4096,-4096,-4096,-4096,-4096,-4096,-4096,-4096,-4096,-4096,-4096,-4096,-4096,-4096,-4096,-4096,-4096,-4096,-4096,-4096,-4096,-4096,-4096,-4096,-4096,-4096,-4096,-4096,-4096,-4096,-4096,-4096,-4096,-4096,-4096,-4096,-4096,-4096,-4096,-4096,-4096,-4096,-4096,-4096,-4096,-4096,-4096,-4096,-4096,-4096,-4096,-4096,-4096,-4096,-4096,-4096,-4096,-4096,-4096,-4096,-4096,-4096,-4096,-4096,-4096,-4096,-4096,-4096,-4096,-4096,-4096,-4096,-4096,-4096,-4096,-4096,-4096,-4096,-4096,-4096,-4096,-4096,-4096,-4096,-4096,-4096,-4096,-4096,-4096,-4096,-4096,-4096,-4096,-4096,-4096,-4096,-4096,-4096,-4096,-4096,-4096,-4096,-4096,-4096,-4096,-4096,-4096,-4096,-4096,-4096,-4096,-4096,-4096,-4096,-4096,-4096,-4096,-4096,-4096,-4096,-4096,-4096,-4096,-4096,-4096,-4096,-4096,-4096,-4096,-4096,-4096,-4096,-4096,-4096,-4096,-4096,-4096,-4096,-4096,-4096,-4096,-4096,-4096,-4096,-4096,-4096,-4096,-4096,-4096,-4096,-4096,-4096,-4096,-4096,-4096,-4096,-4096,-4096,-4096,-4096,-4096,-4096,-4096,-4096,-4096,-4096,-4096,-4096,-4096,-4096,-4096,-4096,-4096,-4096,-4096,-4096,-4096,-4096,-4096,-4096,-4096,-4096,-4096,-4096,-4096,-4096,-4096,-4096,-4096,-4096,-4096,-4096,-4096,-4096,-4096,-4096,-4096,-4096,-4096,-4096,-4096,-4096,-4096,-4096,-4096,-4096,-4096,-4096,-4096,-4096,-4096,-4096,-4096,-4096,-4096,-4096,-4096,-4096,-4096,-4096,-4096,-4096,-4096,-4096,-4096,-4096,-4096,-4096,-4096,-4096,-4096,-4096,-4096,-4096,-4096,-4096,-4096,-4096,-4096,-4096,-4096,-4096,-4096,-4096,-4096,-4096,-4096,-4096,-4096,-4096,-4096,-4096,-4096,-4096,-4096,-4096,-4096,-4096,-4096,-4096,-4096,-4096,-4096,-4096,-4096,-4096,-4096,-4096,-4096,-4096,-4096,-4096,-4096,-4096,-4096,-4096,-4096,-4096,-4096,-4096,-4096,-4096,-4096,-4096,-4096,-4096,-4096,-4096,-4096,-4096,-4096,-4096,-4096,-4096,-4096,-4096,-4096,-4096,-4096,-4096,-4096,-4096,-4096,-4096,-4096,-4096,-4096,-4096,-4096,-4096,-4096,-4096,-4096,-4096,-4096,-4096,-4096,-4096,-4096,-4096,-4096,-4096,-4096,-4096,-4096,-4096,-4096,-4096,-4096,-4096,-4096,-4096,-4096,-4096,-4096,-4096,-4096,-4096,-4096,-4096,-4096,-4096,-4096,-4096,-4096,-4096,-4096,-4096,-4096,-4096,-4096,-4096,-4096,-4096,-4096,-4096,-4096,-4096,-4096,-4096,-4096,-4096,-4096,-4096,-4096,-4096,-4096,-4096,-4096,-4096,-4096,-4096,-4096,-4096,-4096,-4096,-4096,-4096,-4096,-4096,-4096,-4096,-4096,-4096,-4096,-4096,-4096,-4096,-4096,-4096,-4096,-4096,-4096,-4096,-4096,-4096,-4096,-4096,-4096,-4096,-4096,-4096,-4096,-4096,-4096,-4096,-4096,-4096,-4096,-4096,-4096,-4096,-4096,-4096,-4096,-4096,-4096,-4096,-4096,-4096,-4096,-4096,-4096,-4096,-4096,-4096,-4096,-4096,-4096,-4096,-4096,-4096,-4096,-4096,-4096,-4096,-4096,-4096,-4096,-4096,-4096,-4096,-4096,-4096,-4096,-4096,-4096,-4096,-4096,-4096,-4096,-4096,-4096,-4096,-4096,-4096,-4096,-4096,-4096,-4096,-4096,-4096,-4096,-4096,-4096,-4096,-4096,-4096,-4096,-4096,-4096,-4096,-4096,-4096,-4096,-4096,-4096,-4096,-4096,-4096,-4096,-4096,-4096,-4096,-4096,-4096,-4096,-4096,-4096,-4096,-4096,-4096,-4096,-4096,-4096,-4096,-4096,-4096,-4096,-4096,-4096,-4096,-4096,-4096,-4096,-4096,-4096,-4096,-4096,-4096,-4096,-4096,-4096,-4096,-4096,-4096,-4096,-4096,-4096,-4096,-4096,-4096,-4096,-4096,-4096,-4096,-4096,-4096,-4096,-4096,-4096,-4096,-4096,-4096,-4096,-4096,-4096,-4096,-4096,-4096,-4096,-4096,-4096,-4096,-4096,-4096,-4096,-4096,-4096,-4096,-4096,-4096,-4096,-4096,-4096,-4096,-4096,-4096,-4096,-4096,-4096,-4096,-4096,-4096,-4096,-4096,-4096,-4096,-4096,-4096,-4096,-4096,-4096,-4096,-4096,-4096,-4096,-4096,-4096,-4096,-4096,-4096,-4096,-4096,-4096,-4096,-4096,-4096,-4096,-4096,-4096,-4096,-4096,-4096,-4096,-4096,-4096,-4096,-4096,-4096,-4096,-4096,-4096,-4096,-4096,-4096,-4096,-4096,-4096,-4096,-4096,-4096,-4096,-4096,-4096,-4096,-4096,-4096,-4096,-4096,-4096,-4096,-4096,-4096,-4096,-4096,-4096,-4096,-4096,-4096,-4096,-4096,-4096,-4096,-4096,-4096,-4096,-4096,-4096,-4096,-4096,-4096,-4096,-4096,-4096,-4096,-4096,-4096,-4096,-4096,-4096,-4096,-4096,-4096,-4096,-4096,-4096,-4096,-4096,-4096,-4096,-4096,-4096,-4096,-4096,-4096,-4096,-4096,-4096,-4096,-4096,-4096,-4096,-4096,-4096,-4096,-4096,-4096,-4096,-4096,-4096,-4096,-4096,-4096,-4096,-4096,-4096,-4096,-4096,-4096,-4096,-4096,-4096,-4096,-4096,-4096,-4096,-4096,-4096,-4096,-4096,-4096,-4096,-4096,-4096,-4096,-4096,-4096,-4096,-4096,-4096,-4096,-4096,-4096,-4096,-4096,-4096,-4096,-4096,-4096,-4096,-4096,-4096,-4096,-4096,-4096,-4096,-4096,-4096,-4096,-4096,-4096,-4096,-4096,-4096,-4096,-4096,-4096,-4096,-4096,-4096,-4096,-4096,-4096,-4096,-4096,-4096,-4096,-4096,-4096,-4096,-4096,-4096,-4096,-4096,-4096,-4096,-4096,-4096,-4096,-4096,-4096,-4096,-4096,-4096,-4096,-4096,-4096,-4096,-4096,-4096,-4096,-4096,-4096,-4096,-4096,-4096,-4096,-4096,-4096,-4096,-4096,-4096,-4096,-4096,-4096,-4096,-4096,-4096,-4096,-4096,-4096,-4096,-4096,-4096,-4096,-4096,-4096,-4096,-4096,-4096,-4096,-4096,-4096,-4096,-4096,-4096,-4096,-4096,-4096,-4096,-4096,-4096,-4096,-4096,-4096,-4096,-4096,-4096,-4096,-4096,-4096,-4096,-4096,-4096,-4096,-4096,-4096,-4096,-4096,-4096,-4096,-4096,-4096,-4096,-4096,-4096,-4096,-4096,-4096,-4096,-4096,-4096,-4096,-4096,-4096,-4096,-4096,-4096,-4096,-4096,-4096,-4096,-4096,-4096,-4096,-4096,-4096,-4096,-4096,-4096,-4096,-4096,-4096,-4096,-4096,-4096,-4096,-4096,-4096,-4096,-4096,-4096,-4096,-4096,-4096,-4096,-4096,-4096,-4096,-4096,-4096,-4096,-4096,-4096,-4096,-4096,-4096,-4096,-4096,-4096,-4096,-4096,-4096,-4096,-4096,-4096,-4096,-4096,-4096,-4096,-4096,-4096,-4096,-4096,-4096,-4096,-4096,-4096,-4096,-4096,-4096,-4096,-4096,-4096,-4096,-4096,-4096,-4096,-4096,-4096,-4096,-4096,-4096,-4096,-4096,-4096,-4096,-4096,-4096,-4096,-4096,-4096,-4096,-4096,-4096,-4096,-4096,-4096,-4096,-4096,-4096,-4096,-4096,-4096,-4096,-4096,-4096,-4096,-4096,-4096,-4096,-4096,-4096,-4096,-4096,-4096,-4096,-4096,-4096,-4096,-4096,-4096,-4096,-4096,-4096,-4096,-4096,-4096,-4096,-4096,-4096,-4096,-4096,-4096,-4096,-4096,-4096,-4096,-4096,-4096,-4096,-4096,-4096,-4096,-4096,-4096,-4096,-4096,-4096,-4096,-4096,-4096,-4096,-4096,-4096,-4096,-4096,-4096,-4096,-4096,-4096,-4096,-4096,-4096,-4096,-4096,-4096,-4096,-4096,-4096,-4096,-4096,-4096,-4096,-4096,-4096,-4096,-4096,-4096,-4096,-4096,-4096,-4096,-4096,-4096,-4096,-4096,-4096,-4096,-4096,-4096,-4096,-4096,-4096,-4096,-4096,-4096,-4096,-4096,-4096,-4096,-4096,-4096,-4096,-4096,-4096,-4096,-4096,-4096,-4096,-4096,-4096,-4096,-4096,-4096,-4096,-4096,-4096,-4096,-4096,-4096,-4096,-4096,-4096,-4096,-4096,-4096,-4096,-4096,-4096,-4096,-4096,-4096,-4096,-4096,-4096,-4096,-4096,-4096,-4096,-4096,-4096,-4096,-4096,-4096,-4096,-4096,-4096,-4096,-4096,-4096,-4096,-4096,-4096,-4096,-4096,-4096,-4096,-4096,-4096,-4096,-4096,-4096,-4096,-4096,-4096,-4096,-4096,-4096,-4096,-4096,-4096,-4096,-4096,-4096,-4096,-4096,-4096,-4096,-4096,-4096,-4096,-4096,-4096,-4096,-4096,-4096,-4096,-4096,-4096,-4096,-4096,-4096,-4096,-4096,-4096,-4096,-4096,-4096,-4096,-4096,-4096,-4096,-4096,-4096,-4096,-4096,-4096,-4096,-4096,-4096,-4096,-4096,-4096,-4096,-4096,-4096,-4096,-4096,-4096,-4096,-4096,-4096,-4096,-4096,-4096,-4096,-4096,-4096,-4096,-4096,-4096,-4096,-4096,-4096,-4096,-4096,-4096,-4096,-4096,-4096,-4096,-4096,-4096,-4096,-4096,-4096,-4096,-4096,-4096,-4096,-4096,-4096,-4096,-4096,-4096,-4096,-4096,-4096,-4096,-4096,-4096,-4096,-4096,-4096,-4096,-4096,-4096,-4096,-4096,-4096,-4096,-4096,-4096,-4096,-4096,-4096,-4096,-4096,-4096,-4096,-4096,-4096,-4096,-4096,-4096,-4096,-4096,-4096,-4096,-4096,-4096,-4096,-4096,-4096,-4096,-4096,-4096,-4096,-4096,-4096,-4096,-4096,-4096,-4096,-4096,-4096,-4096,-4096,-4096,-4096,-4096,-4096,-4096,-4096,-4096,-4096,-4096,-4096,-4096,-4096,-4096,-4096,-4096,-4096,-4096,-4096,-4096,-4096,-4096,-4096,-4096,-4096,-4096,-4096,-4096,-4096,-4096,-4096,-4096,-4096,-4096,-4096,-4096,-4096,-4096,-4096,-4096,-4096,-4096,-4096,-4096,-4096,-4096,-4096,-4096,-4096,-4096,-4096,-4096,-4096,-4096,-4096,-4096,-4096,-4096,-4096,-4096,-4096,-4096,-4096,-4096,-4096,-4096,-4096,-4096,-4096,-4096,-4096,-4096,-4096,-4096,-4096,-4096,-4096,-4096,-4096,-4096,-4096,-4096,-4096,-4096,-4096,-4096,-4096,-4096,-4096,-4096,-4096,-4096,-4096,-4096,-4096,-4096,-4096,-4096,-4096,-4096,-4096,-4096,-4096,-4096,-4096,-4096,-4096,-4096,-4096,-4096,-4096,-4096,-4096,-4096,-4096,-4096,-4096,-4096,-4096,-4096,-4096,-4096,-4096,-4096,-4096,-4096,-4096,-4096,-4096,-4096,-4096,-4096,-4096,-4096,-4096,-4096,-4096,-4096,-4096,-4096,-4096,-4096,-4096,-4096,-4096,-4096,-4096,-4096,-4096,-4096,-4096,-4096,-4096,-4096,-4096,-4096,-4096,-4096,-4096,-4096,-4096,-4096,-4096,-4096,-4096,-4096,-4096,-4096,-4096,-4096,-4096,-4096,-4096,-4096,-4096,-4096,-4096,-4096,-4096,-4096,-4096,-4096,-4096,-4096,-4096,-4096,-4096,-4096,-4096,-4096,-4096,-4096,-4096,-4096,-4096,-4096,-4096,-4096,-4096,-4096,-4096,-4096,-4096,-4096,-4096,-4096,-4096,-4096,-4096,-4096,-4096,-4096,-4096,-4096,-4096,-4096,-4096,-4096,-4096,-4096,-4096,-4096,-4096,-4096,-4096,-4096,-4096,-4096,-4096,-4096,-4096,-4096,-4096,-4096,-4096,-4096,-4096,-4096,-4096,-4096,-4096,-4096,-4096,-4096,-4096,-4096,-4096,-4096,-4096,-4096,-4096,-4096,-4096,-4096,-4096,-4096,-4096,-4096,-4096,-4096,-4096,-4096,-4096,-4096,-4096,-4096,-4096,-4096,-4096,-4096,-4096,-4096,-4096,-4096,-4096,-4096,-4096,-4096,-4096,-4096,-4096,-4096,-4096,-4096,-4096,-4096,-4096,-4096,-4096,-4096,-4096,-4096,-4096,-4096,-4096,-4096,-4096,-4096,-4096,-4096,-4096,-4096,-4096,-4096,-4096,-4096,-4096,-4096,-4096,-4096,-4096,-4096,-4096,-4096,-4096,-4096,-4096,-4096,-4096,-4096,-4096,-4096,-4096,-4096,-4096,-4096,-4096,-4096,-4096,-4096,-4096,-4096,-4096,-4096,-4096,-4096,-4096,-4096,-4096,-4096,-4096,-4096,-4096,-4096,-4096,-4096,-4096,-4096,-4096,-4096,-4096,-4096,-4096,-4096,-4096,-4096,-4096,-4096,-4096,-4096,-4096,-4096,-4096,-4096,-4096,-4096,-4096,-4096,-4096,-4096,-4096,-4096,-4096,-4096,-4096,-4096,-4096,-4096,-4096,-4096,-4096,-4096,-4096,-4096,-4096,-4096,-4096,-4096,-4096,-4096,-4096,-4096,-4096,-4096,-4096,-4096,-4096,-4096,-4096,-4096,-4096,-4096,-4096,-4096,-4096,-4096,-4096,-4096,-4096,-4096,-4096,-4096,-4096,-4096,-4096,-4096,-4096,-4096,-4096,-4096,-4096,-4096,-4096,-4096,-4096,-4096,-4096,-4096,-4096,-4096,-4096,-4096,-4096,-4096,-4096,-4096,-4096,-4096,-4096,-4096,-4096,-4096,-4096,-4096,-4096,-4096,-4096,-4096,-4096,-4096,-4096,-4096,-4096,-4096,-4096,-4096,-4096,-4096,-4096,-4096,-4096,-4096,-4096,-4096,-4096,-4096,-4096,-4096,-4096,-4096,-4096,-4096,-4096,-4096,-4096,-4096,-4096,-4096,-4096,-4096,-4096,-4096,-4096,-4096,-4096,-4096,-4096,-4096,-4096,-4096,-4096,-4096,-4096,-4096,-4096,-4096,-4096,-4096,-4096,-4096,-4096,-4096,-4096,-4096,-4096,-4096,-4096,-4096,-4096,-4096,-4096,-4096,-4096,-4096,-4096,-4096,-4096,-4096,-4096,-4096,-4096,-4096,-4096,-4096,-4096,-4096,-4096,-4096,-4096,-4096,-4096,-4096,-4096,-4096,-4096,-4096,-4096,-4096,-4096,-4096,-4096,-4096,-4096,-4096,-4096,-4096,-4096,-4096,-4096,-4096,-4096,-4096,-4096,-4096,-4096,-4096,-4096,-4096,-4096,-4096,-4096,-4096,-4096,-4096,-4096,-4096,-4096,-4096,-4096,-4096,-4096,-4096,-4096,-4096,-4096,-4096,-4096,-4096,-4096,-4096,-4096,-4096,-4096,-4096,-4096,-4096,-4096,-4096,-4096,-4096,-4096,-4096,-4096,-4096,-4096,-4096,-4096,-4096,-4096,-4096,-4096,-4096,-4096,-4096,-4096,-4096,-4096,-4096,-4096,-4096,-4096,-4096,-4096,-4096,-4096,-4096,-4096,-4096,-4096,-4096,-4096,-4096,-4096,-4096,-4096,-4096,-4096,-4096,-4096,-4096,-4096,-4096,-4096,-4096,-4096,-4096,-4096,-4096,-4096,-4096,-4096,-4096,-4096,-4096,-4096,-4096,-4096,-4096,-4096,-4096,-4096,-4096,-4096,-4096,-4096,-4096,-4096,-4096,-4096,-4096,-4096,-4096,-4096,-4096,-4096,-4096,-4096,-4096,-4096,-4096,-4096,-4096,-4096,-4096,-4096,-4096,-4096,-4096,-4096,-4096,-4096,-4096,-4096,-4096,-4096,-4096,-4096,-4096,-4096,-4096,-4096,-4096,-4096,-4096,-4096,-4096,-4096,-4096,-4096,-4096,-4096,-4096,-4096,-4096,-4096,-4096,-4096,-4096,-4096,-4096,-4096,-4096,-4096,-4096,-4096,-4096,-4096,-4096,-4096,-4096,-4096,-4096,-4096,-4096,-4096,-4096,-4096,-4096,-4096,-4096,-4096,-4096,-4096,-4096,-4096,-4096,-4096,-4096,-4096,-4096,-4096,-4096,-4096,-4096,-4096,-4096,-4096,-4096,-4096,-4096,-4096,-4096,-4096,-4096,-4096,-4096,-4096,-4096,-4096,-4096,-4096,-4096,-4096,-4096,-4096,-4096,-4096,-4096,-4096,-4096,-4096,-4096,-4096,-4096,-4096,-4096,-4096,-4096,-4096,-4096,-4096,-4096,-4096,-4096,-4096,-4096,-4096,-4096,-4096,-4096,-4096,-4096,-4096,-4096,-4096,-4096,-4096,-4096,-4096,-4096,-4096,-4096,-4096,-4096,-4096,-4096,-4096,-4096,-4096,-4096,-4096,-4096,-4096,-4096,-4096,-4096,-4096,-4096,-4096,-4096,-4096,-4096,-4096,-4096,-4096,-4096,-4096,-4096,-4096,-4096,-4096,-4096,-4096,-4096,-4096,-4096,-4096,-4096,-4096,-4096,-4096,-4096,-4096,-4096,-4096,-4096,-4096,-4096,-4096,-4096,-4096,-4096,-4096,-4096,-4096,-4096,-4096,-4096,-4096,-4096,-4096,-4096,-4096,-4096,-4096,-4096,-4096,-4096,-4096,-4096,-4096,-4096,-4096,-4096,-4096,-4096,-4096,-4096,-4096,-4096,-4096,-4096,-4096,-4096,-4096,-4096,-4096,-4096,-4096,-4096,-4096,-4096,-4096,-4096,-4096,-4096,-4096,-4096,-4096,-4096,-4096,-4096,-4096,-4096,-4096,-4096,-4096,-4096,-4096,-4096,-4096,-4096,-4096,-4096,-4096,-4096,-4096,-4096,-4096,-4096,-4096,-4096,-4096,-4096,-4096,-4096,-4096,-4096,-4096,-4096,-4096,-4096,-4096,-4096,-4096,-4096,-4096,-4096,-4096,-4096,-4096,-4096,-4096,-4096,-4096,-4096,-4096,-4096,-4096,-4096,-4096,-4096,-4096,-4096,-4096,-4096,-4096,-4096,-4096,-4096,-4096,-4096,-4096,-4096,-4096,-4096,-4096,-4096,-4096,-4096,-4096,-4096,-4096,-4096,-4096,-4096,-4096,-4096,-4096,-4096,-4096,-4096,-4096,-4096,-4096,-4096,-4096,-4096,-4096,-4096,-4096,-4096,-4096,-4096,-4096,-4096,-4096,-4096,-4096,-4096,-4096,-4096,-4096,-4096,-4096,-4096,-4096,-4096,-4096,-4096,-4096,-4096,-4096,-4096,-4096,-4096,-4096,-4096,-4096,-4096,-4096,-4096,-4096,-4096,-4096,-4096,-4096,-4096,-4096,-4096,-4096,-4096,-4096,-4096,-4096,-4096,-4096,-4096,-4096,-4096,-4096,-4096,-4096,-4096,-4096,-4096,-4096,-4096,-4096,-4096,-4096,-4096,-4096,-4096,-4096,-4096,-4096,-4096,-4096,-4096,-4096,-4096,-4096,-4096,-4096,-4096,-4096,-4096,-4096,-4096,-4096,-4096,-4096,-4096,-4096,-4096,-4096,-4096,-4096,-4096,-4096,-4096,-4096,-4096,-4096,-4096,-4096,-4096,-4096,-4096,-4096,-4096,-4096,-4096,-4096,-4096,-4096,-4096,-4096,-4096,-4096,-4096,-4096,-4096,-4096,-4096,-4096,-4096,-4096,-4096,-4096,-4096,-4096,-4096,-4096,-4096,-4096,-4096,-4096,-4096,-4096,-4096,-4096,-4096,-4096,-4096,-4096,-4096,-4096,-4096,-4096,-4096,-4096,-4096,-4096,-4096,-4096,-4096,-4096,-4096,-4096,-4096,-4096,-4096,-4096,-4096,-4096,-4096,-4096,-4096,-4096,-4096,-4096,-4096,-4096,-4096,-4096,-4096,-4096,-4096,-4096,-4096,-4096,-4096,-4096,-4096,-4096,-4096,-4096,-4096,-4096,-4096,-4096,-4096,-4096,-4096,-4096,-4096,-4096,-4096,-4096,-4096,-4096,-4096,-4096,-4096,-4096,-4096,-4096,-4096,-4096,-4096,-4096,-4096,-4096,-4096,-4096,-4096,-4096,-4096,-4096,-4096,-4096,-4096,-4096,-4096,-4096,-4096,-4096,-4096,-4096,-4096,-4096,-4096,-4096,-4096,-4096,-4096,-4096,-4096,-4096,-4096,-4096,-4096,-4096,-4096,-4096,-4096,-4096,-4096,-4096,-4096,-4096,-4096,-4096,-4096,-4096,-4096,-4096,-4096,-4096,-4096,-4096,-4096,-4096,-4096,-4096,-4096,-4096,-4096,-4096,-4096,-4096,-4096,-4096};

static  int weights_array1[2913] = {
12288,12288,12288,12288,8192,8192,8192,8192,8192,12288,12288,12288,12288,12288,8192,12288,12288,12288,12288,8192,12288,12288,12288,12288,8192,12288,8192,8192,12288,8192,12288,12288,8192,8192,12288,8192,12288,8192,8192,12288,8192,8192,12288,12288,8192,12288,8192,8192,8192,8192,8192,12288,12288,12288,12288,12288,8192,8192,8192,12288,12288,8192,8192,12288,8192,12288,12288,8192,8192,8192,8192,12288,12288,12288,12288,8192,8192,12288,12288,12288,12288,12288,12288,12288,12288,12288,12288,8192,12288,8192,12288,8192,8192,8192,8192,8192,8192,12288,8192,8192,12288,12288,8192,8192,8192,8192,8192,12288,8192,8192,8192,12288,12288,12288,12288,12288,8192,8192,8192,8192,8192,8192,8192,12288,8192,8192,8192,12288,8192,8192,8192,8192,12288,12288,12288,12288,12288,8192,12288,8192,12288,12288,12288,8192,8192,8192,8192,8192,12288,12288,12288,8192,8192,12288,12288,8192,8192,12288,8192,8192,8192,12288,8192,12288,8192,12288,12288,12288,12288,12288,12288,12288,8192,8192,8192,12288,8192,8192,8192,8192,8192,8192,8192,12288,12288,8192,12288,8192,12288,8192,8192,8192,8192,12288,12288,8192,8192,12288,8192,8192,12288,12288,8192,8192,12288,12288,8192,8192,12288,12288,8192,8192,12288,12288,12288,8192,12288,8192,8192,8192,12288,12288,12288,8192,8192,12288,12288,8192,12288,12288,8192,12288,12288,12288,8192,8192,8192,8192,12288,12288,8192,8192,8192,12288,12288,8192,8192,8192,8192,8192,12288,12288,12288,12288,8192,8192,12288,8192,12288,12288,12288,8192,8192,8192,8192,12288,8192,12288,8192,8192,12288,12288,8192,12288,12288,12288,8192,12288,8192,8192,8192,8192,12288,12288,12288,12288,8192,8192,8192,12288,12288,8192,8192,8192,12288,8192,12288,12288,8192,12288,12288,12288,12288,12288,8192,8192,8192,8192,8192,12288,12288,12288,12288,12288,12288,12288,8192,8192,8192,8192,8192,12288,12288,12288,12288,12288,12288,8192,8192,8192,12288,8192,12288,12288,8192,12288,8192,8192,12288,12288,12288,12288,8192,12288,12288,12288,12288,12288,12288,8192,12288,8192,12288,8192,8192,8192,12288,12288,12288,8192,8192,8192,8192,8192,12288,12288,8192,8192,12288,12288,12288,12288,12288,8192,8192,8192,12288,8192,8192,8192,12288,12288,12288,12288,8192,12288,12288,12288,12288,12288,12288,12288,8192,12288,12288,12288,12288,12288,8192,12288,12288,12288,12288,8192,8192,12288,12288,12288,12288,12288,8192,12288,8192,8192,8192,8192,8192,12288,12288,12288,12288,8192,8192,12288,12288,12288,8192,12288,12288,12288,12288,8192,8192,12288,12288,8192,8192,12288,8192,12288,12288,12288,12288,8192,8192,8192,8192,12288,8192,12288,12288,8192,8192,8192,8192,8192,8192,8192,12288,8192,8192,8192,12288,8192,8192,12288,8192,12288,12288,12288,8192,12288,12288,8192,8192,12288,12288,12288,8192,12288,12288,8192,8192,12288,12288,12288,12288,8192,8192,8192,8192,12288,12288,12288,12288,8192,8192,12288,12288,12288,12288,12288,12288,12288,12288,8192,12288,12288,12288,8192,12288,12288,12288,12288,12288,12288,12288,8192,12288,12288,8192,8192,8192,8192,8192,8192,12288,12288,12288,8192,12288,8192,12288,12288,12288,12288,12288,8192,8192,8192,8192,12288,8192,8192,12288,12288,8192,12288,8192,8192,8192,12288,8192,8192,8192,12288,12288,12288,12288,8192,12288,12288,12288,12288,8192,8192,8192,8192,12288,12288,12288,12288,8192,12288,8192,8192,12288,12288,12288,12288,12288,12288,12288,12288,8192,12288,12288,8192,8192,12288,12288,8192,8192,12288,8192,8192,12288,12288,8192,12288,8192,8192,8192,8192,12288,12288,8192,8192,12288,8192,12288,8192,8192,12288,8192,12288,12288,12288,12288,12288,8192,12288,8192,8192,8192,8192,8192,8192,12288,8192,8192,8192,12288,8192,12288,12288,12288,8192,12288,8192,12288,12288,12288,12288,8192,12288,12288,12288,8192,12288,12288,12288,12288,12288,12288,8192,12288,12288,12288,8192,12288,12288,12288,8192,8192,8192,8192,8192,12288,8192,8192,12288,12288,8192,8192,8192,12288,12288,8192,8192,8192,8192,8192,8192,8192,12288,8192,12288,12288,12288,8192,8192,12288,12288,8192,8192,8192,12288,12288,8192,8192,8192,12288,8192,8192,8192,8192,12288,12288,8192,8192,12288,12288,8192,8192,8192,12288,8192,8192,8192,12288,8192,8192,12288,8192,8192,8192,8192,8192,12288,12288,12288,12288,12288,12288,12288,12288,12288,12288,8192,8192,8192,8192,8192,12288,8192,12288,12288,12288,8192,8192,8192,8192,8192,12288,12288,8192,8192,8192,12288,12288,8192,12288,12288,8192,8192,8192,12288,12288,12288,8192,12288,12288,8192,12288,8192,8192,8192,8192,12288,8192,8192,8192,8192,8192,12288,8192,12288,12288,12288,12288,12288,12288,8192,8192,12288,12288,12288,8192,12288,8192,8192,12288,8192,8192,12288,12288,8192,12288,8192,8192,12288,8192,12288,12288,8192,8192,8192,12288,8192,12288,12288,12288,12288,8192,8192,12288,12288,8192,12288,12288,8192,12288,8192,12288,12288,12288,12288,12288,12288,12288,12288,8192,8192,8192,12288,12288,12288,12288,8192,8192,8192,12288,12288,12288,8192,8192,12288,12288,8192,12288,8192,8192,8192,8192,8192,8192,12288,8192,12288,8192,12288,8192,8192,8192,12288,8192,8192,12288,12288,12288,12288,12288,8192,12288,12288,12288,12288,12288,12288,12288,12288,8192,8192,8192,12288,8192,8192,12288,8192,8192,12288,8192,12288,8192,8192,8192,8192,8192,12288,12288,8192,8192,8192,12288,8192,12288,12288,12288,12288,8192,12288,8192,8192,12288,12288,12288,12288,12288,12288,12288,12288,12288,8192,8192,12288,12288,12288,12288,8192,8192,12288,12288,12288,12288,8192,8192,8192,12288,8192,8192,8192,12288,8192,8192,8192,8192,8192,12288,8192,8192,8192,8192,8192,8192,8192,8192,12288,8192,8192,12288,8192,8192,8192,12288,12288,12288,8192,8192,12288,8192,8192,8192,8192,8192,12288,8192,12288,8192,12288,8192,8192,12288,12288,8192,8192,12288,12288,8192,8192,12288,12288,12288,12288,8192,8192,8192,12288,12288,8192,12288,12288,8192,8192,8192,12288,8192,8192,8192,12288,12288,8192,12288,12288,12288,8192,8192,8192,8192,8192,12288,12288,12288,12288,12288,8192,8192,12288,8192,8192,12288,12288,12288,12288,8192,12288,8192,8192,8192,12288,12288,8192,8192,8192,12288,12288,12288,8192,8192,8192,8192,12288,8192,12288,8192,12288,8192,12288,12288,8192,12288,12288,12288,12288,8192,12288,12288,12288,8192,8192,8192,8192,12288,8192,8192,8192,12288,8192,8192,8192,12288,8192,12288,12288,8192,8192,8192,12288,8192,8192,8192,8192,8192,8192,8192,12288,8192,12288,12288,8192,12288,12288,12288,12288,8192,12288,8192,8192,12288,12288,8192,8192,8192,8192,12288,12288,8192,8192,12288,12288,12288,8192,8192,8192,12288,8192,8192,8192,8192,8192,12288,8192,12288,12288,8192,12288,12288,12288,12288,12288,12288,12288,12288,12288,12288,8192,12288,12288,12288,12288,12288,8192,12288,12288,12288,12288,12288,12288,12288,12288,8192,8192,12288,12288,12288,12288,12288,8192,8192,8192,8192,8192,12288,12288,8192,12288,12288,8192,8192,12288,8192,8192,8192,12288,12288,12288,12288,12288,12288,8192,8192,8192,12288,8192,12288,12288,12288,12288,12288,8192,8192,8192,8192,12288,12288,12288,12288,12288,12288,12288,12288,8192,12288,12288,12288,12288,8192,8192,12288,8192,12288,8192,12288,8192,8192,8192,12288,8192,8192,12288,8192,8192,8192,8192,8192,12288,12288,12288,8192,12288,8192,8192,12288,8192,12288,12288,8192,12288,12288,12288,12288,8192,8192,8192,8192,8192,8192,12288,12288,12288,12288,8192,8192,12288,12288,12288,12288,12288,12288,12288,12288,12288,12288,12288,12288,12288,12288,12288,12288,8192,12288,8192,8192,8192,12288,8192,8192,8192,8192,8192,8192,8192,8192,8192,8192,8192,8192,8192,8192,12288,12288,12288,8192,12288,12288,8192,12288,12288,12288,8192,12288,12288,12288,12288,8192,8192,8192,8192,12288,8192,8192,12288,12288,12288,12288,8192,8192,8192,8192,8192,8192,12288,12288,8192,8192,12288,8192,12288,8192,12288,12288,12288,12288,8192,8192,8192,12288,8192,8192,12288,8192,12288,12288,12288,8192,12288,12288,12288,12288,8192,8192,8192,8192,8192,12288,12288,12288,8192,12288,12288,8192,8192,8192,8192,8192,12288,12288,12288,12288,8192,8192,8192,8192,8192,8192,12288,12288,12288,8192,8192,8192,12288,8192,12288,8192,12288,8192,8192,8192,8192,12288,8192,8192,8192,12288,8192,8192,8192,8192,8192,12288,8192,8192,8192,8192,8192,12288,8192,12288,12288,12288,12288,12288,12288,12288,12288,8192,8192,8192,8192,12288,12288,12288,12288,12288,12288,12288,12288,8192,12288,12288,8192,8192,12288,8192,12288,12288,12288,12288,8192,8192,8192,8192,12288,8192,12288,12288,8192,8192,8192,8192,8192,8192,8192,8192,8192,12288,12288,12288,8192,12288,8192,8192,8192,8192,8192,12288,8192,8192,8192,8192,8192,8192,8192,12288,12288,8192,8192,12288,12288,8192,12288,8192,8192,8192,8192,8192,12288,8192,8192,8192,8192,12288,8192,12288,8192,12288,8192,12288,12288,8192,8192,12288,12288,8192,12288,12288,8192,12288,12288,8192,12288,8192,12288,12288,8192,8192,12288,8192,12288,12288,8192,8192,12288,8192,8192,8192,8192,8192,8192,8192,8192,12288,8192,8192,8192,8192,12288,8192,8192,12288,12288,12288,12288,8192,8192,8192,8192,12288,8192,8192,8192,8192,12288,12288,12288,8192,8192,12288,12288,12288,8192,8192,8192,8192,12288,12288,12288,12288,12288,12288,12288,12288,12288,12288,12288,8192,8192,12288,12288,8192,8192,12288,12288,12288,8192,12288,8192,12288,8192,8192,8192,8192,12288,8192,8192,8192,12288,12288,12288,12288,8192,8192,8192,12288,8192,12288,8192,12288,8192,8192,12288,12288,12288,8192,8192,8192,12288,12288,8192,8192,8192,8192,12288,8192,8192,8192,8192,8192,8192,8192,8192,8192,8192,12288,12288,12288,8192,8192,8192,8192,8192,8192,12288,12288,12288,8192,12288,8192,8192,8192,8192,12288,12288,8192,8192,8192,8192,12288,12288,8192,8192,8192,8192,8192,8192,8192,12288,12288,12288,12288,12288,8192,8192,12288,12288,12288,12288,12288,8192,12288,12288,8192,8192,8192,12288,12288,8192,12288,8192,12288,12288,12288,8192,8192,12288,12288,8192,8192,12288,8192,8192,8192,12288,12288,8192,8192,8192,12288,12288,12288,8192,8192,8192,12288,8192,12288,12288,12288,12288,12288,12288,12288,12288,12288,12288,12288,12288,8192,12288,8192,8192,12288,8192,12288,8192,12288,8192,8192,12288,8192,12288,8192,8192,8192,12288,8192,8192,8192,8192,12288,12288,12288,12288,8192,8192,8192,8192,8192,12288,12288,8192,12288,12288,8192,12288,8192,12288,8192,8192,8192,8192,12288,8192,8192,8192,12288,12288,12288,12288,8192,12288,8192,8192,12288,8192,8192,8192,8192,12288,8192,12288,12288,8192,12288,8192,8192,12288,8192,12288,8192,8192,12288,12288,12288,8192,12288,12288,12288,12288,8192,12288,12288,8192,12288,12288,12288,8192,8192,12288,8192,8192,8192,8192,12288,8192,12288,12288,12288,12288,12288,12288,12288,12288,12288,12288,8192,12288,12288,12288,12288,12288,8192,12288,12288,12288,8192,12288,12288,12288,12288,12288,8192,8192,8192,8192,8192,8192,8192,12288,8192,12288,12288,8192,8192,8192,8192,12288,12288,12288,12288,12288,8192,8192,8192,12288,12288,12288,12288,8192,8192,8192,12288,12288,12288,12288,12288,12288,12288,12288,12288,8192,12288,8192,8192,8192,8192,8192,12288,12288,8192,8192,8192,8192,8192,12288,12288,12288,12288,8192,12288,12288,8192,12288,8192,12288,12288,12288,12288,12288,8192,8192,8192,8192,12288,12288,8192,8192,12288,8192,8192,8192,12288,12288,12288,8192,8192,12288,8192,12288,8192,12288,8192,8192,12288,8192,12288,8192,12288,8192,12288,8192,8192,12288,12288,8192,8192,8192,8192,12288,12288,12288,12288,12288,8192,8192,8192,8192,12288,8192,12288,12288,8192,8192,12288,12288,8192,8192,8192,12288,8192,8192,12288,8192,8192,8192,12288,8192,12288,8192,12288,8192,12288,12288,8192,8192,12288,8192,8192,8192,8192,8192,12288,8192,12288,8192,12288,12288,12288,12288,12288,12288,12288,8192,12288,12288,8192,8192,12288,8192,8192,8192,8192,8192,8192,12288,8192,8192,12288,12288,12288,12288,12288,8192,8192,12288,8192,12288,12288,12288,8192,8192,12288,12288,12288,12288,12288,8192,8192,8192,8192,8192,8192,8192,8192,12288,8192,12288,8192,12288,8192,8192,8192,8192,8192,12288,12288,12288,12288,8192,8192,8192,8192,12288,8192,8192,8192,12288,12288,8192,12288,12288,8192,8192,8192,8192,8192,12288,8192,8192,8192,12288,8192,8192,8192,8192,12288,8192,12288,12288,12288,12288,12288,12288,12288,12288,12288,8192,12288,12288,12288,8192,8192,8192,12288,8192,12288,8192,8192,12288,12288,8192,8192,12288,12288,12288,8192,8192,8192,12288,12288,12288,12288,8192,12288,8192,8192,8192,12288,12288,12288,12288,12288,12288,8192,8192,8192,8192,12288,12288,8192,12288,12288,12288,8192,12288,12288,8192,8192,12288,12288,8192,12288,12288,12288,12288,8192,12288,12288,8192,8192,8192,8192,12288,12288,12288,12288,8192,12288,8192,12288,12288,8192,12288,8192,8192,8192,12288,12288,12288,12288,12288,12288,8192,8192,12288,12288,12288,8192,12288,12288,12288,12288,12288,12288,8192,8192,12288,12288,12288,8192,12288,12288,12288,12288,12288,12288,8192,8192,8192,8192,12288,8192,8192,8192,8192,8192,8192,8192,12288,8192,12288,8192,8192,12288,8192,12288,12288,12288,12288,12288,12288,12288,8192,8192,8192,8192,12288,12288,8192,8192,8192,8192,8192,8192,8192,12288,8192,8192,8192,12288,8192,12288,12288,12288,12288,8192,8192,12288,8192,8192,8192,8192,12288,12288,8192,8192,12288,8192,8192,8192,12288,12288,12288,12288,8192,8192,12288,12288,12288,12288,12288,12288,12288,12288,12288,12288,8192,8192,8192,8192,8192,8192,8192,12288,8192,8192,12288,12288,8192,12288,8192,8192,12288,12288,12288,12288,8192,8192,8192,12288,8192,12288,12288,12288,12288,8192,8192,8192,8192,8192,8192,12288,12288,8192,12288,8192,8192,8192,8192,8192,8192,12288,12288,12288,8192,12288,12288,8192,8192,8192,8192,8192,12288,8192,12288,8192,8192,8192,12288,12288,8192,8192,8192,8192,8192,8192,8192,8192,12288,12288,8192,8192,8192,12288,8192,12288,12288,12288,12288,8192,8192,8192,12288,8192,8192,12288,12288,12288,12288,12288,8192,8192,12288,12288,12288,8192,12288,12288,8192,8192,8192,12288,12288,12288,8192,12288,8192,8192,8192,12288,12288,12288,8192,8192,8192,8192,8192,8192,8192,12288,8192,12288,8192,8192,8192,12288,12288,8192,8192,12288,12288,8192,8192,8192,12288,8192,8192,12288,12288,8192,12288,8192,8192,12288,12288,12288,12288,12288,12288,12288,12288,12288,12288,12288,8192,8192,8192,12288,8192,12288,8192,8192,8192,12288,8192,12288,12288,12288,12288,8192,8192,8192,8192,8192,12288,8192,12288,12288,8192,12288,8192,12288,12288,8192,8192,8192,8192,8192,12288,8192,8192,12288,8192,12288,8192,8192,12288,12288,12288,12288,12288,12288,12288,12288,12288,12288,8192,8192,12288,8192,8192,8192,12288,12288,8192,8192,8192,12288,8192,8192,12288,8192,8192,8192,12288,12288,12288,12288,12288,8192,12288,12288,8192,12288,8192,12288,8192,8192,8192,12288,8192,8192,12288,12288,12288,12288,12288,8192,8192,12288,12288,8192,8192,12288,12288,12288,12288,12288,12288,8192,8192,8192,8192,8192,8192,8192,8192,12288,8192,8192,8192,8192,12288,12288,8192,12288,8192,8192,12288,12288,12288,12288,8192,8192,8192,12288,12288,8192,12288,12288,8192,8192,8192,8192,12288,8192,12288,12288,12288,12288,12288,8192,8192,8192,12288,8192,8192,8192,12288,12288,12288,8192,8192,12288,8192,8192,8192,12288,8192,12288,8192,8192,8192,12288,8192,8192,8192,8192,8192,8192,12288,12288,8192,12288,12288,8192,12288,12288,12288,12288,12288,12288,12288,12288,8192,8192,12288,12288,12288,8192,8192,12288,12288,8192,8192,8192,12288,12288,8192,12288,8192,8192,12288,12288,8192,8192,12288,12288,8192,12288,8192,12288,8192,8192,12288,12288,12288,12288,12288,12288,12288,12288,8192,8192,8192,8192,8192,12288,12288,12288,8192,8192,12288,12288,8192,8192,12288,8192,8192,8192,12288,8192,8192,12288,12288,12288,12288,8192,8192,12288,8192,8192,12288,12288,12288,8192,12288,8192,12288,12288,12288,12288,12288,8192,8192,12288,8192,8192,8192,8192,8192,12288,12288,12288,8192,8192,8192,12288,8192,12288,8192,8192,8192,12288,12288,12288,12288,12288,8192,8192,8192,12288,8192,8192,8192,8192,8192,8192,8192,12288,12288,12288,12288,8192,12288,8192,12288,12288,8192,8192,8192,8192,8192,8192,8192,12288,8192,8192,8192,8192,8192,12288,12288,12288,12288,12288,12288,12288,12288,12288,12288,12288,8192,8192,8192,8192,8192,8192,12288,8192,12288,12288,12288,12288,12288,8192,12288,12288,12288,12288,8192,8192,12288,12288,12288,12288,8192,8192,12288,12288,12288,12288,12288,12288,12288,8192,12288,12288,12288,12288,8192,8192,12288,12288,8192,8192,8192,8192,8192,8192,8192,8192,8192,8192,12288,8192,8192,12288,12288,12288,8192,12288,8192,12288,8192,8192,8192,8192,8192,8192,8192,8192,8192,12288,12288,12288,12288,12288,12288,8192,12288,12288,12288,8192,8192,8192,8192,8192,8192,12288,8192,12288,8192,12288,12288,12288,12288,12288,12288,12288,8192,8192};

static  int weights_array2[2913] = {
0,0,0,0,0,0,0,0,0,0,0,0,0,0,0,0,0,0,0,0,0,0,0,0,0,0,0,0,0,0,0,0,0,0,0,8192,0,0,0,0,0,0,0,0,0,0,0,0,8192,0,0,0,0,0,0,0,8192,0,0,0,0,0,8192,0,0,0,0,0,0,0,8192,0,0,0,0,8192,8192,0,0,0,0,0,0,0,0,0,0,0,0,0,0,0,0,0,0,0,0,0,0,0,0,0,0,0,0,8192,0,0,0,8192,8192,0,0,0,0,0,0,0,8192,0,8192,8192,8192,0,0,0,0,0,0,0,0,0,0,0,0,0,0,0,0,0,0,0,0,0,0,0,0,0,0,0,0,0,8192,0,0,0,0,0,0,0,8192,0,0,0,8192,0,0,0,0,0,0,0,0,0,0,0,8192,8192,0,0,0,0,0,0,0,0,0,8192,0,0,0,0,0,0,0,0,0,0,0,0,0,0,8192,0,0,0,8192,8192,0,0,0,0,0,0,0,8192,0,8192,0,0,0,0,0,8192,8192,0,0,0,0,0,8192,0,0,0,8192,8192,0,0,0,0,0,8192,8192,0,0,0,0,0,8192,8192,0,0,0,0,0,8192,0,0,0,0,0,8192,0,0,0,0,0,0,0,0,0,0,0,0,0,0,0,0,0,0,0,0,0,0,0,0,0,0,8192,0,0,8192,0,0,0,0,0,0,0,0,0,0,0,0,0,0,0,0,0,0,0,0,0,0,0,0,0,8192,8192,8192,0,0,0,0,0,0,0,8192,0,0,0,0,0,0,0,0,8192,8192,0,0,0,0,0,0,0,0,0,0,0,0,0,0,0,0,0,0,0,0,0,8192,8192,8192,8192,8192,0,0,8192,8192,0,0,0,0,0,8192,8192,8192,0,0,0,0,0,0,0,0,0,0,0,0,0,0,0,0,0,0,0,0,0,0,0,0,0,0,0,0,0,0,0,0,0,0,0,0,8192,0,0,8192,8192,0,0,0,0,0,0,0,0,0,0,0,0,0,0,0,0,0,0,0,0,0,0,0,0,0,0,0,8192,0,0,0,0,0,0,8192,0,8192,8192,0,0,0,0,8192,8192,8192,0,8192,8192,0,0,0,0,0,0,0,0,8192,0,0,0,0,8192,0,0,8192,0,0,0,0,0,0,0,0,8192,0,0,0,0,0,0,0,0,0,0,0,0,0,0,0,0,0,0,0,0,0,0,0,0,0,0,0,0,0,8192,8192,0,0,0,8192,0,0,0,8192,0,0,0,0,0,0,0,0,0,0,0,0,8192,0,0,0,8192,0,8192,8192,0,0,0,0,8192,0,0,0,0,8192,0,0,0,0,0,0,0,0,0,0,0,0,0,0,0,0,0,0,0,0,0,0,0,0,0,0,0,8192,8192,0,0,8192,8192,0,8192,8192,0,0,0,0,0,0,0,0,0,0,0,0,0,0,0,0,0,0,0,0,0,0,0,0,0,0,0,0,8192,8192,0,0,0,0,0,0,0,0,0,0,0,0,0,0,0,0,0,0,0,0,0,0,0,0,0,0,0,0,0,8192,0,0,0,8192,0,0,0,0,0,8192,8192,0,0,0,0,0,0,0,0,8192,0,0,8192,8192,8192,0,0,8192,0,0,8192,0,0,0,0,8192,0,0,8192,0,0,0,0,8192,8192,0,0,0,8192,8192,8192,0,0,0,0,0,0,0,0,0,0,0,0,0,0,0,8192,0,0,0,8192,0,0,0,0,0,0,0,0,0,0,0,0,0,0,0,0,0,0,0,0,0,0,0,0,8192,8192,0,0,0,8192,8192,8192,0,0,8192,0,0,0,0,0,0,0,0,8192,0,0,0,0,8192,0,0,8192,0,0,0,0,0,8192,0,8192,0,0,0,0,0,0,0,0,0,0,0,0,0,8192,0,0,0,0,0,0,8192,0,0,0,0,0,0,0,0,0,0,0,8192,0,0,0,0,0,0,0,0,0,0,0,0,0,8192,0,0,0,0,0,0,0,0,0,0,0,0,0,0,0,0,0,8192,0,0,0,8192,0,0,0,8192,0,8192,8192,0,0,8192,8192,0,8192,0,0,0,0,0,0,0,8192,0,0,0,0,0,0,0,0,0,0,0,0,0,0,0,0,0,0,0,0,0,0,0,0,0,0,0,0,0,0,0,0,0,0,8192,8192,0,0,0,0,0,0,0,8192,0,0,0,0,0,0,0,0,0,0,0,0,0,0,0,0,0,0,0,0,0,0,0,0,0,8192,8192,0,8192,8192,8192,0,8192,0,8192,0,8192,0,8192,0,0,8192,0,0,8192,8192,0,8192,0,0,0,0,0,0,0,0,8192,8192,0,8192,8192,0,0,0,0,0,0,0,0,8192,8192,0,0,0,0,0,0,0,0,0,0,0,0,0,0,0,0,0,8192,0,0,8192,8192,0,0,8192,8192,8192,0,0,8192,0,0,0,0,0,0,0,0,0,0,0,0,0,0,0,0,0,0,0,0,0,0,8192,0,8192,8192,0,0,0,0,0,0,0,0,0,8192,8192,0,0,0,0,0,0,0,0,0,0,0,0,0,0,0,8192,0,0,0,0,0,8192,8192,0,8192,0,0,0,8192,0,0,0,0,0,0,8192,8192,8192,0,8192,0,8192,0,0,0,0,0,0,0,0,0,0,0,0,0,0,0,0,0,0,0,0,0,0,0,0,0,0,0,0,0,0,0,0,0,0,0,0,8192,8192,8192,0,8192,0,0,0,0,0,0,0,0,0,0,0,0,0,0,0,0,0,0,0,8192,0,0,0,0,0,0,0,0,0,0,0,0,0,0,0,8192,0,8192,8192,8192,0,0,8192,0,0,0,0,0,0,0,0,0,0,0,0,0,0,0,0,0,0,0,0,0,0,0,0,8192,8192,8192,8192,0,0,0,0,0,0,0,0,0,0,0,0,0,8192,0,0,0,0,0,0,8192,8192,0,0,0,8192,0,0,0,0,8192,0,0,0,0,0,0,0,0,0,0,0,0,8192,0,0,0,0,0,8192,0,8192,8192,8192,0,0,0,0,0,0,0,0,0,0,0,0,0,0,0,0,0,0,0,0,0,0,8192,0,8192,0,8192,0,8192,0,8192,8192,8192,0,8192,8192,8192,8192,8192,8192,8192,8192,0,0,0,8192,0,0,8192,0,0,0,0,0,0,0,0,0,8192,8192,0,0,8192,8192,0,0,0,0,8192,8192,0,0,0,0,0,0,0,0,0,0,0,8192,0,0,0,0,8192,8192,8192,0,0,0,0,0,0,0,0,0,0,0,0,0,0,8192,8192,8192,0,0,0,0,8192,0,0,0,0,0,0,0,0,0,0,0,8192,8192,0,0,0,0,0,0,0,0,0,0,0,0,0,0,0,0,8192,8192,0,0,8192,0,0,0,0,0,0,0,0,0,0,0,0,8192,0,0,8192,0,0,0,0,0,0,0,0,0,0,0,0,0,0,0,0,0,0,0,0,8192,0,0,8192,0,0,0,0,0,0,0,8192,0,0,0,0,0,0,0,0,8192,8192,8192,0,8192,0,0,0,0,0,0,0,0,0,8192,8192,8192,8192,0,8192,8192,8192,8192,8192,0,8192,0,0,8192,8192,0,0,8192,0,8192,8192,8192,8192,0,0,0,0,8192,8192,0,8192,0,8192,0,0,0,0,8192,8192,0,0,0,0,0,0,0,0,8192,0,0,0,0,0,0,0,0,0,0,0,8192,0,0,0,0,0,8192,0,0,0,0,0,0,0,8192,0,0,0,0,0,0,0,0,8192,8192,0,0,0,0,8192,0,0,0,0,8192,8192,0,0,0,0,0,8192,0,0,0,0,0,0,0,0,0,0,0,0,8192,0,0,0,0,0,0,0,0,8192,0,8192,0,0,8192,0,8192,0,0,0,0,0,0,0,0,0,0,0,0,0,0,0,0,0,0,0,0,0,0,0,0,0,0,0,0,0,0,0,0,0,0,0,8192,0,0,8192,8192,8192,0,0,0,8192,8192,0,8192,0,0,0,0,0,0,0,8192,8192,0,0,0,0,0,0,0,8192,0,0,8192,0,0,8192,8192,8192,0,0,0,0,0,0,0,0,0,0,0,0,0,0,0,0,8192,0,0,0,0,0,0,0,0,0,0,8192,0,0,0,0,0,0,8192,0,0,0,0,0,8192,0,0,0,0,0,0,0,0,0,0,0,0,0,0,0,0,0,0,0,0,0,0,0,0,8192,0,0,0,0,0,0,0,0,0,0,0,8192,8192,0,8192,0,8192,8192,0,0,0,0,0,0,0,0,0,0,0,0,0,0,0,0,8192,0,0,8192,0,8192,0,0,0,0,0,0,0,0,8192,0,0,0,0,8192,0,0,0,0,8192,0,0,8192,0,0,8192,0,0,0,8192,8192,0,0,0,0,0,0,0,0,8192,0,0,8192,0,0,0,8192,8192,0,8192,8192,0,0,0,0,0,0,0,0,0,0,0,0,0,0,0,0,0,0,0,0,8192,0,0,0,0,0,0,0,0,0,0,0,8192,0,0,0,0,0,8192,0,0,8192,8192,0,0,0,0,0,0,0,8192,8192,0,0,0,0,0,0,8192,8192,0,0,0,0,0,0,0,0,0,0,0,8192,8192,8192,0,8192,0,0,0,0,0,0,0,0,0,0,0,0,0,0,0,0,0,0,0,0,0,0,8192,0,0,0,0,0,8192,8192,0,8192,8192,8192,0,0,0,0,8192,0,8192,0,0,0,0,8192,0,0,0,8192,0,0,0,0,0,0,0,0,0,0,8192,0,0,0,0,0,0,8192,0,0,0,0,0,0,8192,0,0,0,0,0,0,0,0,0,0,8192,8192,8192,0,0,0,8192,0,0,0,0,0,8192,0,8192,0,8192,8192,8192,0,0,0,8192,0,0,0,0,0,0,0,0,0,0,8192,0,0,8192,8192,8192,8192,0,0,0,8192,8192,0,0,0,0,0,0,0,0,0,0,0,0,0,8192,0,0,0,0,0,8192,0,0,8192,0,8192,8192,8192,0,8192,0,0,0,0,0,0,0,8192,0,0,0,0,8192,8192,8192,8192,0,0,8192,8192,0,0,0,0,0,8192,8192,8192,8192,8192,0,0,0,0,0,0,0,0,0,0,0,0,0,0,0,0,0,0,0,0,0,0,0,0,0,0,0,0,0,0,0,0,0,0,0,8192,0,0,0,8192,0,0,0,0,0,0,8192,0,0,0,0,0,0,0,0,0,0,8192,8192,8192,8192,0,0,8192,0,0,0,8192,0,0,0,0,0,0,8192,0,0,0,0,8192,0,0,8192,0,0,8192,0,0,0,0,8192,0,8192,0,0,0,0,8192,8192,8192,0,0,0,0,0,0,0,0,0,0,0,0,0,0,0,0,0,0,0,0,0,0,0,8192,0,0,0,0,0,0,0,8192,0,0,0,0,0,0,8192,0,0,0,0,0,0,8192,8192,0,0,0,0,0,0,0,0,0,0,8192,8192,0,0,0,0,0,0,0,8192,0,8192,0,0,8192,8192,0,0,0,0,0,0,0,8192,0,8192,8192,8192,8192,0,0,0,0,0,0,0,0,0,0,0,0,0,0,0,0,0,0,0,0,0,0,0,0,0,8192,0,8192,8192,8192,0,0,0,0,0,0,8192,0,0,0,0,0,0,0,8192,8192,8192,0,8192,0,0,0,0,8192,8192,0,0,8192,8192,0,0,8192,0,8192,0,0,0,0,0,0,0,0,8192,0,0,8192,8192,0,0,0,0,8192,0,0,0,8192,0,0,0,8192,8192,0,0,8192,0,0,0,0,0,0,0,0,8192,0,0,0,0,0,0,0,0,0,0,0,0,0,0,0,0,8192,0,0,0,0,0,0,0,0,0,0,0,0,8192,0,0,8192,8192,0,0,0,8192,0,0,8192,8192,8192,0,0,8192,0,0,0,8192,0,0,8192,0,0,0,0,0,0,0,8192,8192,0,0,8192,0,0,8192,0,0,0,0,0,0,0,0,0,0,0,0,0,0,0,8192,0,0,0,0,0,8192,0,0,0,0,8192,8192,8192,8192,0,0,8192,0,0,0,0,8192,0,0,0,0,0,0,0,0,8192,8192,0,8192,0,0,0,0,0,0,0,0,0,0,0,0,0,0,0,0,0,0,0,0,0,8192,8192,8192,0,8192,8192,0,8192,8192,8192,0,0,0,0,0,0,0,0,8192,0,8192,0,0,0,0,0,0,0,0,0,0,0,0,8192,0,0,0,0,0,0,0,0,0,0,0,8192,8192,8192,8192,8192,0,0,8192,0,8192,8192,0,8192,0,0,8192,0,8192,8192,0,0,0,0,0,0,0,0,0,8192,0,0,8192,8192,0,0,0,8192,0,0,0,0,0,0,0,0,0,8192,0,0,0,0,0,0,0,0,0,0,0,0,0,0,8192,8192,0,0,8192,8192,0,8192,0,0,0,0,8192,0,0,8192,0,0,0,0,0,0,0,0,0,0,0,0,0,8192,8192,0,0,8192,8192,0,0,0,8192,0,0,0,0,0,0,0,0,0,0,0,0,0,0,0,0,0,0,0,0,0,0,0,0,0,0,8192,8192,0,0,0,8192,0,0,0,0,0,0,8192,0,0,0,0,8192,0,0,0,0,8192,0,0,0,0,0,0,0,0,0,0,0,0,0,0,0,0,0,0,0,0,0,0,0,0,0,0,0,0,8192,0,8192,0,0,0,0,0,0,0,0,0,8192,8192,8192,0,0,8192,0,8192,8192,8192,8192,0,0,0,0,0,0,8192,0,0,0,0,0,0,0,8192,8192,0,8192,8192,8192,8192,8192,0,0,0,0,0,0,0,0,0,0,0,0,0,0,8192,8192,0,0,0,0,0,0,0,0,8192,0,0,0,0,0,8192,0,0,0,0,0,8192,0,0,0,0,0,0,0,8192,0,0,0,0,8192,0,0,0,0,0,8192,8192,0,0,0,0,0,0,0,8192,0,0,0,0,0,0,0,0,8192,8192,8192,8192,8192,8192,8192,8192,8192,0,0,0,0,0,0,0,0,0,0,8192,8192,0,0,8192,8192,0,8192,0,0,0,0,0,0,0,0,0,0,8192};

static  int alpha1_array[2913] = {
534,-477,-386,-223,-199,142,-432,-378,-219,318,-414,-497,-142,68,-684,-277,-90,237,296,-107,373,286,-89,-155,99,-259,-421,118,-167,-357,-129,93,-77,-103,269,-416,72,-259,-42,388,451,-80,-25,-103,43,227,-95,16,-447,-240,-13,-468,295,-400,-147,-373,-213,-80,-111,381,-246,-626,44,124,45,-501,253,-660,368,-126,-596,-216,-369,46,17,100,37,63,-193,-93,-594,108,284,-851,-311,-123,-276,-307,-112,-47,77,319,-152,72,123,68,-335,116,-443,-49,-412,190,-68,-15,-89,-268,211,52,52,-332,-335,-269,-351,-9,-255,370,-95,-147,4,-20,-294,95,67,193,57,-323,222,-355,16,-137,-90,-150,-85,178,220,49,-228,-322,-220,-191,-323,-251,164,-61,-87,281,402,-70,-280,78,66,-315,104,-24,-105,64,-240,318,-83,89,14,-262,263,55,-408,-263,-378,-61,74,-59,-309,62,-350,54,83,-72,-591,73,-69,-392,19,36,-282,3,-88,51,-104,-569,-73,-227,-285,-258,66,-146,-141,-329,446,-269,145,334,-118,-106,92,-228,75,-203,39,8,-100,22,141,-473,-123,-115,-216,90,47,-320,-208,-237,144,205,-217,-103,-391,161,150,-65,74,-101,53,112,240,2,-259,-96,-206,-270,51,-97,54,-262,-263,-53,225,267,35,-425,204,-245,50,-265,-315,-194,-99,-183,141,-114,-279,214,-65,80,-268,41,-176,63,-129,10,36,-229,-116,86,-202,-584,100,8,-277,-481,37,-260,39,-197,-29,17,-450,245,119,181,-281,-279,-67,-56,47,-237,502,54,-300,-287,-43,211,-295,-268,-279,108,-235,-408,-169,49,-162,-48,-27,-276,87,121,249,-556,-164,-377,108,6,40,-103,-510,-159,259,-262,-291,-145,78,-440,59,-311,83,-81,-28,101,0,192,-212,-152,40,8,-133,-136,51,11,-233,23,54,-69,-26,16,-237,34,50,-292,43,-121,-553,11,-8,-337,94,-65,-19,-201,435,198,-382,-546,145,173,63,3,-2,115,-243,-515,101,-63,-14,11,-125,-76,-153,-7,95,-255,36,-54,-337,126,108,-7,-202,-576,-65,-57,-73,-8,152,-122,58,-66,-153,181,-143,-182,-285,-104,-97,-179,-139,-25,216,67,39,-509,-82,152,5,-112,-228,54,3,257,-376,-208,29,33,-301,161,47,-238,9,93,50,-429,-787,54,-293,214,-71,45,246,2,-136,210,-50,-6,-347,-165,215,49,-186,-92,14,120,-290,251,-72,-163,95,-334,-523,198,44,-384,73,354,-57,-406,-305,-39,66,-22,192,31,-93,-19,200,-229,211,4,289,-147,-5,-139,-313,37,-71,-62,-219,177,-42,112,-250,-231,-202,-77,-230,-107,117,233,-376,-268,74,-329,-219,41,40,5,-42,-249,252,121,-245,-134,43,-290,66,50,-13,272,-47,-7,255,-7,0,-391,8,196,41,-250,118,65,-206,-336,51,249,-48,-174,48,-60,63,-266,131,414,764,154,-158,169,-287,-275,207,-5,173,14,-33,-96,-149,-77,151,248,233,-154,11,-239,46,-330,-11,-3,-68,-131,106,-63,-57,16,48,-242,94,246,-785,58,0,243,-25,2,165,-9,177,-103,-165,250,-26,156,-260,-105,-149,-237,30,-148,-98,301,-220,-191,235,68,-72,-157,147,83,22,88,60,-190,-231,-88,-239,-136,235,-181,-222,-58,-77,68,-302,-139,-69,-233,-112,6,202,205,-51,-11,-231,90,-50,-358,0,-125,-312,95,-75,-368,-577,96,-75,-255,12,38,-3,-36,-4,-443,-61,1,9,19,-434,161,-85,58,49,23,-446,-61,301,35,-139,-55,16,175,445,78,-54,-203,95,-3,310,-5,-271,-8,9,-20,-491,123,-50,50,-49,463,199,39,-42,-26,-9,-14,71,32,5,48,18,12,-69,13,97,39,6,41,-157,-217,-208,-93,-304,84,-130,-268,-129,-254,-24,59,-26,0,-167,72,39,-74,349,312,-209,-312,30,-299,-273,-92,125,150,-19,70,-1,210,33,-232,2,455,146,-82,49,17,-99,-6,-491,-328,-103,-186,148,234,-132,61,42,-349,-437,-80,38,190,-104,208,84,-321,353,-9,-47,-114,173,-3,86,-271,37,-62,33,-268,-387,35,73,-69,47,83,29,-283,205,-67,4,3,-78,-411,19,-1,-61,490,-64,-177,46,-7,16,2,38,99,-397,55,-12,-65,-46,139,-177,75,236,-203,84,-351,16,92,-39,34,27,-2,0,-120,-2,-88,383,-254,-147,-8,102,46,139,174,-230,-144,92,-142,-274,-183,-120,54,171,-244,208,315,-78,54,-231,57,-101,47,39,55,-378,-43,9,85,1,115,39,-333,-62,7,-57,52,175,-2,-51,121,-283,259,106,54,-296,90,-393,51,-6,43,-306,-279,71,-11,-67,154,97,33,30,-87,-43,156,-124,-1030,-100,-22,293,-5,9,144,-44,323,171,-105,-234,0,-95,-108,-42,38,352,-86,195,-177,-3,-26,273,47,-56,65,-2,-73,-9,84,-89,-368,-302,566,-478,-196,-161,218,-8,-49,527,-29,-4,-10,-170,-14,156,-146,14,44,-171,75,-72,-27,-13,115,-520,43,-5,77,-79,-460,-13,53,-51,-244,-36,-279,26,15,-343,12,-262,21,-37,168,-232,-127,-108,-122,130,-59,103,115,-217,-238,-327,149,-13,-222,-19,-63,-287,-371,137,17,292,-63,-10,150,39,43,-38,-102,71,0,105,-365,-64,11,-240,-69,-264,161,41,-64,-74,-2,28,-49,79,-1,-117,-3,-19,-68,46,-48,-37,-134,-98,-1,-148,5,-166,-86,38,-64,-28,-249,97,-266,-1410,244,2,57,42,-221,-721,-331,-208,168,1,78,65,-367,-43,-166,-13,-235,137,-139,39,-62,-130,-55,29,-3,311,-64,57,64,-83,-14,0,-78,-62,120,98,-12,54,-43,29,-11,-103,-84,-185,-40,49,210,-110,-7,28,557,-12,-83,294,-99,-429,-249,53,-42,60,-237,-188,36,2,-304,622,183,40,-208,238,-144,-202,-362,97,-104,-61,-223,39,-293,39,10,111,111,-24,-97,228,220,153,-406,43,130,-110,-80,270,-183,63,-176,-151,11,-157,-78,-351,-143,1,400,-404,-397,44,-334,-353,-181,-10,147,-126,-125,-154,60,-20,-308,59,-207,157,-75,-156,-136,-329,-43,-28,261,-200,-225,29,-207,-18,-329,121,-15,44,-51,-17,-326,31,3,158,-92,134,-43,-304,214,90,-225,-36,-74,-8,177,-165,-7,-2,217,-531,-219,98,-441,140,-9,149,-3,38,132,-5,-220,-116,33,33,-64,5,-100,21,-46,-158,-12,45,-215,-48,-203,-60,-14,67,-171,172,77,37,-47,48,115,34,-53,82,-51,40,-160,42,-64,39,145,146,-98,56,-73,-166,-74,116,-131,4,100,304,-174,-217,-282,-50,-104,-75,-334,60,74,-620,225,205,37,-208,-181,-186,43,708,29,-1,59,-79,-12,-297,-69,-138,46,160,61,-240,-19,10,43,-8,24,-101,-58,-70,-27,-12,38,-5,-205,-53,51,-46,127,299,-16,-59,-210,155,-10,-294,-2,96,-25,171,40,97,38,-174,65,-7,-90,-9,-6,27,119,-72,-5,-83,-313,-4,167,-133,-200,0,-13,4,-159,45,11,116,85,-598,-169,117,-68,-47,-6,-8,1,108,-5,-8,28,74,30,37,-137,-15,-115,310,-590,-183,18,-313,34,-7,34,-37,49,-95,207,214,-242,11,-497,-54,153,-56,161,-59,46,-178,88,-224,60,-15,-50,247,-15,-116,29,463,59,126,155,102,-217,-202,-172,9,35,-35,35,-51,-119,-241,83,70,60,-147,-156,-144,-205,-207,35,-42,369,34,-86,-29,-254,-123,9,-278,244,-265,230,-259,157,-21,16,-239,-215,155,-7,33,-289,194,76,5,-218,-15,91,0,-8,151,152,-300,-4,41,-57,70,-194,-58,49,42,328,-138,162,-127,-303,5,7,-53,0,-56,-2,114,-52,-196,-361,49,215,32,-119,132,-7,62,250,51,-65,43,-219,143,-65,1,-154,107,58,23,-68,-185,-89,29,-2,52,148,4,-84,351,0,-3,96,-703,121,-148,-2,89,364,61,-2,-4,-231,-54,50,-23,-141,47,496,-67,-140,-655,-63,41,56,79,-244,32,-15,10,-11,10,7,264,-17,-152,-16,14,-1,37,-45,-152,-276,199,-16,-4,-14,87,-67,-33,7,6,115,-50,-138,-3,17,174,-52,182,-94,-220,-69,-88,-81,-176,-53,-126,343,11,-182,257,-3,-209,138,-86,-306,-227,42,160,-72,-163,-196,116,-195,11,-12,-5,-245,-179,-72,-64,-178,117,46,-161,-263,88,-74,-113,45,-2,423,-1,0,-158,180,100,-6,120,82,-314,11,-42,86,-218,14,133,160,-157,-216,-16,-45,-7,-62,-60,100,-68,44,-277,184,-304,161,338,-86,-65,36,-298,-101,126,479,-227,-298,-171,-122,30,-19,-51,236,-68,-138,4,-3,-45,53,5,-4,-48,104,-52,-434,-7,-51,-115,60,-46,-70,-118,106,37,192,-48,90,-164,4,270,76,-55,61,-8,-1,19,20,-35,-476,-47,36,411,-207,-356,8,-141,5,113,46,-16,51,-81,222,163,44,61,138,612,40,0,-29,-269,-51,-54,28,-439,165,-2,50,-221,35,86,-640,129,-750,-153,86,-283,114,-266,8,135,-137,-128,-84,-81,27,-36,241,-139,3,-80,-1,-195,61,-24,-202,-26,-103,52,0,-1,-93,-365,-10,67,-214,-125,-48,59,-9,-456,-55,-45,-2,77,-243,8,250,-5,-14,167,6,-1,87,-1,-134,-149,5,-93,9,-37,-55,-277,-39,11,-396,42,-197,28,283,70,-206,36,50,-12,-42,-32,-8,-16,-93,30,-133,166,44,-50,-130,-17,-104,-54,-127,-52,46,3,-53,63,-488,-182,-43,48,1,43,-578,616,-69,80,-371,-4,-59,36,-56,-29,6,45,-37,-134,225,-123,-54,-18,-63,2,-45,33,-11,44,-289,-57,116,-38,-174,166,114,-22,-119,74,-309,-11,-68,-33,497,39,-182,235,-57,-185,319,-370,-200,-218,-38,140,93,-8,-157,-16,-87,-77,19,-249,47,-15,83,-75,-310,33,-169,42,-13,51,-201,73,442,4,-19,81,196,47,-60,44,-11,205,-209,38,-186,145,10,-507,128,102,-196,221,-143,10,-49,47,-12,362,337,12,-53,-319,66,58,-220,80,64,68,-138,183,-149,-190,45,-275,6,-115,-69,-125,106,41,-282,166,107,90,-74,-338,-224,66,-253,162,6,-144,0,-24,-167,-119,-271,129,-78,-285,-222,168,-58,46,-84,-30,98,-228,137,-14,-390,19,-50,-163,21,-110,102,135,-99,224,-298,279,35,34,-3,45,-135,-28,100,-65,-6,202,-122,-44,0,4,51,47,-15,-83,-159,-8,50,52,-145,191,217,42,-340,-15,195,57,-407,30,-335,0,167,18,-172,85,116,-11,68,-212,-172,-18,7,34,-152,103,-278,74,167,-501,-58,40,-99,439,-97,-791,-35,-16,-144,64,-670,15,239,35,-3,15,182,37,-95,-60,-7,47,-39,38,-42,-18,-5,-46,-116,68,-39,17,70,-787,-374,226,35,-263,19,30,172,54,114,9,-50,34,215,44,-45,-36,267,28,-201,-155,-3,-523,-107,6,-44,-56,-17,330,-297,17,-45,56,158,-118,-32,-77,-57,64,74,49,-193,21,-68,34,-103,41,79,-68,39,293,-182,106,-341,36,-12,163,-55,-206,-81,-164,-117,117,93,6,44,-246,-181,18,-191,174,-32,18,244,-72,98,0,217,-236,-139,-1,184,49,29,-13,-27,-46,42,52,239,0,0,185,256,-11,3,-241,-111,-45,148,-5,-36,249,-21,-529,112,73,-146,88,143,-37,61,110,5,46,38,-50,0,323,166,-264,-122,-53,132,-54,46,-37,-72,-114,10,101,563,-71,87,73,163,20,-114,-251,58,214,29,-9,-346,-45,32,205,41,39,-471,-206,-35,-6,-188,-116,53,102,-5,-127,45,11,44,-118,13,38,35,-73,-77,-251,12,60,120,-53,42,-144,-911,-9,-144,-7,-136,-56,36,-88,245,445,355,13,-23,9,243,-34,58,-56,329,-1012,96,-6,43,-239,33,-292,126,-79,-97,-47,-151,-39,82,-40,193,-226,61,-479,33,-6,119,102,-400,-492,34,261,-24,28,154,-48,29,-71,185,-49,39,-14,-412,-15,41,-45,1190,-43,233,56,-230,-96,-97,-46,-57,181,122,-47,10,-59,-117,85,-42,57,38,-380,-49,34,-277,-151,-125,152,-302,-156,-292,-421,-79,-177,-183,57,264,115,-218,148,-96,-67,-7,52,171,44,-214,-8,107,17,-40,-181,-41,99,4,12,-69,216,39,-237,132,35,-230,50,24,-15,62,156,232,-80,-170,15,204,48,150,-65,-3,52,-274,-148,-169,-123,147,-13,31,28,-444,34,-120,178,431,203,-259,36,129,-40,-139,-44,64,238,-8,89,17,36,-263,-50,-198,33,-39,38,-182,284,238,-50,107,-132,-11,13,-60,-226,-52,34,-44,14,40,182,-40,-88,-142,-924,132,-22,7,60,-10,117,-195,-957,-163,49,-41,5,-434,303,-104,39,125,-62,-12,111,48,-112,-52,79,-79,35,-130,122,115,33,-10,-88,1,20,297,-82,-46,0,-37,-101,-46,37,-15,87,79,-9,-45,-258,-137,123,67,9,-153,39,-37,3,-4,91,306,-158,-467,-7680,-61,-8,-39,-15,-165,278,-66,35,-53,37,7,323,-32,-175,-122,-120,65,-123,-61,194,-89,-202,120,171,63,-55,71,14,-255,-305,38,-363,-72,121,-15,-219,42,-300,67,9,-10,73,-360,-54,86,-64,10,135,64,1,-127,21,-133,-161,329,213,28,-345,-346,103,-67,150,-42,3,-4,-61,-137,192,-41,-44,59,64,33,-214,603,48,37,-11,45,-252,-41,-61,36,-266,50,-232,-7,-255,187,71,1,-51,165,-47,-74,-17,-3,-53,-91,277,54,132,-112,8,3,87,84,-64,35,-3,48,89,-9,-109,170,-125,33,-14,-147,249,45,-207,71,-34,-17,-46,-40,74,113,-49,-2,-108,-218,214,25,-47,64,-90,41,-37,-54,-182,8,-69,92,-12,33,-275,6,-66,-454,76,50,-110,-130,199,-161,-11,30,-4,22,10,-486,-15,227,-56,147,-138,-20,-51,106,-7,-30,84,-5,-112,30,234,28,-36,51,83,40,-19,29,-42,57,-49,29,-229,91,-117,60,-7,-130,-138,-227,206,3,-11,18,-50,-1391,114,-3,-38,118,-422,-9,88,31,-15,4,-70,-45,-82,32,-127,11,-10,0,-391,9,25,159,-238,-103,24,95,-59,10,-127,8,-128,9,-16,124,34,-113,7,3,3,74,-103,84,-136,-369,-202,-68,-139,5,-127,-202,204,-84,-69,-135,-144,-44,-23,-14,60,45,-109,148,8,17,-321,136,298,100,-188,-36,30,-362,113,-356,131,-14,-20,-221,133,-41,-43,-1,162,-86,-8,165,13,167,49,-238,-174,3,257,-59,-185,-56,42,-61,130,231,35,-169,205,-85,-142,-15,87,71,300,209,-47,83,50,-239,6,-54,189,-49,178,100,-18,244,-13,19,13,184,36,10,137,-11,8,-66,40,-187,21,-90,72,-215,38,-48,113,-14,-79,420,-199,-59,-92,199,302,-120,56,-9,107,-42,40,-1,-7,-58,-15,-76,56,311,3,-382,-98,-54,0,-159,-108,6,33,301,8,-81,216,94,-133,-15,202,-299,10,-91,53,-48,65,8,-253,-34,86,-46,-251,-8,298,163,-59,-56,41,-43,66,-196,-69,19,-9,-45,48,180,17,192,49,-12,-114,166,-14,-39,-156,-12,28,-204,-48,-34,124
};
static  int alpha2_array[2913] = {
-567,339,272,301,322,-479,112,113,218,-402,302,179,442,-558,116,137,238,-169,-76,347,-50,-135,292,197,-387,375,256,-408,212,108,269,-344,371,310,-117,39,-400,59,327,-77,-13,393,239,246,-757,-112,102,-677,72,59,275,25,-274,196,353,132,149,299,244,-35,70,60,-343,-230,-418,46,-97,63,-75,161,13,99,25,-322,-609,-70,-291,-324,69,181,9,-12,-89,54,277,359,189,96,323,117,-245,11,138,-381,-134,-409,39,-184,17,174,19,-55,335,312,217,76,-83,-214,-171,35,19,49,17,199,31,3,135,100,-542,252,24,-37,-148,-43,-163,64,-69,60,-323,77,135,61,132,-3,-66,-151,267,141,163,136,92,92,-128,218,292,-46,-80,267,50,-340,-179,57,-131,158,121,-175,29,-14,211,-45,-396,61,-81,-211,13,33,9,126,-146,163,16,-255,9,-266,-138,113,0,-165,205,54,-270,-219,16,162,144,-385,96,31,173,243,125,127,-320,152,77,57,-25,47,-119,-67,106,151,-117,36,-249,46,-339,-536,131,-328,-118,11,88,109,42,-120,-427,9,59,25,-48,-97,50,129,59,-81,-3,266,-213,116,-384,-98,-27,-430,61,119,45,18,-395,96,-317,13,58,314,-11,-55,-486,1,-21,16,-195,210,75,148,229,129,-180,181,68,-98,66,-150,43,-224,60,-144,98,-355,-273,50,111,-114,57,-1,-133,-386,47,0,-568,15,-303,31,181,-269,49,-64,-54,-71,62,14,50,269,-440,15,7,-123,41,10,82,-67,38,10,39,-108,47,0,79,-166,39,391,166,9,-25,-87,-4,-7,42,0,-45,-327,-388,83,38,284,-157,101,73,115,-174,15,-442,31,-207,172,215,-121,242,-80,45,63,-109,-409,96,63,-369,-348,69,-208,-191,207,220,-253,39,-180,-103,18,-184,67,37,-275,311,3,-39,180,85,19,12,-62,31,-6,-30,-68,-165,-317,260,-92,52,-5,-75,277,311,-272,43,132,63,-592,-83,18,-441,260,38,-74,-86,-600,39,-7,60,236,79,-693,-8,58,-267,196,71,-65,280,135,103,189,188,97,93,203,-84,-247,-271,34,154,-54,-375,52,26,-102,-411,-34,2,66,-183,-421,6,-26,-137,51,-258,-70,-136,53,-9,-182,4,-16,203,-175,-55,319,37,-3,276,291,-1,61,-52,-312,13,74,-171,4,6,7,151,67,-85,40,-6,-11,-114,36,-97,16,203,29,-1,104,-98,196,-57,-372,66,124,-56,37,-51,69,-48,40,-419,61,-1,-115,112,64,6,0,389,-55,5,164,147,336,74,136,-114,-70,52,17,-133,11,47,-176,-215,-349,66,16,-4,-83,51,57,-274,9,-183,-136,249,-60,117,-682,6,-555,191,2,254,-63,-156,7,-34,-133,38,0,-157,-53,122,28,-383,208,-17,12,-1,-47,24,-69,40,-60,50,5,-4,-444,-14,-197,171,79,65,105,4,-53,10,43,209,6,-87,0,64,-366,85,33,-79,181,49,-227,-70,6,-44,-51,29,-116,100,-51,52,-261,-23,-493,-17,47,56,-47,95,-68,147,258,144,79,-286,84,134,-8,30,53,-72,-179,187,39,-87,-33,-245,-119,-134,55,16,55,12,44,-56,46,14,134,143,-179,11,66,148,50,54,197,-63,-9,282,184,11,-96,286,49,-297,42,-3,-21,152,34,-8,4,136,41,-192,-167,-314,110,-305,36,138,144,-203,379,-7,8,76,-97,-135,538,-10,91,-45,-332,35,100,-184,16,-42,-42,187,52,-75,103,-44,178,0,137,-191,85,-9,4,186,-125,197,17,-47,-410,304,100,-412,138,-81,-263,-202,-214,-160,402,98,134,-72,-78,-223,-51,20,145,114,173,49,-182,29,51,93,32,147,-134,122,-398,48,-114,-54,133,7,-57,37,4,-252,5,50,97,-37,-71,154,-96,264,-57,-303,11,274,-44,-18,102,-311,-182,46,-395,42,-4,60,14,-4,-54,47,-101,-657,-3,42,84,-124,-57,48,-53,-153,-5,15,-394,95,35,-4,-313,0,-3,-317,131,-181,0,37,-119,-106,111,-243,-78,-506,-2,-8,99,150,-242,54,-7,297,-285,53,-40,46,11,-191,-428,195,-226,-630,-76,41,-95,152,141,104,-60,40,-87,24,8,-13,-5,234,-73,136,-113,-655,-283,145,32,223,53,14,-2,43,-355,0,-106,4,-50,132,180,-171,91,48,67,68,-276,-71,61,-63,1,181,-368,12,-114,88,-343,-132,-186,-6,49,-224,-61,-320,-21,-124,46,159,236,198,-278,-59,158,258,11,1,4,-73,-42,-2,-75,-7,-182,-388,-99,-5,37,-105,105,141,4,-75,-118,-132,53,367,-10,34,27,57,96,-50,149,-171,-19,298,11,-55,51,10,91,49,62,325,-551,-41,54,-50,55,-255,125,-44,-191,139,-129,-245,43,-336,3,61,39,-3,16,-11,39,13,1,-341,95,-38,65,-267,101,8,96,-53,45,-165,-253,8,0,120,146,-487,-2,-13,-314,-277,-94,60,39,-486,5,156,47,550,33,-132,316,-8,411,-1,243,495,-178,78,146,148,110,-51,281,14,-85,57,15,47,-66,182,19,232,185,53,-3,-29,-196,10,151,83,-65,-143,-134,75,64,-120,-289,-67,-4,40,-179,59,116,36,-65,-453,138,85,-298,-638,245,-65,-258,49,-256,106,100,-92,237,85,23,62,-322,43,-224,33,56,-129,117,142,4,-43,1,28,-47,210,-88,-356,0,29,-6,30,-53,136,-79,-13,-3,107,10,162,2,-16,21,-102,131,35,160,-698,-276,8,112,-61,-78,66,-501,189,67,43,-66,-73,-451,-6,263,-319,-439,52,52,51,427,-90,-46,31,-296,-1198,-37,87,78,6,55,40,-2,-176,311,-105,-4,49,-107,200,-8,16,-48,-202,150,-75,106,43,6,-106,91,220,25,-177,9,-177,-247,0,-83,185,77,-26,-55,-40,-5,-97,-69,67,142,7,16,-53,16,71,-226,40,108,40,31,210,-43,37,-7,-177,-6,37,9,205,-63,50,34,47,-89,53,-3,-116,3,8,69,44,17,30,284,117,-47,36,2,-282,0,89,-7,-37,-634,-112,180,157,-6,-275,-181,8,44,3,287,44,-46,-61,0,66,66,150,-55,39,-290,318,-48,31,2,-29,-14,-10,-276,0,-216,-203,-54,109,0,57,-98,-203,104,203,29,320,197,40,-471,-39,0,43,1,63,-469,-98,5,-3,-72,-360,204,-21,-56,-330,139,-41,136,-43,10,-264,81,-418,-51,-172,231,-327,193,57,79,-98,70,-310,-79,-52,52,9,40,302,84,106,45,-114,-28,-10,-12,-52,-290,4,57,10,-285,-37,-1014,-252,-191,77,134,-1,60,20,-171,-53,-267,0,157,-217,-130,-325,696,39,35,87,123,-514,-28,-298,36,157,-192,256,-8,-47,74,152,45,-54,154,-6,145,-69,63,-52,-194,-65,-73,8,-68,-293,76,-339,180,-115,-15,112,180,61,29,-280,19,29,42,-218,107,-166,39,-87,202,-57,-1,-15,51,-57,63,186,73,-285,170,-67,48,-281,-750,-70,-160,-94,49,-498,47,-39,28,5,252,-11,-301,-239,-383,400,-173,27,7,-43,33,-133,33,124,2,138,-5,127,-56,4,18,-2,-73,-571,104,-51,69,22,-280,-37,-108,-52,7,-55,36,-3,32,-162,-120,499,-542,126,195,101,-162,-147,-175,70,62,69,29,61,-169,107,-48,-234,100,113,0,43,-205,46,-53,56,-48,37,-60,55,-154,39,3,-23,-358,-126,-3,0,-75,51,12,38,-67,266,-301,-14,-62,43,-273,-342,116,-95,4,60,-82,-261,-44,61,-53,44,-8,257,-153,96,-183,82,-198,-15,147,32,-13,-162,-46,-543,22,4,-282,-98,-43,-98,90,-233,-5,0,88,89,10,-13,-82,2560,85,45,42,-394,-255,3,-51,277,50,17,-215,93,-70,27,-59,44,-214,-44,-37,3,-194,195,-2,56,-91,66,7,-171,-37,53,12,33,102,-182,-74,0,-2,-301,-475,99,-284,252,-177,17,-639,38,-547,200,-184,-349,186,49,-10,0,-465,53,-362,-30,66,44,-156,77,-58,53,17,133,-126,20,128,-149,153,55,156,129,105,24,60,46,10,-209,57,-50,206,5,-19,108,39,2,-232,-66,68,25,57,-67,35,-185,131,-277,37,7,64,119,33,-61,-157,8,44,-70,61,36,-61,-242,24,-220,98,7,12,-61,64,-59,-52,-10,154,229,-69,5,163,-59,8,8,42,-508,97,-235,58,138,-32,82,-155,-7,7,-11,2,-38,43,121,-89,-10,40,-51,22,-1,36,1,38,-115,71,172,23,85,35,-174,138,201,-122,-156,106,189,-34,157,37,-279,57,14,-54,158,64,10,0,-86,2,123,-44,2,81,-44,-2,121,-68,-261,146,-107,737,534,36,138,-400,-37,33,-14,147,5,95,-58,-104,-433,-117,39,8,-47,-122,-67,13,-34,-173,-187,78,-8,83,111,-1218,-15,-8,-196,-21,-6,-570,-61,32,-50,35,7,-36,-12,-17,-10,209,-48,155,112,140,118,-251,182,-55,64,-276,131,-318,52,-89,52,5,140,68,-261,-223,205,58,36,-489,-83,0,42,213,-18,-295,38,129,74,-228,-11,-5,247,-44,70,-455,-6,-180,84,-77,148,11,48,-176,39,-153,96,132,36,302,234,-14,-256,-1,-431,-39,-47,-4,-65,-79,107,237,103,-253,65,30,-263,8,0,-87,38,7,47,20,57,16,56,-111,97,102,-68,-17,40,198,-154,-158,-181,-18,21,70,-15,-15,129,78,-128,100,51,-136,-160,363,40,-42,38,108,37,68,110,177,-86,-346,-15,-10,60,-54,53,-2,11,-60,70,19,-5,-10,128,67,81,-35,-7,-3,11,81,43,-37,31,-6,42,288,9,-52,138,0,107,32,55,-105,28,-76,63,-59,39,-13,-595,-2,-171,-324,3,-6,-7,-36,96,-867,4,-45,-79,84,-46,-289,17,-4,-47,-4,3,-106,30,-50,-6,-6,16,0,125,130,-41,-289,22,-37,219,86,30,-62,-75,0,-36,-72,-72,156,-105,75,36,-175,31,-262,54,124,80,-76,-255,5,-7,-68,-96,105,33,0,-54,-2,-14,-187,42,-238,64,17,41,-5,-39,188,46,-3,-9,108,-252,54,76,-62,36,-52,102,-13,318,153,40,-116,57,-61,10,36,21,-8,13,-86,-104,-209,-83,11,56,-56,45,-223,5,13,88,-167,150,-82,-60,-411,38,3,142,-96,-109,11,11,-45,-76,-12,47,-46,-16,-15,-361,-13,113,-47,208,0,14,-51,58,-66,33,4,36,-143,-75,3,0,-10,-64,-46,37,87,-258,21,15,21,30,486,66,11,-10,-18,220,-40,-654,-181,422,-44,-20,25,68,-217,-143,248,-281,210,73,-200,52,16,-45,283,178,-64,29,-13,11,-88,29,-112,-186,-46,9,-53,71,139,-28,-42,-201,170,41,-40,-1149,3,33,-187,35,20,107,165,36,-599,21,-13,188,178,-52,-45,48,839,60,76,-34,-74,-174,-3,278,50,-145,36,-142,-58,50,-87,23,0,6,-12,-131,-305,9,126,102,176,65,79,-70,-69,-226,-139,6,54,-174,60,-54,172,-206,4,120,-15,-260,1,0,63,-240,2,-91,-417,-434,132,243,-296,-84,0,-198,190,-47,8,-327,170,-5,59,219,7,-247,132,-46,81,-15,5,-74,59,-66,15,419,-114,-60,206,-84,-363,149,99,-40,2,-8,41,139,-3,194,-189,393,52,13,75,-72,22,64,4,-64,22,-104,44,-9,-206,-44,-503,-263,31,190,-113,-44,-31,-85,37,-7,84,-213,45,17,-96,-53,116,19,-72,-141,-53,17,193,-81,-291,48,42,-5,135,-71,16,130,-371,6,30,-261,47,-212,36,122,-156,30,16,-36,16,-138,100,-138,9,586,-153,95,12,-18,-11,-204,-161,-10,-404,-12,-8,43,41,144,30,237,-41,260,8,-2,-29,-17,-172,-190,-6,-54,36,-17,-579,-38,106,-106,15,118,-338,49,19,117,-127,-394,29,-375,-28,146,24,222,14,-71,75,155,100,150,163,-37,-74,134,-228,113,45,-76,409,-136,-107,33,251,-144,-2,34,24,-10,-7,57,-7,32,65,39,0,-141,-44,10,-3,-4,35,60,-331,-47,-50,-83,-1,151,-60,187,279,43,257,-13,-240,139,103,8,-89,43,-51,-126,-4,-42,-106,181,-78,6,-42,51,1,224,-44,-155,-49,41,-196,-29,-9,47,1,31,-49,62,-99,-7680,-16,-179,15,0,-36,0,-4,-107,-52,45,7,77,-67,18,-219,-12,-115,-119,-11,73,-2,-902,375,-333,-2,21,-43,64,-62,51,-272,127,106,34,149,-805,177,77,-81,14,235,51,5,33,-49,40,-141,-11,-241,-1,-5,28,2,-21,290,195,-15,23,21,-281,-51,36,-315,3,-82,58,130,18,40,-45,14,-18,-50,-220,-290,40,-157,178,-38,44,158,108,320,36,152,-201,-364,7,-57,81,166,28,5,8,-65,232,2,-245,350,55,-226,16,-38,32,-16,28,93,70,276,52,6,14,53,-400,134,-335,-130,16,787,99,115,109,-170,71,113,-64,88,8,-15,-62,-123,184,-87,-210,48,-7,-138,-10,39,-56,155,-3,-70,-10,-14,-140,123,-84,32,138,11,106,176,-58,-55,-185,47,-118,61,8,19,-47,-7680,-12,40,-64,47,-49,58,-170,165,89,53,-45,78,256,-16,-78,-240,-6,21,-79,-216,-342,-155,-9,83,75,-384,-11,-37,-9,153,-9,14,-67,91,131,0,157,46,-493,157,113,62,-38,-46,-48,58,-132,89,-55,-73,67,-127,-197,-82,-57,131,12,1,17,-485,-365,46,-42,-71,-4,-1,650,73,167,69,-64,14,119,65,18,43,-45,611,159,-16,27,-234,381,50,0,267,69,14,-247,-89,-13,71,53,29,-57,-25,20,41,-44,32,-284,-1234,-163,628,-130,28,-362,10,85,11,0,91,112,-11,-235,51,-59,68,12,-724,-40,-510,334,-11,-52,-244,-541,-412,179,-102,113,-403,-10,-3,6,-16,-215,41,1,34,-41,141,-275,299,97,28,-47,47,243,9,-16,107,-54,-544,-380,82,48,71,68,-155,5,124,-238,87,-15,164,-101,-117,55,108,-162,-77,103,-199,41,-204,65,-181,189,-62,-33,35,229,-220,218,-75,49,-65,55,-11,48,80,42,-159,49,-3,-8,53,47,13,49,244,63,-419,-23,-91,51,-48,209,-117,36,-52,13,-56,36,458,-483,-14,-26,-12,-23,-365,82,-8,-4,279,79,-176,-1,32,100,-51,232,-50,-132,-8,32,-162,16,79,43,90,-190,106,0,-42,-133,0,15,37,33,-350,-1,-79,21,-45,36,-60,-5,-5,118,102,7,111,17,-53,92,-39,71,-93,106,-43,-167,-117,18,-257,108,67,-266,-5,400,37,0,-9,-223,152,-14,-348,65,-36,43,73,52,-39,19,20,-94,-236,20,183,-224,-151,123,86,80,45,-75,-36,142,-16,50,75,171,0,30,-129,-55,-38,102,29,21,-48,40,-273,13,-15,169,15,-63,101,-24,-117,37,404,19,120,30,-214,20,-45,32,69,-110,150,-9,-5,36,-106,53,162,-131,-45,175,-40,-62,-225,45,-42,88,221,30,-230,-277,-8,55,430,0
};
static  int tree_thresh_array[2913] = {
-129,50,89,23,61,407,11,-77,24,-86,83,87,375,148,-78,33,75,-28,-40,64,-84,-563,58,41,374,285,129,58,59,-12,134,-29,206,192,-284,-200,347,-7,473,-210,-174,1522,79,71,162,-37,7,123,-322,8,110,-184,-269,64,596,25,27,75,81,-1136,37,-154,75,-45,138,-146,-46,-267,-173,7,-529,93,-139,107,91,-23,178,234,9,53,-108,-23,-67,-279,163,770,319,0,348,36,36,-96,28,138,-13,119,-34,-44,-100,15,-50,-19,314,117,80,-119,-119,80,17,-145,-66,-90,-93,68,-54,-138,69,13,342,1056,-149,-67,-15,-26,-15,-186,-98,-317,96,-10,491,9,285,-191,-205,123,373,52,65,9,130,11,-49,87,124,-184,-293,242,27,168,-3,-124,-52,153,100,233,-66,-722,721,-30,249,-119,-186,152,-99,-244,-123,30,-8,85,-27,76,-181,93,-4,70,-141,274,973,-52,43,69,-29,43,25,53,12,-447,33,128,130,27,107,52,107,-61,-159,-23,-6,-116,271,36,46,-11,46,29,130,103,30,134,-11,-155,-159,11,-221,-34,138,-460,-42,-20,-38,-48,-95,69,-98,-151,-252,88,-15,183,234,-46,-49,92,-81,65,-37,-18,521,195,219,-162,-275,546,-856,-268,253,-104,-142,-74,61,189,63,52,201,51,-76,171,-210,-290,68,-25,-161,0,-91,7,4,160,254,8,3,-28,-97,-420,-39,163,-53,-207,102,-31,175,0,37,45,-214,-942,-67,-70,-150,-42,-56,120,98,25,-91,-28,-166,-100,10,-80,-121,-61,-248,-52,-82,-125,-84,-7,-128,77,25,-41,-5,-16,-180,-248,-134,-603,-48,594,210,12,-178,528,-373,58,134,51,60,-137,583,-25,74,102,190,-36,167,-140,-162,10,112,143,18,11,144,106,-64,-31,85,245,159,88,-112,42,101,-65,199,5,-360,75,144,-835,-68,154,9,-60,-197,-120,-189,-114,-23,-41,46,212,136,-59,-140,-330,-3,397,149,211,-100,1340,31,662,-19,-75,318,77,-325,-278,-24,130,-122,-329,15,137,33,413,-40,29,102,1143,-181,-57,564,141,76,102,234,61,36,124,-180,75,43,-188,339,-36,175,-35,-17,33,396,-125,-249,-156,-39,200,-170,-82,-4,-137,79,-1,-1,-382,-318,69,-87,-52,32,421,-153,104,2,-1182,373,493,-302,-135,-179,741,-48,18,28,-97,-275,-267,93,-77,-28,-164,-166,-50,-111,-361,-32,-171,187,-577,-242,17,-8,1127,-108,167,22,130,-169,-393,-47,75,-139,-100,200,-84,-94,264,51,-49,-108,-104,160,-24,-139,166,104,817,50,160,-126,-145,-252,-48,274,-84,-91,4,146,125,22,-25,-124,-39,-233,16,138,-141,192,-35,268,-180,70,135,-86,121,226,-137,80,-85,133,-44,-40,-15,-171,-140,41,-368,106,-15,130,79,7,-180,-183,-440,-526,-183,-180,-502,-81,-63,-200,229,-40,55,26,29,19,39,-112,-161,-125,-6,781,21,98,-108,22,222,0,62,69,124,26,580,79,-70,-25,-65,-414,-30,181,-476,19,91,-49,229,-35,27,-74,-93,52,-56,128,381,106,67,-7,-36,92,-154,-22,-97,-108,50,395,-112,-64,-8,49,-63,-17,-86,-69,-167,-33,-78,-181,-255,-4,97,87,82,-117,14,233,-384,72,935,-749,-286,62,27,-65,53,53,-163,61,-84,-91,-32,62,-129,-126,-63,144,-73,-13,64,122,12,347,-240,183,165,154,248,-81,-679,282,46,6,326,-234,30,-73,387,22,28,141,-212,-283,-22,280,-274,-86,83,-192,768,-177,81,33,111,-375,-51,60,119,35,-224,-60,102,190,72,668,53,-64,329,144,135,49,176,124,145,-59,51,41,118,2,198,132,136,26,-23,52,24,10,-69,115,42,40,106,-104,-14,37,86,-209,-255,-135,-153,508,-36,-245,25,-72,72,21,-43,855,-108,241,-47,188,-93,-33,14,202,14,-126,354,-559,-23,-73,-81,-235,-340,-220,-34,226,-275,-97,22,87,-100,-80,-218,29,-92,-337,536,58,26,-188,236,-24,-213,190,30,88,-73,-152,-1,102,38,132,-25,210,-108,-63,79,137,118,0,-201,313,97,15,-366,-61,-45,387,2254,169,101,208,-69,-498,-14,474,151,47,-82,-117,-23,-227,-60,-29,-184,263,-60,184,-4,202,119,142,-25,63,11,-219,-78,-226,230,-97,7,-154,-98,112,473,-91,54,-15,-10,13,154,-56,-11,-157,-142,95,143,-54,52,14,412,0,47,-147,-86,60,-21,96,-102,-3,-165,115,187,162,206,-70,328,400,-63,-62,-67,-107,36,-110,31,-65,85,350,97,-160,-319,-69,486,639,-188,-42,392,56,9,136,-136,11,-269,8,91,-235,27,50,-33,150,-1647,-90,-53,-52,88,48,-80,263,446,-139,-15,-44,-47,106,17,-195,1,472,65,231,-43,508,-22,48,-176,-135,-87,-50,-69,-10,-184,159,27,-67,25,187,16,0,29,-204,-102,126,189,-13,-99,49,53,242,-168,-344,182,100,-17,100,-348,89,-68,133,10,226,-435,-32,309,-380,202,-48,351,331,-138,63,224,87,32,-153,652,-282,-138,-259,30,-39,-535,235,-29,127,146,-129,-79,-29,33,-178,108,131,-295,128,-1,11,134,-59,155,11,-170,-101,41,-85,91,-152,-43,227,88,0,59,441,147,-16,85,-122,106,43,35,87,305,19,7,4,115,-133,92,-88,31,59,114,23,-40,-16,-92,-162,-71,36,-32,110,-84,-294,-110,-194,-446,55,-27,-16,-154,35,-131,239,-167,-81,-18,68,38,-80,44,155,67,-81,45,21,-45,-43,431,224,72,-127,-234,-46,125,7,46,333,219,-98,27,-132,155,63,-181,-94,79,425,-77,158,93,-128,39,-201,-161,196,210,58,-375,26,146,207,-59,-158,-165,97,35,-544,40,20,-250,-1,13,86,30,101,-145,81,61,-94,-76,1846,48,-101,-183,-59,-100,94,-102,4,63,-109,5,-2,-130,-20,127,-137,49,-142,40,244,-267,-380,-168,87,-104,-168,-72,36,-47,-30,3,-125,-77,-33,-142,77,-77,-364,28,-115,-1,-443,65,35,-103,-55,-31,293,-55,12,-208,-36,877,57,174,81,-137,260,89,-321,58,-275,534,-189,-122,-1,-91,-6,49,99,-193,-101,89,770,-318,-199,-70,-11,-404,-89,250,-100,138,156,-82,101,-99,-108,-14,438,184,181,4,292,146,-85,1741,46,-62,-62,-77,-13,381,-51,-110,-96,-58,115,208,47,-60,935,454,13,349,90,-64,1356,36,188,-154,-335,891,60,214,37,32,-106,-12,234,-25,-165,-83,-70,-99,232,1,40,-215,-56,-124,-1230,-147,-225,138,-33,-22,12,219,-513,379,157,-8,39,98,-73,-43,-29,98,-75,64,-199,27,40,60,397,197,40,-163,93,27,244,28,64,-203,214,91,168,-88,-339,34,323,-369,-119,28,-33,80,-60,103,-64,120,-34,100,-138,-8,124,16,113,32,180,-132,85,103,26,-239,130,-124,61,-200,340,97,67,-48,0,78,-41,-57,-422,-391,-169,9,439,13,119,46,-49,-52,100,188,-111,164,94,-97,317,-54,-88,-292,-22,109,-161,106,200,151,323,118,25,-269,-282,-477,-5,-182,209,-129,86,-566,213,106,-49,-99,-103,51,234,68,-93,0,-31,385,-255,71,-90,-42,-38,-118,-86,-151,43,670,388,144,52,569,48,-40,-24,-5,132,-57,4,0,-1,16,58,-226,383,109,15,-130,-92,103,-127,-108,-56,-257,-183,-83,-32,35,-111,-67,-56,119,153,-102,-261,-38,-3,-89,-73,-101,643,282,-45,-56,-126,87,381,121,0,-172,-92,-52,114,-113,-25,-83,-50,-165,121,28,66,205,8,102,-64,152,-324,-70,134,-481,493,17,-297,725,34,-53,77,87,259,-132,-96,76,127,-45,-52,-52,281,21,-158,25,717,476,-94,-210,920,38,-485,154,90,-148,-540,-170,-135,64,-161,-277,-109,163,412,-331,-87,-43,3,14,77,-104,-16,-3,-202,47,141,-33,-91,-126,179,176,111,38,386,697,-193,458,-58,139,88,89,337,346,-225,-265,-93,224,0,402,-29,205,-23,57,87,-119,1,7,35,260,-114,200,-120,508,32,124,103,41,-68,-11,173,-198,118,-164,-168,48,-87,-97,73,-178,-37,194,-58,15,14,-119,-26,-123,32,36,393,-134,-54,62,49,-312,-49,89,-11,-199,-42,-27,35,81,90,-213,80,94,-61,-204,-283,19,-138,-66,-205,233,167,-12,-133,403,-156,-188,-489,-493,289,34,93,2,141,-18,96,52,-46,-170,-382,-111,-89,-39,284,127,-203,-83,-62,-207,-84,-126,-18,-187,68,13,100,-326,182,-513,73,78,163,55,66,45,160,-39,114,-96,110,1,-168,27,196,-12,-35,-30,-7,-353,191,0,-66,187,-112,-113,31,-2,452,281,7,787,644,-202,212,204,-174,-153,-152,57,-1,131,-17,40,382,70,34,-57,-31,114,-77,-76,-149,132,244,40,-144,11,33,364,-123,-89,154,11,-43,531,-72,-315,-78,-209,8,104,-97,-26,-154,886,-54,291,229,165,258,42,256,-161,-22,441,69,127,-94,-45,-19,-71,77,29,77,127,85,46,-233,295,-81,-68,-163,110,-16,93,-282,176,35,59,-47,-449,185,-110,73,206,-122,155,760,-16,41,-47,-26,43,-83,9,-6,35,-99,304,69,-100,123,49,355,-173,-10,-232,96,-85,29,1399,25,133,0,2,223,-41,-77,-21,-44,-204,49,-9,12,16,-30,212,75,716,221,-1312,-110,317,97,47,133,-181,-239,79,-183,-247,47,114,267,39,10,130,135,194,-80,-224,-92,438,-149,57,85,201,148,168,64,-66,-12,-564,-39,-101,-571,-336,15,-27,-65,-208,68,65,14,-352,135,-16,-98,35,-113,-796,-445,-79,12,242,-222,-161,337,-30,30,28,-63,-11,-289,-47,2,-151,-133,-306,169,-118,189,1041,9,-339,-46,-528,157,417,-78,-248,101,109,61,107,-153,-21,72,-139,-65,80,-424,-78,-52,-66,-522,78,133,38,20,169,-312,-298,244,83,-328,-73,46,-104,-3,-59,35,224,-443,94,11,-8,-92,340,-27,313,22,-42,113,-95,-227,-166,-30,69,-151,-80,-96,-177,-90,67,-134,292,3,-34,-70,-76,-37,75,-206,-96,-111,26,95,53,-27,-92,-261,-204,27,-228,1308,331,-61,191,24,-140,-143,12,-57,-27,-216,-8,75,51,52,-73,7,-60,-61,59,-44,-37,18,96,130,-75,80,1685,-170,-42,50,-35,66,-42,-50,-206,202,-168,4,-205,-35,-205,418,-58,42,-48,295,-77,-19,-238,4,-202,-487,-74,-32,212,273,-56,-72,-172,-55,-45,-503,195,130,17,-251,-11,-280,424,64,-40,-36,-261,159,-163,206,189,254,-265,112,1,-17,193,51,188,813,68,8,91,-56,-31,-54,200,83,-68,-693,-464,-318,-63,-270,34,145,-159,-40,-94,12,53,60,-246,212,101,-49,-404,481,-77,-116,53,-477,-15,127,103,-115,149,-296,-170,195,269,56,-113,-65,303,-3,73,-10,-37,201,-125,410,13,145,1,103,-21,6,-66,-121,-6,-221,-271,114,118,-83,50,177,762,130,57,-25,-22,68,106,-109,-69,24,-11,-179,211,33,-216,215,-51,47,-97,-252,-7,144,-75,-157,408,345,164,241,612,2,-136,38,176,-276,-1276,121,43,-118,-23,116,-118,102,49,-174,42,-283,-19,-57,-62,-41,-208,125,-45,-25,321,-41,127,164,66,-186,-74,-57,-158,129,-44,49,289,2176,-60,-9,204,-195,-374,155,-63,-63,-235,-24,-286,-102,70,-181,180,65,-379,290,236,-67,98,51,-222,-54,25,118,-90,21,352,-35,27,-26,36,13,169,-27,125,-30,364,29,-74,-105,447,-46,-235,420,110,-55,-1317,837,-288,154,-287,258,149,16,-201,-293,-155,-12,79,46,-137,376,15,52,-586,-396,-36,65,288,-155,2113,-134,-148,27,-66,34,-563,724,32,449,-124,-94,-12,-136,54,60,-54,-66,-118,-415,154,-1169,629,0,-84,153,234,20,-223,103,99,147,-409,345,65,138,-253,286,-114,-52,88,411,106,116,158,-190,-175,15,173,80,3,-17,69,147,-290,-258,121,155,-136,-129,4,-293,-332,18,-172,-268,74,-211,-193,71,-103,-166,-154,-54,0,-46,152,13,-92,95,-57,30,-47,215,215,-48,392,-65,142,142,66,-181,-22,-269,-300,67,-37,24,-3,841,-69,-78,-106,-89,-98,193,-188,108,-199,-76,51,-4,-201,-71,-60,-938,-520,42,28,1188,-975,255,19,-113,-69,-203,-306,131,-386,-63,-16,12,-41,-158,141,-19,2,144,-96,-7,-68,2705,449,55,-93,-335,-215,-103,-179,-74,96,140,105,-108,249,592,218,46,-9,-121,111,-14,-51,-363,-78,-68,52,-55,77,-26,-99,-121,20,-23,68,156,-233,-220,-10,1217,-364,-230,151,-34,-9,-293,21,-25,63,106,-49,-277,-60,102,77,-87,38,940,-155,-55,148,27,395,-146,44,324,134,-113,-16,30,459,-486,-170,-114,-512,969,-120,154,295,40,213,-179,-157,-404,-499,-490,126,44,232,4,-115,-655,20,192,99,287,40,-230,449,85,143,163,-19,9,103,-131,308,-75,-52,-108,90,600,14,38,-35,-160,101,-143,-75,-55,25,-75,58,-133,-10,-3,194,-28,-176,84,-91,204,253,-171,-13,99,-70,-16,-58,-37,-506,-336,268,-129,-326,-77,-20,-50,5,121,115,124,-70,-344,30,231,-21,-61,224,-80,-275,-58,122,212,168,-526,9,31,186,-322,32,-55,118,-112,-298,-57,177,120,-130,155,-91,241,127,153,-85,-104,-29,-208,-84,43,130,-97,-24,97,114,59,445,-57,16,-20,-348,8,1490,904,-66,-197,71,-140,-18,528,124,180,12,-107,-114,48,6,-14,-129,-131,636,360,-6,38,152,328,-3,-20,489,-18,-121,109,181,-99,80,22,-950,-104,-26,16,-146,-58,-517,281,351,63,332,75,-353,296,-320,396,-163,-39,1,49,-85,237,0,-70,125,-3,360,-159,328,161,84,-274,191,321,271,123,70,82,135,-60,-42,-117,-19,1318,-69,-30,-122,-46,19,20,792,22,-279,-143,20,390,-257,-697,43,-170,520,338,349,227,18,53,237,-93,197,105,28,-141,120,-9,-392,68,106,1,-27,77,0,-312,205,-11,66,154,-50,237,19,187,87,642,-42,9,-95,-28,-140,-86,8,-17,-58,-33,-38,-155,19,-18,21,-39,184,58,670,10,-15,-103,-79,59,211,-155,-121,-160,-119,-342,1720,245,-77,-24,-238,-50,190,4,-363,-94,176,0,36,-72,25,93,-88,252,-319,46,-104,-155,40,-56,34,-292,40,450,144,-457,-465,68,-32,-135,51,-172,103,-99,-50,-466,-347,-100,-36,45,-120,26,57,-54,1164,-971,-457,523,-257,71,5,112,-178,45,85,-91,133,50,34,153,-57,233,20,-100,-46,141,99,-32,143,18,-340,-57,5,-68,-314,-969,-411,5,90,-460,67,278,65,19,27,19,10,11,-123,58,-247,-81,127,74,4,-150,49,306,-961,577,25,-234,-226,-88,105,-53,9,36,-36,16,102,-24,17,-138,182,-167,161,-288,146,-175,-86,-644,32,96,305,-2,-66,-135,199,9,185,438,-165,130,-235,55,292,-61,-41,15,66,-164,110,214,-78,-15,310,-90
};


static int start_addr[25] = {0, 36, 100, 208, 336, 544, 756, 1004, 1292, 1624, 1988, 2384, 2844, 3352, 3892, 4436, 4984, 5620, 6240, 6916, 7700, 8488, 9212, 10008, 10852};
static unsigned int coord_loc[11652] = {0, 0, 0, 0, 0, 0, 0, 0, 0, 0, 0, 0, 0, 0, 0, 0, 0, 0, 0, 0, 0, 0, 0, 0, 0, 0, 0, 0, 0, 0, 0, 0, 0, 0, 0, 0, 0, 0, 0, 0, 0, 0, 0, 0, 0, 0, 0, 0, 0, 0, 0, 0, 0, 0, 0, 0, 0, 0, 0, 0, 0, 0, 0, 0, 0, 0, 0, 0, 0, 0, 0, 0, 0, 0, 0, 0, 0, 0, 0, 0, 0, 0, 0, 0, 0, 0, 0, 0, 0, 0, 0, 0, 0, 0, 0, 0, 0, 0, 0, 0, 0, 0, 0, 0, 0, 0, 0, 0, 0, 0, 0, 0, 0, 0, 0, 0, 0, 0, 0, 0, 0, 0, 0, 0, 0, 0, 0, 0, 0, 0, 0, 0, 0, 0, 0, 0, 0, 0, 0, 0, 0, 0, 0, 0, 0, 0, 0, 0, 0, 0, 0, 0, 0, 0, 0, 0, 0, 0, 0, 0, 0, 0, 0, 0, 0, 0, 0, 0, 0, 0, 0, 0, 0, 0, 0, 0, 0, 0, 0, 0, 0, 0, 0, 0, 0, 0, 0, 0, 0, 0, 0, 0, 0, 0, 0, 0, 0, 0, 0, 0, 0, 0, 0, 0, 0, 0, 0, 0, 442648710, 253991346, 839207238, 839680800, 375572646, 182626674, 839235946, 839680800, 201383968, 50372824, 839073992, 839680800, 541415748, 426119702, 839342532, 839680800, 774421026, 579373806, 680141442, 787194510, 556915827, 122801687, 839407123, 839680800, 538023009, 106008069, 839390723, 839680800, 805363744, 50373400, 839664392, 839680800, 638821601, 378898025, 839362017, 839680800, 719570158, 488061617, 839567022, 839680800, 607538563, 414584403, 515354083, 624504307, 409159878, 287578514, 839207238, 839680800, 646166760, 451322478, 839498344, 839680800, 720888303, 596164280, 839508591, 839680800, 672714273, 624494227, 839503457, 839680800, 541216900, 356848148, 839406084, 839680800, 704679968, 37784228, 839553698, 839680800, 70276099, 55610453, 838947907, 839680800, 638768289, 179471989, 414592385, 660188565, 676613381, 422975123, 839405061, 839680800, 775367107, 581471978, 839527043, 839680800, 719838702, 595114679, 839507566, 839680800, 706193889, 581469866, 839494241, 839680800, 548621515, 221462035, 381013359, 553135471, 642960549, 180524659, 415641989, 658092435, 174082054, 14690482, 839039146, 839680800, 311442441, 116499759, 839072969, 839680800, 512965833, 215166447, 839366123, 839680800, 309343239, 11543853, 839167273, 839680800, 514015434, 216216048, 839367148, 839680800, 511916232, 214116846, 839365098, 839680800, 406082819, 284435861, 839269769, 839680800, 308299782, 119642418, 839076038, 839680800, 201351168, 16785624, 839073992, 839680800, 641978596, 390435444, 839373284, 839680800, 414401739, 216214929, 839268747, 839680800, 772432512, 688530168, 839631592, 839680800, 515062987, 215166447, 839366123, 839680800, 575065508, 451323443, 839432745, 839680800, 515062987, 215166447, 839366123, 839680800, 512963785, 215166445, 839366123, 839680800, 815152521, 620308239, 839663369, 839680800, 807096001, 792430355, 839667457, 839680800, 581155050, 417737262, 839432746, 839680800, 576960742, 417733166, 839432742, 839680800, 410207431, 286530961, 839206215, 839680800, 604449216, 547881546, 839461440, 839680800, 677995078, 663329432, 839541382, 839680800, 135322657, 91292823, 838982753, 839680800, 644375046, 596155000, 839475782, 839680800, 639770754, 142743144, 839492197, 839680800, 490889364, 157438424, 839342548, 839680800, 469897344, 138545604, 839324098, 839680800, 740841986, 560476886, 640277100, 751503980, 705044864, 411439784, 839557796, 839680800, 314591244, 16791858, 839172398, 839680800, 542453061, 347415051, 839396872, 839680800, 481582347, 292832727, 381017457, 488058225, 470036736, 274989516, 375757152, 482810220, 314591244, 16791858, 839172398, 839680800, 308293638, 10494252, 839166248, 839680800, 679953864, 555229841, 839468616, 839680800, 738731520, 614007497, 839526016, 839680800, 614744330, 283390544, 839465548, 839680800, 741981795, 653895375, 839597769, 839680800, 405100866, 392530326, 839276930, 839680800, 707055906, 313821876, 515354082, 726314484, 808473603, 12586773, 839660291, 839680800, 542330053, 214111763, 382054757, 557330803, 580045993, 187873843, 378916206, 585672046, 574800036, 178426416, 379955556, 587770224, 575101380, 526881334, 839408132, 839680800, 711375270, 585669294, 839563942, 839680800, 741889539, 660180693, 839603907, 839680800, 201332736, 6294726, 839063747, 839680800, 811813062, 216214290, 839662346, 839680800, 509650982, 44081642, 839363048, 839680800, 137451587, 123833494, 839014531, 839680800, 705977601, 292827831, 839573164, 839680800, 444910888, 389390771, 839306664, 839680800, 738606464, 413537999, 839592645, 839680800, 751329804, 558383832, 839602896, 839680800, 738734592, 545788620, 839590596, 839680800, 456187955, 193121720, 839180595, 839680800, 201416768, 83960024, 839073992, 839680800, 409225478, 354752914, 839272838, 839680800, 376619175, 181578096, 839234922, 839680800, 781762089, 687482607, 839630569, 839680800, 738449632, 426115798, 839440928, 839680800, 339792932, 156373333, 839111908, 839680800, 510833831, 179480045, 839364073, 839680800, 320921650, 55626040, 839177522, 839680800, 268474400, 39881990, 839129347, 839680800, 757096466, 22039256, 839603922, 839680800, 738203648, 6295238, 839588547, 839680800, 788783344, 256099064, 839635696, 839680800, 539317570, 425069077, 839341506, 839680800, 714390825, 452372143, 839433769, 839680800, 707251682, 590908083, 839503458, 839680800, 719570158, 488061617, 839567022, 839680800, 542323909, 210966029, 378905957, 551036269, 653549839, 290736760, 839505522, 839680800, 637805824, 274992745, 839490147, 839680800, 813910216, 522691346, 839666440, 839680800, 712222951, 480714410, 839559847, 839680800, 738681280, 487006936, 839598792, 839680800, 806702401, 355805971, 839667466, 839680800, 619073934, 524794452, 839471694, 839680800, 544228359, 12590609, 281293063, 555233553, 211831818, 16790739, 839073997, 839680800, 239194212, 121745652, 839110892, 839680800, 211831818, 16790739, 839073997, 839680800, 168875041, 45122741, 112307297, 189967477, 211831818, 16790739, 839073997, 839680800, 206583813, 11542734, 839068872, 839680800, 814303816, 690627346, 839600840, 839680800, 409055334, 111255948, 839264648, 839680800, 309447783, 187866419, 839109863, 839680800, 436554048, 388334002, 839272832, 839680800, 437607745, 393577911, 839277953, 839680800, 643151205, 383100525, 839497321, 839680800, 583387500, 385200690, 839433772, 839680800, 577089894, 382051884, 839430697, 839680800, 544557383, 421928466, 839338439, 839680800, 570876320, 449217080, 516403680, 596161016, 539123842, 159528472, 337994061, 551029069, 572545026, 23081526, 839440940, 839680800, 820002830, 15743760, 839663374, 839680800, 813705224, 10495754, 839658249, 839680800, 786481198, 49330928, 839630574, 839680800, 780183592, 44082922, 839625449, 839680800, 823349457, 221465364, 839667474, 839680800, 677854662, 553130639, 839466566, 839680800, 618093005, 560477782, 839473741, 839680800, 708400707, 660180661, 839538307, 839680800, 747783305, 152188625, 446088621, 752559533, 671664672, 623444626, 839502432, 839680800, 201404480, 79763660, 839069894, 839680800, 476336390, 390437332, 839340486, 839680800, 376616103, 181578093, 839234922, 839680800, 715309226, 453421744, 839565994, 839680800, 672278657, 141693578, 839523972, 839680800, 307256325, 124884279, 839081157, 839680800, 781695465, 652846830, 839629545, 839680800, 322986004, 23089464, 839178548, 839680800, 102780930, 54560884, 838946882, 839680800, 811295429, 797677336, 839672581, 839680800, 301993984, 4196644, 839160098, 839680800, 810770629, 428218136, 839475781, 839680800, 335583264, 37783878, 839192898, 839680800, 576901286, 188921396, 375771501, 584620397, 100716576, 88146036, 838979680, 839680800, 168909889, 124880055, 839015553, 839680800, 572794114, 378898985, 839329218, 839680800, 539386242, 428226072, 472342989, 551029197, 537287040, 414581270, 481766848, 560475606, 613661929, 248753743, 839464523, 839680800, 242270247, 47229168, 839103722, 839680800, 414268491, 250850703, 839269771, 839680800, 543312006, 354753042, 839404038, 839680800, 555802674, 226707992, 839246194, 839680800, 607639011, 559418965, 839439907, 839680800, 488825010, 293882328, 839246194, 839680800, 370328737, 177374577, 278144257, 387294481, 313541643, 15742257, 839171373, 839680800, 604135552, 146932312, 382054752, 629748088, 449856525, 15742385, 839302573, 839680800, 443558919, 11543979, 839298473, 839680800, 515065035, 217265649, 839368173, 839680800, 545503464, 247704078, 839397898, 839680800, 785963565, 661239542, 839572141, 839680800, 808010306, 614009616, 714778274, 822879920, 741955139, 626602709, 674911884, 751505036, 805977728, 682235663, 839658245, 839680800, 815260137, 523746072, 839667470, 839680800, 272781444, 222499092, 839143684, 839680800, 410207431, 286530961, 839206215, 839680800, 805780928, 480712463, 839658245, 839680800, 779404583, 320123633, 544753164, 785096204, 510866631, 213067245, 839364073, 839680800, 305353923, 257133877, 839144707, 839680800, 436554048, 388334002, 839272832, 839680800, 674780675, 559428245, 607737420, 684330572, 407062724, 213062034, 313830692, 421932338, 617626637, 14693967, 839465549, 839680800, 613428233, 11545163, 839462474, 839680800, 575918309, 250849844, 839433770, 839680800, 807033473, 687481622, 839663368, 839680800, 782417066, 485960431, 839630570, 839680800, 268525632, 79757592, 180531360, 293875896, 303094817, 57717047, 169008300, 314868908, 306203652, 120688947, 839077060, 839680800, 637558784, 16786040, 839500392, 839680800, 808112802, 726314772, 839668491, 839680800, 378785001, 249800051, 839235945, 839680800, 374586597, 250849647, 839236970, 839680800, 823418129, 292836119, 555245076, 827082260, 639096289, 515343989, 582528545, 660188725, 719839726, 596163256, 839508590, 839680800, 305155075, 120687923, 839077059, 839680800, 720591055, 392543926, 839408143, 839680800, 479247401, 47230415, 839333323, 839680800, 554785873, 88163863, 839406097, 839680800, 808926659, 479661839, 647603811, 821831279, 410207431, 286530961, 839206215, 839680800, 537992257, 74519047, 839392772, 839680800, 547503242, 284437007, 839269770, 839680800, 738779680, 587768536, 839598792, 839680800, 653512943, 390446708, 839373295, 839680800, 439395363, 39882153, 241408227, 446077161, 650561964, 556282482, 839502444, 839680800, 644264358, 549984876, 839496294, 839680800, 753091790, 488061649, 839599822, 839680800, 605436289, 484902478, 839399937, 839680800, 349226029, 49329489, 839204173, 839680800, 208683015, 13641936, 839070922, 839680800, 381765708, 82915698, 839236972, 839680800, 375468102, 79766892, 839233897, 839680800, 812206662, 690625298, 839600838, 839680800, 510866631, 213067245, 839364073, 839680800, 343133415, 248749395, 839202119, 839680800, 813809768, 352658192, 839434792, 839680800, 544359559, 286531089, 839271815, 839680800, 335583264, 140640582, 839096544, 839680800, 754009167, 83967697, 839598799, 839680800, 402757728, 207815046, 839162144, 839680800, 821150831, 117554961, 839664399, 839680800, 779101191, 9446121, 839624424, 839680800, 418668815, 361053592, 839278991, 839680800, 402924800, 345309577, 839263616, 839680800, 679953864, 555229841, 839468616, 839680800, 671557056, 546833033, 839460416, 839680800, 473257283, 351610325, 839335369, 839680800, 637558784, 16786040, 839500392, 839680800, 445695017, 252945841, 839304617, 839680800, 547567818, 216216078, 839399948, 839680800, 712295719, 320123569, 511165932, 717921772, 642785285, 7346792, 839491174, 839680800, 350244878, 18891092, 839207248, 839680800, 404758530, 5245320, 206771394, 411440328, 436592992, 428212664, 839311776, 839680800, 440714532, 387289521, 839304612, 839680800, 580140297, 385197615, 839335369, 839680800, 537280896, 486998544, 839401984, 839680800, 723935634, 528992952, 839475794, 839680800, 705042816, 510100134, 839457344, 839680800, 377735400, 248750450, 839234920, 839680800, 545503464, 247704078, 839397898, 839680800, 313541643, 15742257, 839171373, 839680800, 309343239, 11543853, 839167273, 839680800, 616679532, 117553746, 839467598, 839680800, 610381926, 111256140, 839461448, 839680800, 217145423, 159530200, 839082191, 839680800, 576007493, 347415083, 839429672, 839680800, 815218121, 653895439, 839663369, 839680800, 712421799, 583573164, 839561895, 839680800, 719504558, 454474417, 839567022, 839680800, 673763874, 625543828, 839504482, 839680800, 710500933, 663328440, 839541381, 839680800, 311442441, 13643055, 839169323, 839680800, 750926988, 149042895, 839596749, 839680800, 747778185, 145894092, 839593674, 839680800, 405918819, 116499861, 839269769, 839680800, 509653030, 44081644, 839363048, 839680800, 751326732, 660189909, 839603916, 839680800, 638702689, 112297589, 381005153, 660188533, 583190700, 186826290, 382060911, 586723695, 605117505, 79758935, 348467521, 628699479, 816266698, 653896463, 839663370, 839680800, 809162403, 760942357, 839636707, 839680800, 816267722, 484913936, 839662348, 839680800, 201416768, 83960024, 839073992, 839680800, 442648710, 253991346, 839207238, 839680800, 375605446, 216213874, 839235946, 839680800, 676613381, 422975123, 839405061, 839680800, 809972164, 478614284, 646554212, 818684524, 682836171, 453422736, 839533195, 839680800, 745744583, 480714442, 839592647, 839680800, 506713315, 250848757, 839368169, 839680800, 169990242, 157419702, 839047330, 839680800, 607541635, 493293142, 839408131, 839680800, 511916232, 214116846, 839365098, 839680800, 688085200, 221463190, 839536272, 839680800, 712291623, 313829037, 839560873, 839680800, 824402130, 226711320, 522707445, 828131829, 805509312, 204669702, 506957280, 812387814, 388063314, 193120632, 839147794, 839680800, 809060931, 690622226, 839600835, 839680800, 388063314, 193120632, 839147794, 839680800, 369170496, 174227814, 839129344, 839680800, 408247621, 393581975, 839277957, 839680800, 207636486, 86055122, 839010438, 839680800, 312492042, 14692656, 839170348, 839680800, 310392840, 12593454, 839168298, 839680800, 620126607, 495402584, 839410191, 839680800, 406012099, 285478288, 839205187, 839680800, 620126607, 495402584, 839410191, 839680800, 673357986, 176330376, 839524997, 839680800, 478430472, 283389393, 839334347, 839680800, 679685320, 448176779, 839528072, 839680800, 620126607, 495402584, 839410191, 839680800, 541473156, 417736206, 839399945, 839680800, 684770349, 49329809, 839532173, 839680800, 678472743, 45131403, 839528073, 839680800, 623173938, 428231256, 839377394, 839680800, 807063201, 758843155, 839634657, 839680800, 753328558, 562576088, 839508590, 839680800, 571923873, 449218103, 516403681, 595112439, 407064772, 222507412, 306499884, 415633708, 739265537, 10487507, 379955553, 758851955, 715376874, 253999794, 480725454, 720021966, 805443712, 137495302, 473370048, 812387782, 317740047, 19940661, 839175473, 839680800, 305144835, 7345449, 839163173, 839680800, 821450127, 425085717, 620320338, 824983122, 808854915, 409341705, 610867779, 815536713, 620126607, 495402584, 839410191, 839680800, 604382592, 479658569, 839394816, 839680800, 575102404, 527929911, 839409156, 839680800, 539415970, 492243477, 839374306, 839680800, 719839726, 596163256, 839508590, 839680800, 408961030, 11540880, 213068998, 419835088, 454089777, 57725367, 252959988, 457622772, 437296161, 37782951, 239309025, 443977959, 789010896, 594068214, 839539344, 839680800, 510771303, 319069680, 839369191, 839680800, 448839724, 251900336, 839303596, 839680800, 272648196, 153227538, 839141636, 839680800, 514015434, 216216048, 839367148, 839680800, 438653250, 350560692, 839301544, 839680800, 720888303, 596164280, 839508591, 839680800, 805360672, 48275221, 839662343, 839680800, 442817830, 393583031, 839310758, 839680800, 605040641, 214107724, 839266689, 839680800, 711445990, 590912179, 839503462, 839680800, 705144288, 580420265, 839493216, 839680800, 377740520, 253998455, 839240045, 839680800, 714489225, 519546543, 839466569, 839680800, 375677190, 287584632, 839240044, 839680800, 604463552, 487006808, 839467592, 839680800, 755322192, 557335251, 839601872, 839680800, 201449568, 159514840, 839049376, 839680800, 787014190, 663337720, 839574190, 839680800, 538365345, 450272787, 839398919, 839680800, 307256325, 124884279, 839081157, 839680800, 406966372, 222499220, 839176484, 839680800, 587386032, 389399091, 839437872, 839680800, 369346784, 247699826, 839233894, 839680800, 514015434, 216216048, 839367148, 839680800, 613694729, 282340943, 839464523, 839680800, 815250921, 517451535, 839661323, 839680800, 741397539, 55620309, 839603916, 839680800, 509888774, 281287154, 839365094, 839680800, 478329000, 180529614, 839332298, 839680800, 201416768, 83960024, 839073992, 839680800, 652463342, 389397107, 839372270, 839680800, 643016933, 379950698, 839363045, 839680800, 512965833, 215166447, 839366123, 839680800, 604018720, 39882310, 839457347, 839680800, 338745379, 157420886, 839112931, 839680800, 809057859, 614010639, 714778275, 821831343, 792879252, 157438712, 839637748, 839680800, 772286976, 547886826, 839625445, 839680800, 646170856, 253998706, 445041069, 651796909, 644071654, 246651504, 448179622, 654945712, 277956681, 82915602, 839138572, 839680800, 807033473, 687481622, 839663368, 839680800, 613829001, 489104978, 839404041, 839680800, 275857479, 80816400, 839136522, 839680800, 483410957, 15742417, 839335373, 839680800, 477113351, 11544011, 839331273, 839680800, 719838702, 595114679, 839507566, 839680800, 438587650, 283386292, 839301544, 839680800, 488759410, 123851224, 839342548, 839680800, 644007078, 420878961, 839501414, 839680800, 455237778, 260295096, 839213394, 839680800, 410206407, 285482384, 839205191, 839680800, 455237778, 260295096, 839213394, 839680800, 436344960, 241402278, 839194944, 839680800, 278022281, 220407058, 839141641, 839680800, 806047424, 792429331, 839667456, 839680800, 790060497, 595117815, 839540369, 839680800, 773266881, 578324199, 839523969, 839680800, 686147950, 386251410, 839533198, 839680800, 677751142, 379953802, 839527048, 839680800, 540333347, 318023189, 839400969, 839680800, 748043657, 586720975, 839597769, 839680800, 314591244, 16791858, 839172398, 839680800, 308293638, 10494252, 839166248, 839680800, 677962278, 629742232, 839508582, 839680800, 672714273, 624494227, 839503457, 839680800, 614683850, 425077333, 839472714, 839680800, 408112325, 214111635, 314880293, 422981939, 273830021, 222500116, 839143685, 839680800, 67131392, 56655958, 838948928, 839680800, 805330944, 16786200, 839664392, 839680800, 639094241, 523741811, 839503466, 839680800, 576997638, 388340274, 839338438, 839680800, 809905540, 548934411, 839528068, 839680800, 269573185, 91304215, 169008300, 281281708, 777670277, 691679987, 839634668, 839680800, 536895488, 25178648, 268722444, 549978380, 574018979, 449220149, 516403683, 593015285, 405102914, 394627480, 839278978, 839680800, 375506022, 252942705, 839239014, 839680800, 383963310, 289683828, 839242094, 839680800, 436461792, 327451064, 839246176, 839680800, 350248974, 25185624, 182640819, 355809459, 335554560, 5243210, 173184160, 346363050, 167829536, 58765496, 100786284, 180519020, 671664672, 623444626, 839502432, 839680800, 710399461, 525842101, 609834573, 718968397, 708300259, 515346099, 616115779, 725266003, 644375046, 596155000, 839475782, 839680800, 772199840, 626590453, 839636704, 839680800, 818957325, 17841939, 839665423, 839680800, 510801031, 145892845, 839364073, 839680800, 378718377, 183677298, 839236972, 839680800, 806489217, 473368323, 839651073, 839680800, 818957325, 17841939, 839665423, 839680800, 810560517, 9445131, 839657223, 839680800, 721672432, 258199222, 487021011, 725270995, 641966308, 243505768, 839492198, 839680800, 637722784, 184722040, 839500392, 839680800, 643218853, 519542383, 839433765, 839680800, 314591244, 16791858, 839172398, 839680800, 706978018, 240356008, 475469250, 713725384, 586244175, 89213496, 839439922, 839680800, 369170496, 71371110, 839225698, 839680800, 549541964, 90261014, 314890545, 555233585, 817050827, 215167757, 839661324, 839680800, 378724521, 187873656, 839241070, 839680800, 545470664, 214116878, 839397898, 839680800, 314591244, 16791858, 839172398, 839680800, 338800739, 110205260, 839198022, 839680800, 342085862, 248748372, 839202118, 839680800, 443792615, 250850735, 839302571, 839680800, 650366188, 456569459, 839503468, 839680800, 816003274, 214117134, 516403690, 820785646, 789010896, 594068214, 839539344, 839680800, 440412164, 8395178, 839295398, 839680800, 169958466, 83961015, 839041193, 839680800, 542255237, 279189002, 839264645, 839680800, 446806122, 283388334, 839301546, 839680800, 411186312, 282337677, 839267720, 839680800, 308298758, 118593841, 839075014, 839680800, 375605446, 216213874, 839235946, 839680800, 167796736, 16785592, 839041192, 839680800, 538272065, 428213784, 839344577, 839680800, 809162403, 721069845, 839663369, 839680800, 406020291, 293866904, 839213379, 839680800, 570595488, 172132902, 839422498, 839680800, 580991050, 249801262, 839268746, 839680800, 579059944, 419832368, 839434792, 839680800, 643027173, 250849908, 839499370, 839680800, 772319776, 648643306, 839559840, 839680800, 820600398, 695876375, 839605966, 839680800, 747846857, 485959375, 839597769, 839680800, 820600398, 695876375, 839605966, 839680800, 806955585, 682231562, 839592641, 839680800, 519364911, 394640888, 839311791, 839680800, 503620896, 378896873, 839296416, 839680800, 420600945, 122801559, 839275923, 839680800, 673763874, 625543828, 839504482, 839680800, 708305379, 596151992, 839508579, 839680800, 781762089, 687482607, 839630569, 839680800, 421650546, 226707864, 839180594, 839680800, 402757728, 207815046, 839162144, 839680800, 339759108, 20984148, 172150956, 348459180, 538980354, 7342604, 276045058, 549985548, 182476814, 19937464, 839044270, 839680800, 167782400, 10491050, 839035045, 839680800, 455204978, 122800568, 839308722, 839680800, 576046437, 380999217, 481766853, 588819921, 626024469, 24140376, 839474774, 839680800, 308293638, 10494252, 839166248, 839680800, 511984904, 283389425, 839367147, 839680800, 745946503, 414588623, 582528551, 754658863, 626024469, 24140376, 839474774, 839680800, 514013386, 216216046, 839367148, 839680800, 217079823, 92355800, 839016591, 839680800, 167862336, 125927608, 839016576, 839680800, 548652267, 250852881, 839400973, 839680800, 544421063, 213067277, 839396873, 839680800, 448841772, 50379186, 839303598, 839680800, 543312006, 354753042, 839404038, 839680800, 820101230, 116505360, 839663374, 839680800, 308332582, 186816818, 839174438, 839680800, 271602691, 156372245, 839144707, 839680800, 103830531, 55610485, 838947907, 839680800, 570876320, 461812280, 503833068, 583565804, 480426154, 182628814, 839334348, 839680800, 347128875, 49329489, 839204173, 839680800, 811675718, 77669132, 839658248, 839680800, 822436176, 361059096, 587784756, 827081268, 640830595, 322211443, 839339459, 839680800, 822436176, 361059096, 587784756, 827081268, 805642560, 340067080, 575181344, 814486056, 682055114, 593013397, 839538314, 839680800, 537125088, 251896344, 839401992, 839680800, 584107053, 49329713, 839433773, 839680800, 577809447, 45131307, 839429673, 839680800, 441636005, 189969845, 307549485, 450270509, 604281120, 409338438, 839358944, 839680800, 644375046, 596155000, 839475782, 839680800, 708191619, 513248937, 839460419, 839680800, 679953864, 555229841, 839468616, 839680800, 774285730, 442927850, 610867778, 782998090, 787663023, 388349682, 839436847, 839680800, 271766691, 223546645, 839111907, 839680800, 554884273, 189976087, 839407123, 839680800, 538090657, 173182471, 839390723, 839680800, 355523635, 55627095, 839210323, 839680800, 336630817, 38833477, 839193923, 839680800, 810015204, 517444374, 839661316, 839680800, 442812710, 388340146, 839305638, 839680800, 284254287, 159530264, 839082191, 839680800, 268510272, 143786249, 839066816, 839680800, 586175503, 19940917, 839437873, 839680800, 573580291, 7345705, 839425573, 839680800, 713606696, 655991473, 839567016, 839680800, 778216614, 378903273, 839427622, 839680800, 475089989, 288626131, 839339461, 839680800, 480326730, 282339789, 839333322, 839680800, 748937450, 428223192, 839442986, 839680800, 738441440, 417727182, 839432736, 839680800, 217079823, 92355800, 839016591, 839680800, 201335808, 76611785, 839001216, 839680800, 683886796, 218315410, 839533198, 839680800, 546553065, 248753679, 839398923, 839680800, 717441228, 218315442, 839565998, 839680800, 711143622, 212017836, 839559848, 839680800, 418503791, 120700311, 839273871, 839680800, 704652288, 6295209, 839555747, 839680800, 716492075, 456568499, 839437867, 839680800, 644071654, 246651504, 448179622, 654945712, 816003274, 216216334, 514308588, 818686444, 301996032, 107053350, 839063744, 839680800, 574051779, 525831733, 839407107, 839680800, 808922563, 477564683, 645504611, 817634923, 537289088, 428225048, 470245836, 549978572, 738266176, 69273283, 839584449, 839680800, 818436620, 560482070, 684350097, 823931537, 807940610, 544738060, 679091842, 818683532, 309347335, 118594865, 839075015, 839680800, 100687872, 16785528, 838975592, 839680800, 406079747, 354749842, 839272835, 839680800, 375572646, 182626674, 839235946, 839680800, 643222949, 557323891, 839503461, 839680800, 817315275, 653897487, 839663371, 839680800, 436410560, 207818150, 839293347, 839680800, 