#include "../host/typedefs.h"
static  int weights_array0[2913] = {
-4096,-4096,-4096,-4096,-4096,-4096,-4096,-4096,-4096,-4096,-4096,-4096,-4096,-4096,-4096,-4096,-4096,-4096,-4096,-4096,-4096,-4096,-4096,-4096,-4096,-4096,-4096,-4096,-4096,-4096,-4096,-4096,-4096,-4096,-4096,-4096,-4096,-4096,-4096,-4096,-4096,-4096,-4096,-4096,-4096,-4096,-4096,-4096,-4096,-4096,-4096,-4096,-4096,-4096,-4096,-4096,-4096,-4096,-4096,-4096,-4096,-4096,-4096,-4096,-4096,-4096,-4096,-4096,-4096,-4096,-4096,-4096,-4096,-4096,-4096,-4096,-4096,-4096,-4096,-4096,-4096,-4096,-4096,-4096,-4096,-4096,-4096,-4096,-4096,-4096,-4096,-4096,-4096,-4096,-4096,-4096,-4096,-4096,-4096,-4096,-4096,-4096,-4096,-4096,-4096,-4096,-4096,-4096,-4096,-4096,-4096,-4096,-4096,-4096,-4096,-4096,-4096,-4096,-4096,-4096,-4096,-4096,-4096,-4096,-4096,-4096,-4096,-4096,-4096,-4096,-4096,-4096,-4096,-4096,-4096,-4096,-4096,-4096,-4096,-4096,-4096,-4096,-4096,-4096,-4096,-4096,-4096,-4096,-4096,-4096,-4096,-4096,-4096,-4096,-4096,-4096,-4096,-4096,-4096,-4096,-4096,-4096,-4096,-4096,-4096,-4096,-4096,-4096,-4096,-4096,-4096,-4096,-4096,-4096,-4096,-4096,-4096,-4096,-4096,-4096,-4096,-4096,-4096,-4096,-4096,-4096,-4096,-4096,-4096,-4096,-4096,-4096,-4096,-4096,-4096,-4096,-4096,-4096,-4096,-4096,-4096,-4096,-4096,-4096,-4096,-4096,-4096,-4096,-4096,-4096,-4096,-4096,-4096,-4096,-4096,-4096,-4096,-4096,-4096,-4096,-4096,-4096,-4096,-4096,-4096,-4096,-4096,-4096,-4096,-4096,-4096,-4096,-4096,-4096,-4096,-4096,-4096,-4096,-4096,-4096,-4096,-4096,-4096,-4096,-4096,-4096,-4096,-4096,-4096,-4096,-4096,-4096,-4096,-4096,-4096,-4096,-4096,-4096,-4096,-4096,-4096,-4096,-4096,-4096,-4096,-4096,-4096,-4096,-4096,-4096,-4096,-4096,-4096,-4096,-4096,-4096,-4096,-4096,-4096,-4096,-4096,-4096,-4096,-4096,-4096,-4096,-4096,-4096,-4096,-4096,-4096,-4096,-4096,-4096,-4096,-4096,-4096,-4096,-4096,-4096,-4096,-4096,-4096,-4096,-4096,-4096,-4096,-4096,-4096,-4096,-4096,-4096,-4096,-4096,-4096,-4096,-4096,-4096,-4096,-4096,-4096,-4096,-4096,-4096,-4096,-4096,-4096,-4096,-4096,-4096,-4096,-4096,-4096,-4096,-4096,-4096,-4096,-4096,-4096,-4096,-4096,-4096,-4096,-4096,-4096,-4096,-4096,-4096,-4096,-4096,-4096,-4096,-4096,-4096,-4096,-4096,-4096,-4096,-4096,-4096,-4096,-4096,-4096,-4096,-4096,-4096,-4096,-4096,-4096,-4096,-4096,-4096,-4096,-4096,-4096,-4096,-4096,-4096,-4096,-4096,-4096,-4096,-4096,-4096,-4096,-4096,-4096,-4096,-4096,-4096,-4096,-4096,-4096,-4096,-4096,-4096,-4096,-4096,-4096,-4096,-4096,-4096,-4096,-4096,-4096,-4096,-4096,-4096,-4096,-4096,-4096,-4096,-4096,-4096,-4096,-4096,-4096,-4096,-4096,-4096,-4096,-4096,-4096,-4096,-4096,-4096,-4096,-4096,-4096,-4096,-4096,-4096,-4096,-4096,-4096,-4096,-4096,-4096,-4096,-4096,-4096,-4096,-4096,-4096,-4096,-4096,-4096,-4096,-4096,-4096,-4096,-4096,-4096,-4096,-4096,-4096,-4096,-4096,-4096,-4096,-4096,-4096,-4096,-4096,-4096,-4096,-4096,-4096,-4096,-4096,-4096,-4096,-4096,-4096,-4096,-4096,-4096,-4096,-4096,-4096,-4096,-4096,-4096,-4096,-4096,-4096,-4096,-4096,-4096,-4096,-4096,-4096,-4096,-4096,-4096,-4096,-4096,-4096,-4096,-4096,-4096,-4096,-4096,-4096,-4096,-4096,-4096,-4096,-4096,-4096,-4096,-4096,-4096,-4096,-4096,-4096,-4096,-4096,-4096,-4096,-4096,-4096,-4096,-4096,-4096,-4096,-4096,-4096,-4096,-4096,-4096,-4096,-4096,-4096,-4096,-4096,-4096,-4096,-4096,-4096,-4096,-4096,-4096,-4096,-4096,-4096,-4096,-4096,-4096,-4096,-4096,-4096,-4096,-4096,-4096,-4096,-4096,-4096,-4096,-4096,-4096,-4096,-4096,-4096,-4096,-4096,-4096,-4096,-4096,-4096,-4096,-4096,-4096,-4096,-4096,-4096,-4096,-4096,-4096,-4096,-4096,-4096,-4096,-4096,-4096,-4096,-4096,-4096,-4096,-4096,-4096,-4096,-4096,-4096,-4096,-4096,-4096,-4096,-4096,-4096,-4096,-4096,-4096,-4096,-4096,-4096,-4096,-4096,-4096,-4096,-4096,-4096,-4096,-4096,-4096,-4096,-4096,-4096,-4096,-4096,-4096,-4096,-4096,-4096,-4096,-4096,-4096,-4096,-4096,-4096,-4096,-4096,-4096,-4096,-4096,-4096,-4096,-4096,-4096,-4096,-4096,-4096,-4096,-4096,-4096,-4096,-4096,-4096,-4096,-4096,-4096,-4096,-4096,-4096,-4096,-4096,-4096,-4096,-4096,-4096,-4096,-4096,-4096,-4096,-4096,-4096,-4096,-4096,-4096,-4096,-4096,-4096,-4096,-4096,-4096,-4096,-4096,-4096,-4096,-4096,-4096,-4096,-4096,-4096,-4096,-4096,-4096,-4096,-4096,-4096,-4096,-4096,-4096,-4096,-4096,-4096,-4096,-4096,-4096,-4096,-4096,-4096,-4096,-4096,-4096,-4096,-4096,-4096,-4096,-4096,-4096,-4096,-4096,-4096,-4096,-4096,-4096,-4096,-4096,-4096,-4096,-4096,-4096,-4096,-4096,-4096,-4096,-4096,-4096,-4096,-4096,-4096,-4096,-4096,-4096,-4096,-4096,-4096,-4096,-4096,-4096,-4096,-4096,-4096,-4096,-4096,-4096,-4096,-4096,-4096,-4096,-4096,-4096,-4096,-4096,-4096,-4096,-4096,-4096,-4096,-4096,-4096,-4096,-4096,-4096,-4096,-4096,-4096,-4096,-4096,-4096,-4096,-4096,-4096,-4096,-4096,-4096,-4096,-4096,-4096,-4096,-4096,-4096,-4096,-4096,-4096,-4096,-4096,-4096,-4096,-4096,-4096,-4096,-4096,-4096,-4096,-4096,-4096,-4096,-4096,-4096,-4096,-4096,-4096,-4096,-4096,-4096,-4096,-4096,-4096,-4096,-4096,-4096,-4096,-4096,-4096,-4096,-4096,-4096,-4096,-4096,-4096,-4096,-4096,-4096,-4096,-4096,-4096,-4096,-4096,-4096,-4096,-4096,-4096,-4096,-4096,-4096,-4096,-4096,-4096,-4096,-4096,-4096,-4096,-4096,-4096,-4096,-4096,-4096,-4096,-4096,-4096,-4096,-4096,-4096,-4096,-4096,-4096,-4096,-4096,-4096,-4096,-4096,-4096,-4096,-4096,-4096,-4096,-4096,-4096,-4096,-4096,-4096,-4096,-4096,-4096,-4096,-4096,-4096,-4096,-4096,-4096,-4096,-4096,-4096,-4096,-4096,-4096,-4096,-4096,-4096,-4096,-4096,-4096,-4096,-4096,-4096,-4096,-4096,-4096,-4096,-4096,-4096,-4096,-4096,-4096,-4096,-4096,-4096,-4096,-4096,-4096,-4096,-4096,-4096,-4096,-4096,-4096,-4096,-4096,-4096,-4096,-4096,-4096,-4096,-4096,-4096,-4096,-4096,-4096,-4096,-4096,-4096,-4096,-4096,-4096,-4096,-4096,-4096,-4096,-4096,-4096,-4096,-4096,-4096,-4096,-4096,-4096,-4096,-4096,-4096,-4096,-4096,-4096,-4096,-4096,-4096,-4096,-4096,-4096,-4096,-4096,-4096,-4096,-4096,-4096,-4096,-4096,-4096,-4096,-4096,-4096,-4096,-4096,-4096,-4096,-4096,-4096,-4096,-4096,-4096,-4096,-4096,-4096,-4096,-4096,-4096,-4096,-4096,-4096,-4096,-4096,-4096,-4096,-4096,-4096,-4096,-4096,-4096,-4096,-4096,-4096,-4096,-4096,-4096,-4096,-4096,-4096,-4096,-4096,-4096,-4096,-4096,-4096,-4096,-4096,-4096,-4096,-4096,-4096,-4096,-4096,-4096,-4096,-4096,-4096,-4096,-4096,-4096,-4096,-4096,-4096,-4096,-4096,-4096,-4096,-4096,-4096,-4096,-4096,-4096,-4096,-4096,-4096,-4096,-4096,-4096,-4096,-4096,-4096,-4096,-4096,-4096,-4096,-4096,-4096,-4096,-4096,-4096,-4096,-4096,-4096,-4096,-4096,-4096,-4096,-4096,-4096,-4096,-4096,-4096,-4096,-4096,-4096,-4096,-4096,-4096,-4096,-4096,-4096,-4096,-4096,-4096,-4096,-4096,-4096,-4096,-4096,-4096,-4096,-4096,-4096,-4096,-4096,-4096,-4096,-4096,-4096,-4096,-4096,-4096,-4096,-4096,-4096,-4096,-4096,-4096,-4096,-4096,-4096,-4096,-4096,-4096,-4096,-4096,-4096,-4096,-4096,-4096,-4096,-4096,-4096,-4096,-4096,-4096,-4096,-4096,-4096,-4096,-4096,-4096,-4096,-4096,-4096,-4096,-4096,-4096,-4096,-4096,-4096,-4096,-4096,-4096,-4096,-4096,-4096,-4096,-4096,-4096,-4096,-4096,-4096,-4096,-4096,-4096,-4096,-4096,-4096,-4096,-4096,-4096,-4096,-4096,-4096,-4096,-4096,-4096,-4096,-4096,-4096,-4096,-4096,-4096,-4096,-4096,-4096,-4096,-4096,-4096,-4096,-4096,-4096,-4096,-4096,-4096,-4096,-4096,-4096,-4096,-4096,-4096,-4096,-4096,-4096,-4096,-4096,-4096,-4096,-4096,-4096,-4096,-4096,-4096,-4096,-4096,-4096,-4096,-4096,-4096,-4096,-4096,-4096,-4096,-4096,-4096,-4096,-4096,-4096,-4096,-4096,-4096,-4096,-4096,-4096,-4096,-4096,-4096,-4096,-4096,-4096,-4096,-4096,-4096,-4096,-4096,-4096,-4096,-4096,-4096,-4096,-4096,-4096,-4096,-4096,-4096,-4096,-4096,-4096,-4096,-4096,-4096,-4096,-4096,-4096,-4096,-4096,-4096,-4096,-4096,-4096,-4096,-4096,-4096,-4096,-4096,-4096,-4096,-4096,-4096,-4096,-4096,-4096,-4096,-4096,-4096,-4096,-4096,-4096,-4096,-4096,-4096,-4096,-4096,-4096,-4096,-4096,-4096,-4096,-4096,-4096,-4096,-4096,-4096,-4096,-4096,-4096,-4096,-4096,-4096,-4096,-4096,-4096,-4096,-4096,-4096,-4096,-4096,-4096,-4096,-4096,-4096,-4096,-4096,-4096,-4096,-4096,-4096,-4096,-4096,-4096,-4096,-4096,-4096,-4096,-4096,-4096,-4096,-4096,-4096,-4096,-4096,-4096,-4096,-4096,-4096,-4096,-4096,-4096,-4096,-4096,-4096,-4096,-4096,-4096,-4096,-4096,-4096,-4096,-4096,-4096,-4096,-4096,-4096,-4096,-4096,-4096,-4096,-4096,-4096,-4096,-4096,-4096,-4096,-4096,-4096,-4096,-4096,-4096,-4096,-4096,-4096,-4096,-4096,-4096,-4096,-4096,-4096,-4096,-4096,-4096,-4096,-4096,-4096,-4096,-4096,-4096,-4096,-4096,-4096,-4096,-4096,-4096,-4096,-4096,-4096,-4096,-4096,-4096,-4096,-4096,-4096,-4096,-4096,-4096,-4096,-4096,-4096,-4096,-4096,-4096,-4096,-4096,-4096,-4096,-4096,-4096,-4096,-4096,-4096,-4096,-4096,-4096,-4096,-4096,-4096,-4096,-4096,-4096,-4096,-4096,-4096,-4096,-4096,-4096,-4096,-4096,-4096,-4096,-4096,-4096,-4096,-4096,-4096,-4096,-4096,-4096,-4096,-4096,-4096,-4096,-4096,-4096,-4096,-4096,-4096,-4096,-4096,-4096,-4096,-4096,-4096,-4096,-4096,-4096,-4096,-4096,-4096,-4096,-4096,-4096,-4096,-4096,-4096,-4096,-4096,-4096,-4096,-4096,-4096,-4096,-4096,-4096,-4096,-4096,-4096,-4096,-4096,-4096,-4096,-4096,-4096,-4096,-4096,-4096,-4096,-4096,-4096,-4096,-4096,-4096,-4096,-4096,-4096,-4096,-4096,-4096,-4096,-4096,-4096,-4096,-4096,-4096,-4096,-4096,-4096,-4096,-4096,-4096,-4096,-4096,-4096,-4096,-4096,-4096,-4096,-4096,-4096,-4096,-4096,-4096,-4096,-4096,-4096,-4096,-4096,-4096,-4096,-4096,-4096,-4096,-4096,-4096,-4096,-4096,-4096,-4096,-4096,-4096,-4096,-4096,-4096,-4096,-4096,-4096,-4096,-4096,-4096,-4096,-4096,-4096,-4096,-4096,-4096,-4096,-4096,-4096,-4096,-4096,-4096,-4096,-4096,-4096,-4096,-4096,-4096,-4096,-4096,-4096,-4096,-4096,-4096,-4096,-4096,-4096,-4096,-4096,-4096,-4096,-4096,-4096,-4096,-4096,-4096,-4096,-4096,-4096,-4096,-4096,-4096,-4096,-4096,-4096,-4096,-4096,-4096,-4096,-4096,-4096,-4096,-4096,-4096,-4096,-4096,-4096,-4096,-4096,-4096,-4096,-4096,-4096,-4096,-4096,-4096,-4096,-4096,-4096,-4096,-4096,-4096,-4096,-4096,-4096,-4096,-4096,-4096,-4096,-4096,-4096,-4096,-4096,-4096,-4096,-4096,-4096,-4096,-4096,-4096,-4096,-4096,-4096,-4096,-4096,-4096,-4096,-4096,-4096,-4096,-4096,-4096,-4096,-4096,-4096,-4096,-4096,-4096,-4096,-4096,-4096,-4096,-4096,-4096,-4096,-4096,-4096,-4096,-4096,-4096,-4096,-4096,-4096,-4096,-4096,-4096,-4096,-4096,-4096,-4096,-4096,-4096,-4096,-4096,-4096,-4096,-4096,-4096,-4096,-4096,-4096,-4096,-4096,-4096,-4096,-4096,-4096,-4096,-4096,-4096,-4096,-4096,-4096,-4096,-4096,-4096,-4096,-4096,-4096,-4096,-4096,-4096,-4096,-4096,-4096,-4096,-4096,-4096,-4096,-4096,-4096,-4096,-4096,-4096,-4096,-4096,-4096,-4096,-4096,-4096,-4096,-4096,-4096,-4096,-4096,-4096,-4096,-4096,-4096,-4096,-4096,-4096,-4096,-4096,-4096,-4096,-4096,-4096,-4096,-4096,-4096,-4096,-4096,-4096,-4096,-4096,-4096,-4096,-4096,-4096,-4096,-4096,-4096,-4096,-4096,-4096,-4096,-4096,-4096,-4096,-4096,-4096,-4096,-4096,-4096,-4096,-4096,-4096,-4096,-4096,-4096,-4096,-4096,-4096,-4096,-4096,-4096,-4096,-4096,-4096,-4096,-4096,-4096,-4096,-4096,-4096,-4096,-4096,-4096,-4096,-4096,-4096,-4096,-4096,-4096,-4096,-4096,-4096,-4096,-4096,-4096,-4096,-4096,-4096,-4096,-4096,-4096,-4096,-4096,-4096,-4096,-4096,-4096,-4096,-4096,-4096,-4096,-4096,-4096,-4096,-4096,-4096,-4096,-4096,-4096,-4096,-4096,-4096,-4096,-4096,-4096,-4096,-4096,-4096,-4096,-4096,-4096,-4096,-4096,-4096,-4096,-4096,-4096,-4096,-4096,-4096,-4096,-4096,-4096,-4096,-4096,-4096,-4096,-4096,-4096,-4096,-4096,-4096,-4096,-4096,-4096,-4096,-4096,-4096,-4096,-4096,-4096,-4096,-4096,-4096,-4096,-4096,-4096,-4096,-4096,-4096,-4096,-4096,-4096,-4096,-4096,-4096,-4096,-4096,-4096,-4096,-4096,-4096,-4096,-4096,-4096,-4096,-4096,-4096,-4096,-4096,-4096,-4096,-4096,-4096,-4096,-4096,-4096,-4096,-4096,-4096,-4096,-4096,-4096,-4096,-4096,-4096,-4096,-4096,-4096,-4096,-4096,-4096,-4096,-4096,-4096,-4096,-4096,-4096,-4096,-4096,-4096,-4096,-4096,-4096,-4096,-4096,-4096,-4096,-4096,-4096,-4096,-4096,-4096,-4096,-4096,-4096,-4096,-4096,-4096,-4096,-4096,-4096,-4096,-4096,-4096,-4096,-4096,-4096,-4096,-4096,-4096,-4096,-4096,-4096,-4096,-4096,-4096,-4096,-4096,-4096,-4096,-4096,-4096,-4096,-4096,-4096,-4096,-4096,-4096,-4096,-4096,-4096,-4096,-4096,-4096,-4096,-4096,-4096,-4096,-4096,-4096,-4096,-4096,-4096,-4096,-4096,-4096,-4096,-4096,-4096,-4096,-4096,-4096,-4096,-4096,-4096,-4096,-4096,-4096,-4096,-4096,-4096,-4096,-4096,-4096,-4096,-4096,-4096,-4096,-4096,-4096,-4096,-4096,-4096,-4096,-4096,-4096,-4096,-4096,-4096,-4096,-4096,-4096,-4096,-4096,-4096,-4096,-4096,-4096,-4096,-4096,-4096,-4096,-4096,-4096,-4096,-4096,-4096,-4096,-4096,-4096,-4096,-4096,-4096,-4096,-4096,-4096,-4096,-4096,-4096,-4096,-4096,-4096,-4096,-4096,-4096,-4096,-4096,-4096,-4096,-4096,-4096,-4096,-4096,-4096,-4096,-4096,-4096,-4096,-4096,-4096,-4096,-4096,-4096,-4096,-4096,-4096,-4096,-4096,-4096,-4096,-4096,-4096,-4096,-4096,-4096,-4096,-4096,-4096,-4096,-4096,-4096,-4096,-4096,-4096,-4096,-4096,-4096,-4096,-4096,-4096,-4096,-4096,-4096,-4096,-4096,-4096,-4096,-4096,-4096,-4096,-4096,-4096,-4096,-4096,-4096,-4096,-4096,-4096,-4096,-4096,-4096,-4096,-4096,-4096,-4096,-4096,-4096,-4096,-4096,-4096,-4096,-4096,-4096,-4096,-4096,-4096,-4096,-4096,-4096,-4096,-4096,-4096,-4096,-4096,-4096,-4096,-4096,-4096,-4096,-4096,-4096,-4096,-4096,-4096,-4096,-4096,-4096,-4096,-4096,-4096,-4096,-4096,-4096,-4096,-4096,-4096,-4096,-4096,-4096,-4096,-4096,-4096,-4096,-4096,-4096,-4096,-4096,-4096,-4096,-4096,-4096,-4096,-4096,-4096,-4096,-4096,-4096,-4096,-4096,-4096,-4096,-4096,-4096,-4096,-4096,-4096,-4096,-4096,-4096,-4096,-4096,-4096,-4096,-4096,-4096,-4096,-4096,-4096,-4096,-4096,-4096,-4096,-4096,-4096,-4096,-4096,-4096,-4096,-4096,-4096,-4096,-4096,-4096,-4096,-4096,-4096,-4096,-4096,-4096,-4096,-4096,-4096,-4096,-4096,-4096,-4096,-4096,-4096,-4096,-4096,-4096,-4096,-4096,-4096,-4096,-4096,-4096,-4096,-4096,-4096,-4096,-4096,-4096,-4096,-4096,-4096,-4096,-4096,-4096,-4096,-4096,-4096,-4096,-4096,-4096,-4096,-4096,-4096,-4096,-4096,-4096,-4096,-4096,-4096,-4096,-4096,-4096,-4096,-4096,-4096,-4096,-4096,-4096,-4096,-4096,-4096,-4096,-4096,-4096,-4096,-4096,-4096,-4096,-4096,-4096,-4096,-4096,-4096,-4096,-4096,-4096,-4096,-4096,-4096,-4096,-4096,-4096,-4096,-4096,-4096,-4096,-4096,-4096,-4096,-4096,-4096,-4096,-4096,-4096,-4096,-4096,-4096,-4096,-4096,-4096,-4096,-4096,-4096,-4096,-4096,-4096,-4096,-4096,-4096,-4096,-4096,-4096,-4096,-4096,-4096,-4096,-4096,-4096,-4096,-4096,-4096,-4096,-4096,-4096,-4096,-4096,-4096,-4096,-4096,-4096,-4096,-4096,-4096,-4096,-4096,-4096,-4096,-4096,-4096,-4096,-4096,-4096,-4096,-4096,-4096,-4096,-4096,-4096,-4096,-4096,-4096,-4096,-4096,-4096,-4096,-4096,-4096,-4096,-4096,-4096,-4096,-4096,-4096,-4096,-4096,-4096,-4096,-4096,-4096,-4096,-4096,-4096,-4096,-4096,-4096,-4096,-4096,-4096,-4096,-4096,-4096,-4096,-4096,-4096,-4096,-4096,-4096,-4096,-4096,-4096,-4096,-4096,-4096,-4096,-4096,-4096,-4096,-4096,-4096,-4096,-4096,-4096,-4096,-4096,-4096,-4096,-4096,-4096,-4096,-4096,-4096,-4096,-4096,-4096,-4096,-4096,-4096,-4096,-4096,-4096,-4096,-4096,-4096,-4096,-4096,-4096,-4096,-4096,-4096,-4096,-4096,-4096,-4096,-4096,-4096,-4096,-4096,-4096,-4096,-4096,-4096,-4096,-4096,-4096,-4096,-4096,-4096,-4096,-4096,-4096,-4096,-4096,-4096,-4096,-4096,-4096,-4096,-4096,-4096,-4096,-4096,-4096,-4096,-4096,-4096,-4096,-4096,-4096,-4096,-4096,-4096,-4096,-4096,-4096,-4096,-4096,-4096,-4096,-4096,-4096,-4096,-4096,-4096,-4096,-4096,-4096,-4096,-4096,-4096,-4096,-4096,-4096,-4096,-4096,-4096,-4096,-4096,-4096,-4096,-4096,-4096,-4096,-4096,-4096,-4096,-4096,-4096,-4096,-4096,-4096,-4096,-4096,-4096,-4096,-4096,-4096,-4096,-4096,-4096,-4096,-4096,-4096,-4096,-4096,-4096,-4096,-4096,-4096,-4096,-4096,-4096,-4096,-4096,-4096,-4096,-4096,-4096,-4096,-4096,-4096,-4096,-4096,-4096,-4096,-4096,-4096,-4096,-4096,-4096,-4096,-4096,-4096,-4096,-4096,-4096,-4096,-4096,-4096,-4096,-4096,-4096,-4096,-4096,-4096,-4096,-4096,-4096,-4096,-4096,-4096,-4096,-4096,-4096,-4096,-4096,-4096,-4096,-4096,-4096,-4096,-4096,-4096,-4096,-4096,-4096,-4096,-4096,-4096,-4096,-4096,-4096,-4096,-4096,-4096,-4096,-4096,-4096,-4096,-4096,-4096,-4096,-4096,-4096,-4096,-4096,-4096,-4096,-4096,-4096,-4096,-4096,-4096,-4096,-4096,-4096,-4096,-4096,-4096,-4096,-4096,-4096,-4096,-4096,-4096,-4096,-4096,-4096,-4096,-4096,-4096,-4096,-4096,-4096,-4096,-4096,-4096,-4096,-4096,-4096,-4096,-4096,-4096,-4096,-4096,-4096,-4096,-4096,-4096,-4096,-4096,-4096,-4096,-4096,-4096,-4096,-4096,-4096,-4096,-4096,-4096,-4096,-4096,-4096,-4096,-4096,-4096,-4096,-4096,-4096,-4096,-4096,-4096,-4096,-4096,-4096,-4096,-4096,-4096,-4096,-4096,-4096,-4096,-4096,-4096,-4096,-4096,-4096,-4096,-4096,-4096,-4096,-4096,-4096,-4096,-4096,-4096,-4096,-4096,-4096,-4096,-4096,-4096,-4096,-4096,-4096,-4096,-4096,-4096,-4096,-4096,-4096,-4096,-4096,-4096,-4096,-4096,-4096,-4096,-4096,-4096,-4096,-4096,-4096,-4096,-4096,-4096,-4096,-4096,-4096,-4096,-4096,-4096,-4096,-4096,-4096,-4096,-4096,-4096,-4096,-4096,-4096,-4096,-4096,-4096,-4096,-4096,-4096,-4096,-4096,-4096,-4096,-4096,-4096,-4096,-4096,-4096,-4096,-4096,-4096,-4096,-4096,-4096,-4096,-4096,-4096,-4096,-4096,-4096,-4096,-4096,-4096,-4096,-4096,-4096,-4096,-4096,-4096,-4096,-4096,-4096,-4096,-4096,-4096,-4096,-4096,-4096,-4096,-4096,-4096,-4096,-4096,-4096,-4096,-4096,-4096,-4096,-4096,-4096,-4096,-4096,-4096,-4096,-4096,-4096,-4096,-4096,-4096,-4096,-4096,-4096,-4096,-4096,-4096,-4096,-4096,-4096,-4096,-4096,-4096,-4096,-4096,-4096,-4096,-4096,-4096,-4096,-4096,-4096,-4096,-4096,-4096,-4096,-4096,-4096,-4096,-4096,-4096,-4096,-4096,-4096,-4096,-4096,-4096,-4096,-4096,-4096,-4096,-4096,-4096,-4096,-4096,-4096,-4096,-4096,-4096,-4096,-4096,-4096,-4096,-4096,-4096,-4096,-4096,-4096};

static  int weights_array1[2913] = {
12288,12288,12288,12288,8192,8192,8192,8192,8192,12288,12288,12288,12288,12288,8192,12288,12288,12288,12288,8192,12288,12288,12288,12288,8192,12288,8192,8192,12288,8192,12288,12288,8192,8192,12288,8192,12288,8192,8192,12288,8192,8192,12288,12288,8192,12288,8192,8192,8192,8192,8192,12288,12288,12288,12288,12288,8192,8192,8192,12288,12288,8192,8192,12288,8192,12288,12288,8192,8192,8192,8192,12288,12288,12288,12288,8192,8192,12288,12288,12288,12288,12288,12288,12288,12288,12288,12288,8192,12288,8192,12288,8192,8192,8192,8192,8192,8192,12288,8192,8192,12288,12288,8192,8192,8192,8192,8192,12288,8192,8192,8192,12288,12288,12288,12288,12288,8192,8192,8192,8192,8192,8192,8192,12288,8192,8192,8192,12288,8192,8192,8192,8192,12288,12288,12288,12288,12288,8192,12288,8192,12288,12288,12288,8192,8192,8192,8192,8192,12288,12288,12288,8192,8192,12288,12288,8192,8192,12288,8192,8192,8192,12288,8192,12288,8192,12288,12288,12288,12288,12288,12288,12288,8192,8192,8192,12288,8192,8192,8192,8192,8192,8192,8192,12288,12288,8192,12288,8192,12288,8192,8192,8192,8192,12288,12288,8192,8192,12288,8192,8192,12288,12288,8192,8192,12288,12288,8192,8192,12288,12288,8192,8192,12288,12288,12288,8192,12288,8192,8192,8192,12288,12288,12288,8192,8192,12288,12288,8192,12288,12288,8192,12288,12288,12288,8192,8192,8192,8192,12288,12288,8192,8192,8192,12288,12288,8192,8192,8192,8192,8192,12288,12288,12288,12288,8192,8192,12288,8192,12288,12288,12288,8192,8192,8192,8192,12288,8192,12288,8192,8192,12288,12288,8192,12288,12288,12288,8192,12288,8192,8192,8192,8192,12288,12288,12288,12288,8192,8192,8192,12288,12288,8192,8192,8192,12288,8192,12288,12288,8192,12288,12288,12288,12288,12288,8192,8192,8192,8192,8192,12288,12288,12288,12288,12288,12288,12288,8192,8192,8192,8192,8192,12288,12288,12288,12288,12288,12288,8192,8192,8192,12288,8192,12288,12288,8192,12288,8192,8192,12288,12288,12288,12288,8192,12288,12288,12288,12288,12288,12288,8192,12288,8192,12288,8192,8192,8192,12288,12288,12288,8192,8192,8192,8192,8192,12288,12288,8192,8192,12288,12288,12288,12288,12288,8192,8192,8192,12288,8192,8192,8192,12288,12288,12288,12288,8192,12288,12288,12288,12288,12288,12288,12288,8192,12288,12288,12288,12288,12288,8192,12288,12288,12288,12288,8192,8192,12288,12288,12288,12288,12288,8192,12288,8192,8192,8192,8192,8192,12288,12288,12288,12288,8192,8192,12288,12288,12288,8192,12288,12288,12288,12288,8192,8192,12288,12288,8192,8192,12288,8192,12288,12288,12288,12288,8192,8192,8192,8192,12288,8192,12288,12288,8192,8192,8192,8192,8192,8192,8192,12288,8192,8192,8192,12288,8192,8192,12288,8192,12288,12288,12288,8192,12288,12288,8192,8192,12288,12288,12288,8192,12288,12288,8192,8192,12288,12288,12288,12288,8192,8192,8192,8192,12288,12288,12288,12288,8192,8192,12288,12288,12288,12288,12288,12288,12288,12288,8192,12288,12288,12288,8192,12288,12288,12288,12288,12288,12288,12288,8192,12288,12288,8192,8192,8192,8192,8192,8192,12288,12288,12288,8192,12288,8192,12288,12288,12288,12288,12288,8192,8192,8192,8192,12288,8192,8192,12288,12288,8192,12288,8192,8192,8192,12288,8192,8192,8192,12288,12288,12288,12288,8192,12288,12288,12288,12288,8192,8192,8192,8192,12288,12288,12288,12288,8192,12288,8192,8192,12288,12288,12288,12288,12288,12288,12288,12288,8192,12288,12288,8192,8192,12288,12288,8192,8192,12288,8192,8192,12288,12288,8192,12288,8192,8192,8192,8192,12288,12288,8192,8192,12288,8192,12288,8192,8192,12288,8192,12288,12288,12288,12288,12288,8192,12288,8192,8192,8192,8192,8192,8192,12288,8192,8192,8192,12288,8192,12288,12288,12288,8192,12288,8192,12288,12288,12288,12288,8192,12288,12288,12288,8192,12288,12288,12288,12288,12288,12288,8192,12288,12288,12288,8192,12288,12288,12288,8192,8192,8192,8192,8192,12288,8192,8192,12288,12288,8192,8192,8192,12288,12288,8192,8192,8192,8192,8192,8192,8192,12288,8192,12288,12288,12288,8192,8192,12288,12288,8192,8192,8192,12288,12288,8192,8192,8192,12288,8192,8192,8192,8192,12288,12288,8192,8192,12288,12288,8192,8192,8192,12288,8192,8192,8192,12288,8192,8192,12288,8192,8192,8192,8192,8192,12288,12288,12288,12288,12288,12288,12288,12288,12288,12288,8192,8192,8192,8192,8192,12288,8192,12288,12288,12288,8192,8192,8192,8192,8192,12288,12288,8192,8192,8192,12288,12288,8192,12288,12288,8192,8192,8192,12288,12288,12288,8192,12288,12288,8192,12288,8192,8192,8192,8192,12288,8192,8192,8192,8192,8192,12288,8192,12288,12288,12288,12288,12288,12288,8192,8192,12288,12288,12288,8192,12288,8192,8192,12288,8192,8192,12288,12288,8192,12288,8192,8192,12288,8192,12288,12288,8192,8192,8192,12288,8192,12288,12288,12288,12288,8192,8192,12288,12288,8192,12288,12288,8192,12288,8192,12288,12288,12288,12288,12288,12288,12288,12288,8192,8192,8192,12288,12288,12288,12288,8192,8192,8192,12288,12288,12288,8192,8192,12288,12288,8192,12288,8192,8192,8192,8192,8192,8192,12288,8192,12288,8192,12288,8192,8192,8192,12288,8192,8192,12288,12288,12288,12288,12288,8192,12288,12288,12288,12288,12288,12288,12288,12288,8192,8192,8192,12288,8192,8192,12288,8192,8192,12288,8192,12288,8192,8192,8192,8192,8192,12288,12288,8192,8192,8192,12288,8192,12288,12288,12288,12288,8192,12288,8192,8192,12288,12288,12288,12288,12288,12288,12288,12288,12288,8192,8192,12288,12288,12288,12288,8192,8192,12288,12288,12288,12288,8192,8192,8192,12288,8192,8192,8192,12288,8192,8192,8192,8192,8192,12288,8192,8192,8192,8192,8192,8192,8192,8192,12288,8192,8192,12288,8192,8192,8192,12288,12288,12288,8192,8192,12288,8192,8192,8192,8192,8192,12288,8192,12288,8192,12288,8192,8192,12288,12288,8192,8192,12288,12288,8192,8192,12288,12288,12288,12288,8192,8192,8192,12288,12288,8192,12288,12288,8192,8192,8192,12288,8192,8192,8192,12288,12288,8192,12288,12288,12288,8192,8192,8192,8192,8192,12288,12288,12288,12288,12288,8192,8192,12288,8192,8192,12288,12288,12288,12288,8192,12288,8192,8192,8192,12288,12288,8192,8192,8192,12288,12288,12288,8192,8192,8192,8192,12288,8192,12288,8192,12288,8192,12288,12288,8192,12288,12288,12288,12288,8192,12288,12288,12288,8192,8192,8192,8192,12288,8192,8192,8192,12288,8192,8192,8192,12288,8192,12288,12288,8192,8192,8192,12288,8192,8192,8192,8192,8192,8192,8192,12288,8192,12288,12288,8192,12288,12288,12288,12288,8192,12288,8192,8192,12288,12288,8192,8192,8192,8192,12288,12288,8192,8192,12288,12288,12288,8192,8192,8192,12288,8192,8192,8192,8192,8192,12288,8192,12288,12288,8192,12288,12288,12288,12288,12288,12288,12288,12288,12288,12288,8192,12288,12288,12288,12288,12288,8192,12288,12288,12288,12288,12288,12288,12288,12288,8192,8192,12288,12288,12288,12288,12288,8192,8192,8192,8192,8192,12288,12288,8192,12288,12288,8192,8192,12288,8192,8192,8192,12288,12288,12288,12288,12288,12288,8192,8192,8192,12288,8192,12288,12288,12288,12288,12288,8192,8192,8192,8192,12288,12288,12288,12288,12288,12288,12288,12288,8192,12288,12288,12288,12288,8192,8192,12288,8192,12288,8192,12288,8192,8192,8192,12288,8192,8192,12288,8192,8192,8192,8192,8192,12288,12288,12288,8192,12288,8192,8192,12288,8192,12288,12288,8192,12288,12288,12288,12288,8192,8192,8192,8192,8192,8192,12288,12288,12288,12288,8192,8192,12288,12288,12288,12288,12288,12288,12288,12288,12288,12288,12288,12288,12288,12288,12288,12288,8192,12288,8192,8192,8192,12288,8192,8192,8192,8192,8192,8192,8192,8192,8192,8192,8192,8192,8192,8192,12288,12288,12288,8192,12288,12288,8192,12288,12288,12288,8192,12288,12288,12288,12288,8192,8192,8192,8192,12288,8192,8192,12288,12288,12288,12288,8192,8192,8192,8192,8192,8192,12288,12288,8192,8192,12288,8192,12288,8192,12288,12288,12288,12288,8192,8192,8192,12288,8192,8192,12288,8192,12288,12288,12288,8192,12288,12288,12288,12288,8192,8192,8192,8192,8192,12288,12288,12288,8192,12288,12288,8192,8192,8192,8192,8192,12288,12288,12288,12288,8192,8192,8192,8192,8192,8192,12288,12288,12288,8192,8192,8192,12288,8192,12288,8192,12288,8192,8192,8192,8192,12288,8192,8192,8192,12288,8192,8192,8192,8192,8192,12288,8192,8192,8192,8192,8192,12288,8192,12288,12288,12288,12288,12288,12288,12288,12288,8192,8192,8192,8192,12288,12288,12288,12288,12288,12288,12288,12288,8192,12288,12288,8192,8192,12288,8192,12288,12288,12288,12288,8192,8192,8192,8192,12288,8192,12288,12288,8192,8192,8192,8192,8192,8192,8192,8192,8192,12288,12288,12288,8192,12288,8192,8192,8192,8192,8192,12288,8192,8192,8192,8192,8192,8192,8192,12288,12288,8192,8192,12288,12288,8192,12288,8192,8192,8192,8192,8192,12288,8192,8192,8192,8192,12288,8192,12288,8192,12288,8192,12288,12288,8192,8192,12288,12288,8192,12288,12288,8192,12288,12288,8192,12288,8192,12288,12288,8192,8192,12288,8192,12288,12288,8192,8192,12288,8192,8192,8192,8192,8192,8192,8192,8192,12288,8192,8192,8192,8192,12288,8192,8192,12288,12288,12288,12288,8192,8192,8192,8192,12288,8192,8192,8192,8192,12288,12288,12288,8192,8192,12288,12288,12288,8192,8192,8192,8192,12288,12288,12288,12288,12288,12288,12288,12288,12288,12288,12288,8192,8192,12288,12288,8192,8192,12288,12288,12288,8192,12288,8192,12288,8192,8192,8192,8192,12288,8192,8192,8192,12288,12288,12288,12288,8192,8192,8192,12288,8192,12288,8192,12288,8192,8192,12288,12288,12288,8192,8192,8192,12288,12288,8192,8192,8192,8192,12288,8192,8192,8192,8192,8192,8192,8192,8192,8192,8192,12288,12288,12288,8192,8192,8192,8192,8192,8192,12288,12288,12288,8192,12288,8192,8192,8192,8192,12288,12288,8192,8192,8192,8192,12288,12288,8192,8192,8192,8192,8192,8192,8192,12288,12288,12288,12288,12288,8192,8192,12288,12288,12288,12288,12288,8192,12288,12288,8192,8192,8192,12288,12288,8192,12288,8192,12288,12288,12288,8192,8192,12288,12288,8192,8192,12288,8192,8192,8192,12288,12288,8192,8192,8192,12288,12288,12288,8192,8192,8192,12288,8192,12288,12288,12288,12288,12288,12288,12288,12288,12288,12288,12288,12288,8192,12288,8192,8192,12288,8192,12288,8192,12288,8192,8192,12288,8192,12288,8192,8192,8192,12288,8192,8192,8192,8192,12288,12288,12288,12288,8192,8192,8192,8192,8192,12288,12288,8192,12288,12288,8192,12288,8192,12288,8192,8192,8192,8192,12288,8192,8192,8192,12288,12288,12288,12288,8192,12288,8192,8192,12288,8192,8192,8192,8192,12288,8192,12288,12288,8192,12288,8192,8192,12288,8192,12288,8192,8192,12288,12288,12288,8192,12288,12288,12288,12288,8192,12288,12288,8192,12288,12288,12288,8192,8192,12288,8192,8192,8192,8192,12288,8192,12288,12288,12288,12288,12288,12288,12288,12288,12288,12288,8192,12288,12288,12288,12288,12288,8192,12288,12288,12288,8192,12288,12288,12288,12288,12288,8192,8192,8192,8192,8192,8192,8192,12288,8192,12288,12288,8192,8192,8192,8192,12288,12288,12288,12288,12288,8192,8192,8192,12288,12288,12288,12288,8192,8192,8192,12288,12288,12288,12288,12288,12288,12288,12288,12288,8192,12288,8192,8192,8192,8192,8192,12288,12288,8192,8192,8192,8192,8192,12288,12288,12288,12288,8192,12288,12288,8192,12288,8192,12288,12288,12288,12288,12288,8192,8192,8192,8192,12288,12288,8192,8192,12288,8192,8192,8192,12288,12288,12288,8192,8192,12288,8192,12288,8192,12288,8192,8192,12288,8192,12288,8192,12288,8192,12288,8192,8192,12288,12288,8192,8192,8192,8192,12288,12288,12288,12288,12288,8192,8192,8192,8192,12288,8192,12288,12288,8192,8192,12288,12288,8192,8192,8192,12288,8192,8192,12288,8192,8192,8192,12288,8192,12288,8192,12288,8192,12288,12288,8192,8192,12288,8192,8192,8192,8192,8192,12288,8192,12288,8192,12288,12288,12288,12288,12288,12288,12288,8192,12288,12288,8192,8192,12288,8192,8192,8192,8192,8192,8192,12288,8192,8192,12288,12288,12288,12288,12288,8192,8192,12288,8192,12288,12288,12288,8192,8192,12288,12288,12288,12288,12288,8192,8192,8192,8192,8192,8192,8192,8192,12288,8192,12288,8192,12288,8192,8192,8192,8192,8192,12288,12288,12288,12288,8192,8192,8192,8192,12288,8192,8192,8192,12288,12288,8192,12288,12288,8192,8192,8192,8192,8192,12288,8192,8192,8192,12288,8192,8192,8192,8192,12288,8192,12288,12288,12288,12288,12288,12288,12288,12288,12288,8192,12288,12288,12288,8192,8192,8192,12288,8192,12288,8192,8192,12288,12288,8192,8192,12288,12288,12288,8192,8192,8192,12288,12288,12288,12288,8192,12288,8192,8192,8192,12288,12288,12288,12288,12288,12288,8192,8192,8192,8192,12288,12288,8192,12288,12288,12288,8192,12288,12288,8192,8192,12288,12288,8192,12288,12288,12288,12288,8192,12288,12288,8192,8192,8192,8192,12288,12288,12288,12288,8192,12288,8192,12288,12288,8192,12288,8192,8192,8192,12288,12288,12288,12288,12288,12288,8192,8192,12288,12288,12288,8192,12288,12288,12288,12288,12288,12288,8192,8192,12288,12288,12288,8192,12288,12288,12288,12288,12288,12288,8192,8192,8192,8192,12288,8192,8192,8192,8192,8192,8192,8192,12288,8192,12288,8192,8192,12288,8192,12288,12288,12288,12288,12288,12288,12288,8192,8192,8192,8192,12288,12288,8192,8192,8192,8192,8192,8192,8192,12288,8192,8192,8192,12288,8192,12288,12288,12288,12288,8192,8192,12288,8192,8192,8192,8192,12288,12288,8192,8192,12288,8192,8192,8192,12288,12288,12288,12288,8192,8192,12288,12288,12288,12288,12288,12288,12288,12288,12288,12288,8192,8192,8192,8192,8192,8192,8192,12288,8192,8192,12288,12288,8192,12288,8192,8192,12288,12288,12288,12288,8192,8192,8192,12288,8192,12288,12288,12288,12288,8192,8192,8192,8192,8192,8192,12288,12288,8192,12288,8192,8192,8192,8192,8192,8192,12288,12288,12288,8192,12288,12288,8192,8192,8192,8192,8192,12288,8192,12288,8192,8192,8192,12288,12288,8192,8192,8192,8192,8192,8192,8192,8192,12288,12288,8192,8192,8192,12288,8192,12288,12288,12288,12288,8192,8192,8192,12288,8192,8192,12288,12288,12288,12288,12288,8192,8192,12288,12288,12288,8192,12288,12288,8192,8192,8192,12288,12288,12288,8192,12288,8192,8192,8192,12288,12288,12288,8192,8192,8192,8192,8192,8192,8192,12288,8192,12288,8192,8192,8192,12288,12288,8192,8192,12288,12288,8192,8192,8192,12288,8192,8192,12288,12288,8192,12288,8192,8192,12288,12288,12288,12288,12288,12288,12288,12288,12288,12288,12288,8192,8192,8192,12288,8192,12288,8192,8192,8192,12288,8192,12288,12288,12288,12288,8192,8192,8192,8192,8192,12288,8192,12288,12288,8192,12288,8192,12288,12288,8192,8192,8192,8192,8192,12288,8192,8192,12288,8192,12288,8192,8192,12288,12288,12288,12288,12288,12288,12288,12288,12288,12288,8192,8192,12288,8192,8192,8192,12288,12288,8192,8192,8192,12288,8192,8192,12288,8192,8192,8192,12288,12288,12288,12288,12288,8192,12288,12288,8192,12288,8192,12288,8192,8192,8192,12288,8192,8192,12288,12288,12288,12288,12288,8192,8192,12288,12288,8192,8192,12288,12288,12288,12288,12288,12288,8192,8192,8192,8192,8192,8192,8192,8192,12288,8192,8192,8192,8192,12288,12288,8192,12288,8192,8192,12288,12288,12288,12288,8192,8192,8192,12288,12288,8192,12288,12288,8192,8192,8192,8192,12288,8192,12288,12288,12288,12288,12288,8192,8192,8192,12288,8192,8192,8192,12288,12288,12288,8192,8192,12288,8192,8192,8192,12288,8192,12288,8192,8192,8192,12288,8192,8192,8192,8192,8192,8192,12288,12288,8192,12288,12288,8192,12288,12288,12288,12288,12288,12288,12288,12288,8192,8192,12288,12288,12288,8192,8192,12288,12288,8192,8192,8192,12288,12288,8192,12288,8192,8192,12288,12288,8192,8192,12288,12288,8192,12288,8192,12288,8192,8192,12288,12288,12288,12288,12288,12288,12288,12288,8192,8192,8192,8192,8192,12288,12288,12288,8192,8192,12288,12288,8192,8192,12288,8192,8192,8192,12288,8192,8192,12288,12288,12288,12288,8192,8192,12288,8192,8192,12288,12288,12288,8192,12288,8192,12288,12288,12288,12288,12288,8192,8192,12288,8192,8192,8192,8192,8192,12288,12288,12288,8192,8192,8192,12288,8192,12288,8192,8192,8192,12288,12288,12288,12288,12288,8192,8192,8192,12288,8192,8192,8192,8192,8192,8192,8192,12288,12288,12288,12288,8192,12288,8192,12288,12288,8192,8192,8192,8192,8192,8192,8192,12288,8192,8192,8192,8192,8192,12288,12288,12288,12288,12288,12288,12288,12288,12288,12288,12288,8192,8192,8192,8192,8192,8192,12288,8192,12288,12288,12288,12288,12288,8192,12288,12288,12288,12288,8192,8192,12288,12288,12288,12288,8192,8192,12288,12288,12288,12288,12288,12288,12288,8192,12288,12288,12288,12288,8192,8192,12288,12288,8192,8192,8192,8192,8192,8192,8192,8192,8192,8192,12288,8192,8192,12288,12288,12288,8192,12288,8192,12288,8192,8192,8192,8192,8192,8192,8192,8192,8192,12288,12288,12288,12288,12288,12288,8192,12288,12288,12288,8192,8192,8192,8192,8192,8192,12288,8192,12288,8192,12288,12288,12288,12288,12288,12288,12288,8192,8192};

static  int weights_array2[2913] = {
0,0,0,0,0,0,0,0,0,0,0,0,0,0,0,0,0,0,0,0,0,0,0,0,0,0,0,0,0,0,0,0,0,0,0,8192,0,0,0,0,0,0,0,0,0,0,0,0,8192,0,0,0,0,0,0,0,8192,0,0,0,0,0,8192,0,0,0,0,0,0,0,8192,0,0,0,0,8192,8192,0,0,0,0,0,0,0,0,0,0,0,0,0,0,0,0,0,0,0,0,0,0,0,0,0,0,0,0,8192,0,0,0,8192,8192,0,0,0,0,0,0,0,8192,0,8192,8192,8192,0,0,0,0,0,0,0,0,0,0,0,0,0,0,0,0,0,0,0,0,0,0,0,0,0,0,0,0,0,8192,0,0,0,0,0,0,0,8192,0,0,0,8192,0,0,0,0,0,0,0,0,0,0,0,8192,8192,0,0,0,0,0,0,0,0,0,8192,0,0,0,0,0,0,0,0,0,0,0,0,0,0,8192,0,0,0,8192,8192,0,0,0,0,0,0,0,8192,0,8192,0,0,0,0,0,8192,8192,0,0,0,0,0,8192,0,0,0,8192,8192,0,0,0,0,0,8192,8192,0,0,0,0,0,8192,8192,0,0,0,0,0,8192,0,0,0,0,0,8192,0,0,0,0,0,0,0,0,0,0,0,0,0,0,0,0,0,0,0,0,0,0,0,0,0,0,8192,0,0,8192,0,0,0,0,0,0,0,0,0,0,0,0,0,0,0,0,0,0,0,0,0,0,0,0,0,8192,8192,8192,0,0,0,0,0,0,0,8192,0,0,0,0,0,0,0,0,8192,8192,0,0,0,0,0,0,0,0,0,0,0,0,0,0,0,0,0,0,0,0,0,8192,8192,8192,8192,8192,0,0,8192,8192,0,0,0,0,0,8192,8192,8192,0,0,0,0,0,0,0,0,0,0,0,0,0,0,0,0,0,0,0,0,0,0,0,0,0,0,0,0,0,0,0,0,0,0,0,0,8192,0,0,8192,8192,0,0,0,0,0,0,0,0,0,0,0,0,0,0,0,0,0,0,0,0,0,0,0,0,0,0,0,8192,0,0,0,0,0,0,8192,0,8192,8192,0,0,0,0,8192,8192,8192,0,8192,8192,0,0,0,0,0,0,0,0,8192,0,0,0,0,8192,0,0,8192,0,0,0,0,0,0,0,0,8192,0,0,0,0,0,0,0,0,0,0,0,0,0,0,0,0,0,0,0,0,0,0,0,0,0,0,0,0,0,8192,8192,0,0,0,8192,0,0,0,8192,0,0,0,0,0,0,0,0,0,0,0,0,8192,0,0,0,8192,0,8192,8192,0,0,0,0,8192,0,0,0,0,8192,0,0,0,0,0,0,0,0,0,0,0,0,0,0,0,0,0,0,0,0,0,0,0,0,0,0,0,8192,8192,0,0,8192,8192,0,8192,8192,0,0,0,0,0,0,0,0,0,0,0,0,0,0,0,0,0,0,0,0,0,0,0,0,0,0,0,0,8192,8192,0,0,0,0,0,0,0,0,0,0,0,0,0,0,0,0,0,0,0,0,0,0,0,0,0,0,0,0,0,8192,0,0,0,8192,0,0,0,0,0,8192,8192,0,0,0,0,0,0,0,0,8192,0,0,8192,8192,8192,0,0,8192,0,0,8192,0,0,0,0,8192,0,0,8192,0,0,0,0,8192,8192,0,0,0,8192,8192,8192,0,0,0,0,0,0,0,0,0,0,0,0,0,0,0,8192,0,0,0,8192,0,0,0,0,0,0,0,0,0,0,0,0,0,0,0,0,0,0,0,0,0,0,0,0,8192,8192,0,0,0,8192,8192,8192,0,0,8192,0,0,0,0,0,0,0,0,8192,0,0,0,0,8192,0,0,8192,0,0,0,0,0,8192,0,8192,0,0,0,0,0,0,0,0,0,0,0,0,0,8192,0,0,0,0,0,0,8192,0,0,0,0,0,0,0,0,0,0,0,8192,0,0,0,0,0,0,0,0,0,0,0,0,0,8192,0,0,0,0,0,0,0,0,0,0,0,0,0,0,0,0,0,8192,0,0,0,8192,0,0,0,8192,0,8192,8192,0,0,8192,8192,0,8192,0,0,0,0,0,0,0,8192,0,0,0,0,0,0,0,0,0,0,0,0,0,0,0,0,0,0,0,0,0,0,0,0,0,0,0,0,0,0,0,0,0,0,8192,8192,0,0,0,0,0,0,0,8192,0,0,0,0,0,0,0,0,0,0,0,0,0,0,0,0,0,0,0,0,0,0,0,0,0,8192,8192,0,8192,8192,8192,0,8192,0,8192,0,8192,0,8192,0,0,8192,0,0,8192,8192,0,8192,0,0,0,0,0,0,0,0,8192,8192,0,8192,8192,0,0,0,0,0,0,0,0,8192,8192,0,0,0,0,0,0,0,0,0,0,0,0,0,0,0,0,0,8192,0,0,8192,8192,0,0,8192,8192,8192,0,0,8192,0,0,0,0,0,0,0,0,0,0,0,0,0,0,0,0,0,0,0,0,0,0,8192,0,8192,8192,0,0,0,0,0,0,0,0,0,8192,8192,0,0,0,0,0,0,0,0,0,0,0,0,0,0,0,8192,0,0,0,0,0,8192,8192,0,8192,0,0,0,8192,0,0,0,0,0,0,8192,8192,8192,0,8192,0,8192,0,0,0,0,0,0,0,0,0,0,0,0,0,0,0,0,0,0,0,0,0,0,0,0,0,0,0,0,0,0,0,0,0,0,0,0,8192,8192,8192,0,8192,0,0,0,0,0,0,0,0,0,0,0,0,0,0,0,0,0,0,0,8192,0,0,0,0,0,0,0,0,0,0,0,0,0,0,0,8192,0,8192,8192,8192,0,0,8192,0,0,0,0,0,0,0,0,0,0,0,0,0,0,0,0,0,0,0,0,0,0,0,0,8192,8192,8192,8192,0,0,0,0,0,0,0,0,0,0,0,0,0,8192,0,0,0,0,0,0,8192,8192,0,0,0,8192,0,0,0,0,8192,0,0,0,0,0,0,0,0,0,0,0,0,8192,0,0,0,0,0,8192,0,8192,8192,8192,0,0,0,0,0,0,0,0,0,0,0,0,0,0,0,0,0,0,0,0,0,0,8192,0,8192,0,8192,0,8192,0,8192,8192,8192,0,8192,8192,8192,8192,8192,8192,8192,8192,0,0,0,8192,0,0,8192,0,0,0,0,0,0,0,0,0,8192,8192,0,0,8192,8192,0,0,0,0,8192,8192,0,0,0,0,0,0,0,0,0,0,0,8192,0,0,0,0,8192,8192,8192,0,0,0,0,0,0,0,0,0,0,0,0,0,0,8192,8192,8192,0,0,0,0,8192,0,0,0,0,0,0,0,0,0,0,0,8192,8192,0,0,0,0,0,0,0,0,0,0,0,0,0,0,0,0,8192,8192,0,0,8192,0,0,0,0,0,0,0,0,0,0,0,0,8192,0,0,8192,0,0,0,0,0,0,0,0,0,0,0,0,0,0,0,0,0,0,0,0,8192,0,0,8192,0,0,0,0,0,0,0,8192,0,0,0,0,0,0,0,0,8192,8192,8192,0,8192,0,0,0,0,0,0,0,0,0,8192,8192,8192,8192,0,8192,8192,8192,8192,8192,0,8192,0,0,8192,8192,0,0,8192,0,8192,8192,8192,8192,0,0,0,0,8192,8192,0,8192,0,8192,0,0,0,0,8192,8192,0,0,0,0,0,0,0,0,8192,0,0,0,0,0,0,0,0,0,0,0,8192,0,0,0,0,0,8192,0,0,0,0,0,0,0,8192,0,0,0,0,0,0,0,0,8192,8192,0,0,0,0,8192,0,0,0,0,8192,8192,0,0,0,0,0,8192,0,0,0,0,0,0,0,0,0,0,0,0,8192,0,0,0,0,0,0,0,0,8192,0,8192,0,0,8192,0,8192,0,0,0,0,0,0,0,0,0,0,0,0,0,0,0,0,0,0,0,0,0,0,0,0,0,0,0,0,0,0,0,0,0,0,0,8192,0,0,8192,8192,8192,0,0,0,8192,8192,0,8192,0,0,0,0,0,0,0,8192,8192,0,0,0,0,0,0,0,8192,0,0,8192,0,0,8192,8192,8192,0,0,0,0,0,0,0,0,0,0,0,0,0,0,0,0,8192,0,0,0,0,0,0,0,0,0,0,8192,0,0,0,0,0,0,8192,0,0,0,0,0,8192,0,0,0,0,0,0,0,0,0,0,0,0,0,0,0,0,0,0,0,0,0,0,0,0,8192,0,0,0,0,0,0,0,0,0,0,0,8192,8192,0,8192,0,8192,8192,0,0,0,0,0,0,0,0,0,0,0,0,0,0,0,0,8192,0,0,8192,0,8192,0,0,0,0,0,0,0,0,8192,0,0,0,0,8192,0,0,0,0,8192,0,0,8192,0,0,8192,0,0,0,8192,8192,0,0,0,0,0,0,0,0,8192,0,0,8192,0,0,0,8192,8192,0,8192,8192,0,0,0,0,0,0,0,0,0,0,0,0,0,0,0,0,0,0,0,0,8192,0,0,0,0,0,0,0,0,0,0,0,8192,0,0,0,0,0,8192,0,0,8192,8192,0,0,0,0,0,0,0,8192,8192,0,0,0,0,0,0,8192,8192,0,0,0,0,0,0,0,0,0,0,0,8192,8192,8192,0,8192,0,0,0,0,0,0,0,0,0,0,0,0,0,0,0,0,0,0,0,0,0,0,8192,0,0,0,0,0,8192,8192,0,8192,8192,8192,0,0,0,0,8192,0,8192,0,0,0,0,8192,0,0,0,8192,0,0,0,0,0,0,0,0,0,0,8192,0,0,0,0,0,0,8192,0,0,0,0,0,0,8192,0,0,0,0,0,0,0,0,0,0,8192,8192,8192,0,0,0,8192,0,0,0,0,0,8192,0,8192,0,8192,8192,8192,0,0,0,8192,0,0,0,0,0,0,0,0,0,0,8192,0,0,8192,8192,8192,8192,0,0,0,8192,8192,0,0,0,0,0,0,0,0,0,0,0,0,0,8192,0,0,0,0,0,8192,0,0,8192,0,8192,8192,8192,0,8192,0,0,0,0,0,0,0,8192,0,0,0,0,8192,8192,8192,8192,0,0,8192,8192,0,0,0,0,0,8192,8192,8192,8192,8192,0,0,0,0,0,0,0,0,0,0,0,0,0,0,0,0,0,0,0,0,0,0,0,0,0,0,0,0,0,0,0,0,0,0,0,8192,0,0,0,8192,0,0,0,0,0,0,8192,0,0,0,0,0,0,0,0,0,0,8192,8192,8192,8192,0,0,8192,0,0,0,8192,0,0,0,0,0,0,8192,0,0,0,0,8192,0,0,8192,0,0,8192,0,0,0,0,8192,0,8192,0,0,0,0,8192,8192,8192,0,0,0,0,0,0,0,0,0,0,0,0,0,0,0,0,0,0,0,0,0,0,0,8192,0,0,0,0,0,0,0,8192,0,0,0,0,0,0,8192,0,0,0,0,0,0,8192,8192,0,0,0,0,0,0,0,0,0,0,8192,8192,0,0,0,0,0,0,0,8192,0,8192,0,0,8192,8192,0,0,0,0,0,0,0,8192,0,8192,8192,8192,8192,0,0,0,0,0,0,0,0,0,0,0,0,0,0,0,0,0,0,0,0,0,0,0,0,0,8192,0,8192,8192,8192,0,0,0,0,0,0,8192,0,0,0,0,0,0,0,8192,8192,8192,0,8192,0,0,0,0,8192,8192,0,0,8192,8192,0,0,8192,0,8192,0,0,0,0,0,0,0,0,8192,0,0,8192,8192,0,0,0,0,8192,0,0,0,8192,0,0,0,8192,8192,0,0,8192,0,0,0,0,0,0,0,0,8192,0,0,0,0,0,0,0,0,0,0,0,0,0,0,0,0,8192,0,0,0,0,0,0,0,0,0,0,0,0,8192,0,0,8192,8192,0,0,0,8192,0,0,8192,8192,8192,0,0,8192,0,0,0,8192,0,0,8192,0,0,0,0,0,0,0,8192,8192,0,0,8192,0,0,8192,0,0,0,0,0,0,0,0,0,0,0,0,0,0,0,8192,0,0,0,0,0,8192,0,0,0,0,8192,8192,8192,8192,0,0,8192,0,0,0,0,8192,0,0,0,0,0,0,0,0,8192,8192,0,8192,0,0,0,0,0,0,0,0,0,0,0,0,0,0,0,0,0,0,0,0,0,8192,8192,8192,0,8192,8192,0,8192,8192,8192,0,0,0,0,0,0,0,0,8192,0,8192,0,0,0,0,0,0,0,0,0,0,0,0,8192,0,0,0,0,0,0,0,0,0,0,0,8192,8192,8192,8192,8192,0,0,8192,0,8192,8192,0,8192,0,0,8192,0,8192,8192,0,0,0,0,0,0,0,0,0,8192,0,0,8192,8192,0,0,0,8192,0,0,0,0,0,0,0,0,0,8192,0,0,0,0,0,0,0,0,0,0,0,0,0,0,8192,8192,0,0,8192,8192,0,8192,0,0,0,0,8192,0,0,8192,0,0,0,0,0,0,0,0,0,0,0,0,0,8192,8192,0,0,8192,8192,0,0,0,8192,0,0,0,0,0,0,0,0,0,0,0,0,0,0,0,0,0,0,0,0,0,0,0,0,0,0,8192,8192,0,0,0,8192,0,0,0,0,0,0,8192,0,0,0,0,8192,0,0,0,0,8192,0,0,0,0,0,0,0,0,0,0,0,0,0,0,0,0,0,0,0,0,0,0,0,0,0,0,0,0,8192,0,8192,0,0,0,0,0,0,0,0,0,8192,8192,8192,0,0,8192,0,8192,8192,8192,8192,0,0,0,0,0,0,8192,0,0,0,0,0,0,0,8192,8192,0,8192,8192,8192,8192,8192,0,0,0,0,0,0,0,0,0,0,0,0,0,0,8192,8192,0,0,0,0,0,0,0,0,8192,0,0,0,0,0,8192,0,0,0,0,0,8192,0,0,0,0,0,0,0,8192,0,0,0,0,8192,0,0,0,0,0,8192,8192,0,0,0,0,0,0,0,8192,0,0,0,0,0,0,0,0,8192,8192,8192,8192,8192,8192,8192,8192,8192,0,0,0,0,0,0,0,0,0,0,8192,8192,0,0,8192,8192,0,8192,0,0,0,0,0,0,0,0,0,0,8192};


void wfilter2_process(
	hls::stream<ap_uint<128> > & Input_1,
	hls::stream<ap_uint<32> > & Output_1
)
{
#pragma HLS INTERFACE axis register port=Input_1
#pragma HLS INTERFACE axis register port=Output_1

	int i, j;
	ap_uint<32> data_req_0;
	int sum0 =0;
	int sum1 =0;
	int sum2 =0;
	int final_sum =0;
	int stddev = 0;
	int mean = 0;
	int haar_counter = 0;


	static int_II II_0[125]= {0};
	#pragma HLS array_partition variable=II_0 complete dim=0


	int_II _II_0[125]= {0};
	#pragma HLS array_partition variable=_II_0 complete dim=0


	uint18_t coord[3][4];
	#pragma HLS array_partition variable=coord complete dim=1

	unsigned char II_x[3][4];
	#pragma HLS array_partition variable=II_x complete dim=1

	unsigned char II_y[3][4];
	#pragma HLS array_partition variable=II_y complete dim=1

	bit128 in_tmp;
	in_tmp=Input_1.read();
	haar_counter = in_tmp(31,0);



	if(haar_counter == 52){
		for(j=0;j<25;j++){
#pragma HLS PIPELINE
			in_tmp = Input_1.read();
			INPUT_1: for(i = 0; i<5; i++){
				II_0[i*25+j] = in_tmp(18*i+17,18*i);
			}
		}
	}

	TEMP: for(i = 0; i<125; i++){
#pragma HLS unroll
		_II_0[i] = II_0[i];
	}


	in_tmp = Input_1.read();

	coord1: for(i=0; i<4; i++){
#pragma HLS unroll
//#pragma HLS PIPELINE
		data_req_0 = in_tmp(32*i+31,i*32);
		coord2: for(j=0; j<3; j++){
		#pragma HLS unroll
			II_x[j][i] = data_req_0(j*10+4,j*10);
			II_y[j][i] = data_req_0(j*10+9,j*10+5);
			if(II_y[j][i]<15 && II_y[j][i] > 9){
				coord[j][i] = _II_0[II_y[j][i]*25+II_x[j][i]-250];
			}else{
				coord[j][i] = 0;
			}
		}
	}




	sum0 = sum0 + (coord[0][0] - coord[1][0] - coord[2][0] + coord[0][1]) * weights_array0[haar_counter];
	sum1 = sum1 + (coord[1][1] - coord[2][1] - coord[0][2] + coord[1][2]) * weights_array1[haar_counter];
	sum2 = sum2 + (coord[2][2] - coord[0][3] - coord[1][3] + coord[2][3]) * weights_array2[haar_counter];
	final_sum = sum0+sum1+sum2;
	Output_1.write(final_sum);

}



